{"learner":{"attributes":{"best_iteration":"101","best_score":"0.06576394359223063"},"feature_names":["player_elo_diff","win_rate_5_diff","win_streak_diff","loss_streak_diff","win_rate_hard_5_diff","win_rate_clay_5_diff","win_rate_grass_5_diff","win_rate_carpet_5_diff","win_rate_hard_overall_diff","win_rate_clay_overall_diff","win_rate_grass_overall_diff","win_rate_carpet_overall_diff","serve_efficiency_5_diff","first_serve_pct_5_diff","first_serve_win_pct_5_diff","second_serve_win_pct_5_diff","ace_pct_5_diff","bp_saved_pct_5_diff","return_efficiency_5_diff","bp_conversion_pct_5_diff","player1_win_rate_5","player1_win_streak","player1_loss_streak","player1_win_rate_hard_5","player1_win_rate_clay_5","player1_win_rate_grass_5","player1_win_rate_carpet_5","player1_win_rate_hard_overall","player1_win_rate_clay_overall","player1_win_rate_grass_overall","player1_win_rate_carpet_overall","player1_serve_efficiency_5","player1_first_serve_pct_5","player1_first_serve_win_pct_5","player1_second_serve_win_pct_5","player1_ace_pct_5","player1_bp_saved_pct_5","player1_return_efficiency_5","player1_bp_conversion_pct_5","player2_win_rate_5","player2_win_streak","player2_loss_streak","player2_win_rate_hard_5","player2_win_rate_clay_5","player2_win_rate_grass_5","player2_win_rate_carpet_5","player2_win_rate_hard_overall","player2_win_rate_clay_overall","player2_win_rate_grass_overall","player2_win_rate_carpet_overall","player2_serve_efficiency_5","player2_first_serve_pct_5","player2_first_serve_win_pct_5","player2_second_serve_win_pct_5","player2_ace_pct_5","player2_bp_saved_pct_5","player2_return_efficiency_5","player2_bp_conversion_pct_5"],"feature_types":[],"gradient_booster":{"model":{"gbtree_model_param":{"num_parallel_tree":"1","num_trees":"104"},"iteration_indptr":[0,1,2,3,4,5,6,7,8,9,10,11,12,13,14,15,16,17,18,19,20,21,22,23,24,25,26,27,28,29,30,31,32,33,34,35,36,37,38,39,40,41,42,43,44,45,46,47,48,49,50,51,52,53,54,55,56,57,58,59,60,61,62,63,64,65,66,67,68,69,70,71,72,73,74,75,76,77,78,79,80,81,82,83,84,85,86,87,88,89,90,91,92,93,94,95,96,97,98,99,100,101,102,103,104],"tree_info":[0,0,0,0,0,0,0,0,0,0,0,0,0,0,0,0,0,0,0,0,0,0,0,0,0,0,0,0,0,0,0,0,0,0,0,0,0,0,0,0,0,0,0,0,0,0,0,0,0,0,0,0,0,0,0,0,0,0,0,0,0,0,0,0,0,0,0,0,0,0,0,0,0,0,0,0,0,0,0,0,0,0,0,0,0,0,0,0,0,0,0,0,0,0,0,0,0,0,0,0,0,0,0,0],"trees":[{"base_weights":[4.284228E-5,-6.1820546E-4,6.163625E-3,-9.025739E-4,6.419437E-3,2.7859757E-2,5.005084E-3,-1.1015227E-3,7.7429605E-3,6.817963E-5,2.7815163E-2,3.3569091E-4,2.9194754E-1,4.7956565E-3,4.5412928E-2,-2.0448404E-5,2.530528E-5,8.645833E-5,1.0008065E-3,1.374384E-4,7.121014E-4,8.458397E-3,8.187727E-4,1.21450874E-4,4.0732128E-5,1.2281435E-4,1.7876611E-3],"categories":[],"categories_nodes":[],"categories_segments":[],"categories_sizes":[],"default_left":[0,0,0,0,0,0,0,0,0,0,0,0,0,0,0,0,0,0,0,0,0,0,0,0,0,0,0],"id":0,"left_children":[1,3,5,7,9,11,13,15,17,-1,19,-1,21,23,25,-1,-1,-1,-1,-1,-1,-1,-1,-1,-1,-1,-1],"loss_changes":[1.9768264E0,8.780579E-1,1.1797241E0,7.243621E-1,3.4292507E-1,5.414219E-1,3.5610032E-1,6.791441E-1,5.3785306E-1,0E0,3.1932646E-1,0E0,3.0555135E-1,3.338076E-1,6.7935145E-1,0E0,0E0,0E0,0E0,0E0,0E0,0E0,0E0,0E0,0E0,0E0,0E0],"parents":[2147483647,0,0,1,1,2,2,3,3,4,4,5,5,6,6,7,7,8,8,10,10,12,12,13,13,14,14],"right_children":[2,4,6,8,10,12,14,16,18,-1,20,-1,22,24,26,-1,-1,-1,-1,-1,-1,-1,-1,-1,-1,-1,-1],"split_conditions":[1.2175182E2,6.666667E-1,2.5E-1,5.4054055E-4,7.5177306E-1,7.592593E-1,7.432432E-1,8.067844E1,7.532467E-1,6.817963E-5,7.7860224E-1,3.3569091E-4,1.5341628E2,2E-1,4.361905E-1,-2.0448404E-5,2.530528E-5,8.645833E-5,1.0008065E-3,1.374384E-4,7.121014E-4,8.458397E-3,8.187727E-4,1.21450874E-4,4.0732128E-5,1.2281435E-4,1.7876611E-3],"split_indices":[0,46,20,11,27,28,46,0,48,0,33,0,0,42,57,0,0,0,0,0,0,0,0,0,0,0,0],"split_type":[0,0,0,0,0,0,0,0,0,0,0,0,0,0,0,0,0,0,0,0,0,0,0,0,0,0,0],"sum_hessian":[4.87843E5,4.40213E5,4.763E4,4.23189E5,1.7024E4,2.391E3,4.5239E4,4.1373E5,9.459E3,1.6295E4,7.29E2,2.383E3,8E0,4.5019E4,2.2E2,3.54051E5,5.9679E4,9.355E3,1.04E2,4.72E2,2.57E2,2E0,6E0,1.0787E4,3.4232E4,1.65E2,5.5E1],"tree_param":{"num_deleted":"0","num_feature":"58","num_nodes":"27","size_leaf_vector":"1"}},{"base_weights":[-3.3608628E-6,-1.2512765E-3,4.159447E-3,-1.5725024E-3,5.2173E-3,1.7725775E-4,2.8941527E-3,-1.7512001E-3,6.528729E-3,3.6452417E-3,1.9143831E-2,1.3755054E-2,2.2596354E-3,-2.7656326E-5,6.7674664E-6,6.8187444E-5,7.0479914E-4,4.296435E-5,1.3034737E-3,1.8464524E-4,9.3135436E-4,1.4967281E-4,7.0283684E-4,2.2090174E-4,2.244296E-5],"categories":[],"categories_nodes":[],"categories_segments":[],"categories_sizes":[],"default_left":[0,0,0,0,0,0,0,0,0,0,0,0,0,0,0,0,0,0,0,0,0,0,0,0,0],"id":1,"left_children":[1,3,5,7,9,-1,11,13,15,17,19,21,23,-1,-1,-1,-1,-1,-1,-1,-1,-1,-1,-1,-1],"loss_changes":[2.5282915E0,7.7679014E-1,1.404636E0,5.144513E-1,3.7433288E-1,0E0,6.779615E-1,3.6196756E-1,3.837223E-1,2.9931068E-1,3.8159645E-1,3.8639367E-1,6.7171085E-1,0E0,0E0,0E0,0E0,0E0,0E0,0E0,0E0,0E0,0E0,0E0,0E0],"parents":[2147483647,0,0,1,1,2,2,3,3,4,4,6,6,7,7,8,8,9,9,10,10,11,11,12,12],"right_children":[2,4,6,8,10,-1,12,14,16,18,20,22,24,-1,-1,-1,-1,-1,-1,-1,-1,-1,-1,-1,-1],"split_conditions":[7.971675E1,6.5625E-1,2E-1,5.4054055E-4,5.9156914E1,1.7725775E-4,2E-1,5.6841537E1,7.5177306E-1,5.6363636E-1,7.5177306E-1,7.84E-1,2.5E-1,-2.7656326E-5,6.7674664E-6,6.8187444E-5,7.0479914E-4,4.296435E-5,1.3034737E-3,1.8464524E-4,9.3135436E-4,1.4967281E-4,7.0283684E-4,2.2090174E-4,2.244296E-5],"split_indices":[0,46,23,11,0,0,24,0,27,9,27,27,20,0,0,0,0,0,0,0,0,0,0,0,0],"split_type":[0,0,0,0,0,0,0,0,0,0,0,0,0,0,0,0,0,0,0,0,0,0,0,0,0],"sum_hessian":[4.86991E5,3.74771E5,1.1222E5,3.57119E5,1.7652E4,1.2606E4,9.9614E4,3.49476E5,7.643E3,1.5896E4,1.756E3,5.452E3,9.4162E4,2.92153E5,5.7323E4,7.488E3,1.55E2,1.5866E4,3E1,1.634E3,1.22E2,5.237E3,2.15E2,2.781E3,9.1381E4],"tree_param":{"num_deleted":"0","num_feature":"58","num_nodes":"25","size_leaf_vector":"1"}},{"base_weights":[1.658737E-5,-6.7370565E-4,6.389673E-3,-1.2720609E-3,2.784287E-3,1.4940408E-2,4.533064E-3,-1.5642119E-3,5.721197E-5,1.5325751E-4,1.4594011E-3,2.8246216E-4,6.117906E-5,3.438347E-3,1.4066979E-2,-2.190781E-5,8.202289E-5,1.5892614E-4,8.8261495E-6,1.520726E-4,2.9116634E-5,1.4618723E-4,6.45436E-4],"categories":[],"categories_nodes":[],"categories_segments":[],"categories_sizes":[],"default_left":[0,0,0,0,0,0,0,0,0,0,0,0,0,0,0,0,0,0,0,0,0,0,0],"id":2,"left_children":[1,3,5,7,9,11,13,15,-1,-1,17,-1,-1,19,21,-1,-1,-1,-1,-1,-1,-1,-1],"loss_changes":[2.1471224E0,9.0890896E-1,7.4696934E-1,6.368073E-1,8.005233E-1,6.2872267E-1,4.002921E-1,5.189796E-1,0E0,0E0,4.7396538E-1,0E0,0E0,3.3462712E-1,3.278777E-1,0E0,0E0,0E0,0E0,0E0,0E0,0E0,0E0],"parents":[2147483647,0,0,1,1,2,2,3,3,4,4,5,5,6,6,7,7,10,10,13,13,14,14],"right_children":[2,4,6,8,10,12,14,16,-1,-1,18,-1,-1,20,22,-1,-1,-1,-1,-1,-1,-1,-1],"split_conditions":[1.2175182E2,7.971675E1,3.3333334E-1,6.5625E-1,2E-1,7.5E-1,7.2131145E-1,5.4054055E-4,5.721197E-5,1.5325751E-4,2E-1,2.8246216E-4,6.117906E-5,2.5E-1,7.04918E-1,-2.190781E-5,8.202289E-5,1.5892614E-4,8.8261495E-6,1.520726E-4,2.9116634E-5,1.4618723E-4,6.45436E-4],"split_indices":[0,0,23,46,23,24,27,11,0,0,24,0,0,24,49,0,0,0,0,0,0,0,0],"split_type":[0,0,0,0,0,0,0,0,0,0,0,0,0,0,0,0,0,0,0,0,0,0,0],"sum_hessian":[4.87369E5,4.39664E5,4.7705E4,3.7494E5,6.4724E4,8.459E3,3.9246E4,3.57129E5,1.7811E4,7.931E3,5.6793E4,4.803E3,3.656E3,3.5254E4,3.992E3,3.4941E5,7.719E3,3.55E3,5.3243E4,3.977E3,3.1277E4,3.762E3,2.3E2],"tree_param":{"num_deleted":"0","num_feature":"58","num_nodes":"23","size_leaf_vector":"1"}},{"base_weights":[1.1410912E-5,-6.3828E-4,6.033493E-3,-7.868539E-4,1.3292238E-2,3.1902146E-2,4.645144E-3,-1.01487E-3,6.362562E-5,1.0397433E-2,5.3168185E-2,3.0803168E-2,3.6294204E-3,3.119978E-5,1.0525301E-4,-1.447386E-5,6.487862E-5,5.450841E-4,9.783019E-5,6.593911E-5,1.183046E-3,2.9957178E-4,6.731231E-4],"categories":[],"categories_nodes":[],"categories_segments":[],"categories_sizes":[],"default_left":[0,0,0,0,0,0,0,0,0,0,0,0,0,0,0,0,0,0,0,0,0,0,0],"id":3,"left_children":[1,3,5,7,9,11,13,15,-1,17,19,21,-1,-1,-1,-1,-1,-1,-1,-1,-1,-1,-1],"loss_changes":[1.9098939E0,9.0376467E-1,1.6880742E0,5.788051E-1,4.9758106E-1,5.073638E-1,3.5865366E-1,3.546176E-1,0E0,3.4318736E-1,5.3532743E-1,3.3784056E-1,0E0,0E0,0E0,0E0,0E0,0E0,0E0,0E0,0E0,0E0,0E0],"parents":[2147483647,0,0,1,1,2,2,3,3,4,4,5,5,6,6,7,7,9,9,10,10,11,11],"right_children":[2,4,6,8,10,12,14,16,-1,18,20,22,-1,-1,-1,-1,-1,-1,-1,-1,-1,-1,-1],"split_conditions":[1.2175182E2,7.5177306E-1,2.5E-1,6.666667E-1,9.966778E-3,7.592593E-1,1.648671E2,9.966778E-3,6.362562E-5,2E-1,7.640114E-1,2E-1,3.6294204E-3,3.119978E-5,1.0525301E-4,-1.447386E-5,6.487862E-5,5.450841E-4,9.783019E-5,6.593911E-5,1.183046E-3,2.9957178E-4,6.731231E-4],"split_indices":[0,27,20,46,11,28,0,11,0,24,33,26,0,0,0,0,0,0,0,0,0,0,0],"split_type":[0,0,0,0,0,0,0,0,0,0,0,0,0,0,0,0,0,0,0,0,0,0,0],"sum_hessian":[4.87419E5,4.39875E5,4.7544E4,4.35271E5,4.604E3,2.402E3,4.5142E4,4.19039E5,1.6232E4,4.305E3,2.99E2,2.394E3,8E0,2.8693E4,1.6449E4,4.0999E5,9.049E3,3E2,4.005E3,1.44E2,1.55E2,1.853E3,5.41E2],"tree_param":{"num_deleted":"0","num_feature":"58","num_nodes":"23","size_leaf_vector":"1"}},{"base_weights":[8.381393E-5,-6.396865E-4,6.764603E-3,-8.0067717E-4,1.4445487E-2,4.1921614E-4,5.3324113E-3,-1.2668567E-3,1.9300096E-3,1.0511853E-2,6.9244824E-2,1.334416E-4,3.6545547E-3,-2.1937834E-5,1.644852E-5,1.4329993E-4,6.903472E-6,1.2120259E-4,2.9333057E-3,4.5786935E-4,2.2447084E-3,3.2791155E-5,1.5869555E-4],"categories":[],"categories_nodes":[],"categories_segments":[],"categories_sizes":[],"default_left":[0,0,0,0,0,0,0,0,0,0,0,0,0,0,0,0,0,0,0,0,0,0,0],"id":4,"left_children":[1,3,5,7,9,-1,11,13,15,17,19,-1,21,-1,-1,-1,-1,-1,-1,-1,-1,-1,-1],"loss_changes":[2.3560975E0,1.0592184E0,1.795433E0,5.5280536E-1,9.4951427E-1,0E0,3.9409435E-1,4.596247E-1,8.20716E-1,6.9593877E-1,9.5852697E-1,0E0,3.144244E-1,0E0,0E0,0E0,0E0,0E0,0E0,0E0,0E0,0E0,0E0],"parents":[2147483647,0,0,1,1,2,2,3,3,4,4,6,6,7,7,8,8,9,9,10,10,12,12],"right_children":[2,4,6,8,10,-1,12,14,16,18,20,-1,22,-1,-1,-1,-1,-1,-1,-1,-1,-1,-1],"split_conditions":[1.2175182E2,7.5177306E-1,2.5E-1,7.971675E1,9.966778E-3,4.1921614E-4,2E-1,5.746665E1,2E-1,1E0,6.666667E-1,1.334416E-4,7.2131145E-1,-2.1937834E-5,1.644852E-5,1.4329993E-4,6.903472E-6,1.2120259E-4,2.9333057E-3,4.5786935E-4,2.2447084E-3,3.2791155E-5,1.5869555E-4],"split_indices":[0,27,20,0,11,0,42,0,23,47,43,0,27,0,0,0,0,0,0,0,0,0,0],"split_type":[0,0,0,0,0,0,0,0,0,0,0,0,0,0,0,0,0,0,0,0,0,0,0],"sum_hessian":[4.86772E5,4.39136E5,4.7636E4,4.34534E5,4.602E3,2.413E3,4.5223E4,3.71335E5,6.3199E4,4.303E3,2.99E2,1.0807E4,3.4416E4,3.13185E5,5.815E4,7.982E3,5.5217E4,4.289E3,1.4E1,2.34E2,6.5E1,3.0888E4,3.528E3],"tree_param":{"num_deleted":"0","num_feature":"58","num_nodes":"23","size_leaf_vector":"1"}},{"base_weights":[-0E0,-7.118253E-4,6.0289204E-3,-2.063804E-5,1.6862681E-3,2.9980991E-2,4.7215945E-3,7.843921E-3,6.9605705E-4,3.6440388E-4,2.839477E-3,1.2388975E-4,3.0986108E-3,8.469004E-5,3.5192716E-4,4.7898716E-6,2.4502433E-4,2.1925877E-4,3.0814128E-5],"categories":[],"categories_nodes":[],"categories_segments":[],"categories_sizes":[],"default_left":[0,0,0,0,0,0,0,0,0,0,0,0,0,0,0,0,0,0,0],"id":5,"left_children":[1,3,5,-1,7,9,11,13,15,-1,-1,-1,17,-1,-1,-1,-1,-1,-1],"loss_changes":[2.0860696E0,9.7275233E-1,1.5885807E0,0E0,7.3729527E-1,3.607266E-1,3.9958227E-1,3.5391343E-1,6.1033547E-1,0E0,0E0,0E0,3.3285365E-1,0E0,0E0,0E0,0E0,0E0,0E0],"parents":[2147483647,0,0,1,1,2,2,4,4,5,5,6,6,7,7,8,8,12,12],"right_children":[2,4,6,-1,8,10,12,14,16,-1,-1,-1,18,-1,-1,-1,-1,-1,-1],"split_conditions":[1.18186905E2,5.6841537E1,2.5E-1,-2.063804E-5,2E-1,7.592593E-1,2E-1,1.117879E2,6.879121E-1,3.6440388E-4,2.839477E-3,1.2388975E-4,2E-1,8.469004E-5,3.5192716E-4,4.7898716E-6,2.4502433E-4,2.1925877E-4,3.0814128E-5],"split_indices":[0,0,20,0,23,28,42,0,47,0,0,0,24,0,0,0,0,0,0],"split_type":[0,0,0,0,0,0,0,0,0,0,0,0,0,0,0,0,0,0,0],"sum_hessian":[4.86728E5,4.35406E5,5.1322E4,3.13741E5,1.21665E5,2.635E3,4.8687E4,1.678E4,1.04885E5,2.625E3,1E1,1.1598E4,3.7089E4,1.5938E4,8.42E2,1.03188E5,1.697E3,1.558E3,3.5531E4],"tree_param":{"num_deleted":"0","num_feature":"58","num_nodes":"19","size_leaf_vector":"1"}},{"base_weights":[-7.927745E-6,-6.590193E-4,6.269784E-3,-8.107699E-4,1.3634642E-2,1.2049368E-2,3.958093E-5,-1.3320744E-3,2.1496173E-3,1.0540683E-4,5.73809E-2,1.890427E-2,7.444709E-3,-1.8826606E-5,7.798264E-5,1.3439212E-4,1.1667922E-5,6.081335E-4,4.8542228E-3,2.2767411E-4,1.8417117E-3,1.8277502E-3,8.768096E-5],"categories":[],"categories_nodes":[],"categories_segments":[],"categories_sizes":[],"default_left":[0,0,0,0,0,0,0,0,0,0,0,0,0,0,0,0,0,0,0,0,0,0,0],"id":6,"left_children":[1,3,5,7,9,11,-1,13,15,-1,17,19,21,-1,-1,-1,-1,-1,-1,-1,-1,-1,-1],"loss_changes":[1.9875231E0,9.504034E-1,8.151442E-1,6.73518E-1,1.0193629E0,4.893918E-1,0E0,4.6579093E-1,6.747236E-1,0E0,1.1839455E0,5.4095936E-1,5.309491E-1,0E0,0E0,0E0,0E0,0E0,0E0,0E0,0E0,0E0,0E0],"parents":[2147483647,0,0,1,1,2,2,3,3,4,4,5,5,7,7,8,8,10,10,11,11,12,12],"right_children":[2,4,6,8,10,12,-1,14,16,-1,18,20,22,-1,-1,-1,-1,-1,-1,-1,-1,-1,-1],"split_conditions":[1.2363373E2,7.5177306E-1,4E-1,7.971675E1,6.879121E-1,6E-1,3.958093E-5,5.4054055E-4,2E-1,1.0540683E-4,3.5E-1,7.414634E-1,2E-1,-1.8826606E-5,7.798264E-5,1.3439212E-4,1.1667922E-5,6.081335E-4,4.8542228E-3,2.2767411E-4,1.8417117E-3,1.8277502E-3,8.768096E-5],"split_indices":[0,27,1,0,47,24,0,11,23,0,7,28,39,0,0,0,0,0,0,0,0,0,0],"split_type":[0,0,0,0,0,0,0,0,0,0,0,0,0,0,0,0,0,0,0,0,0,0,0],"sum_hessian":[4.8699E5,4.41305E5,4.5685E4,4.36706E5,4.599E3,1.5949E4,2.9736E4,3.71472E5,6.5234E4,4.118E3,4.81E2,6.362E3,9.587E3,3.63487E5,7.985E3,8.092E3,5.7142E4,4.7E2,1.1E1,6.328E3,3.4E1,2.8E1,9.559E3],"tree_param":{"num_deleted":"0","num_feature":"58","num_nodes":"23","size_leaf_vector":"1"}},{"base_weights":[1.3344803E-4,-6.5123466E-5,1.3236201E-2,-2.5304902E-4,9.802145E-5,1.288804E-4,4.431486E-2,3.7321326E-4,-2.1380724E-3,2.1280458E-2,1.048172E-1,2.6995795E-5,-1.633863E-6,-2.9580067E-5,1.3082188E-4,2.2283755E-3,1.7089503E-4,4.633872E-4,2.2244758E-3],"categories":[],"categories_nodes":[],"categories_segments":[],"categories_sizes":[],"default_left":[0,0,0,0,0,0,0,0,0,0,0,0,0,0,0,0,0,0,0],"id":7,"left_children":[1,3,5,7,-1,-1,9,11,13,15,17,-1,-1,-1,-1,-1,-1,-1,-1],"loss_changes":[1.2732062E0,7.0501226E-1,6.4588714E-1,5.5370516E-1,0E0,0E0,7.996509E-1,3.1516224E-1,3.1515318E-1,4.4572496E-1,6.9640434E-1,0E0,0E0,0E0,0E0,0E0,0E0,0E0,0E0],"parents":[2147483647,0,0,1,1,2,2,3,3,6,6,7,7,8,8,9,9,10,10],"right_children":[2,4,6,8,-1,-1,10,12,14,16,18,-1,-1,-1,-1,-1,-1,-1,-1],"split_conditions":[7.5177306E-1,5.4054055E-4,6.879121E-1,5.882353E-2,9.802145E-5,1.288804E-4,1.0948481E-1,2E-1,7.532467E-1,2E-1,6.9736844E-1,2.6995795E-5,-1.633863E-6,-2.9580067E-5,1.3082188E-4,2.2283755E-3,1.7089503E-4,4.633872E-4,2.2244758E-3],"split_indices":[27,11,47,56,0,0,35,23,48,24,28,0,0,0,0,0,0,0,0],"split_type":[0,0,0,0,0,0,0,0,0,0,0,0,0,0,0,0,0,0,0],"sum_hessian":[4.86657E5,4.79352E5,7.305E3,4.6824E5,1.1112E4,6.683E3,6.22E2,3.51259E5,1.16981E5,4.57E2,1.65E2,7.778E4,2.73479E5,1.15031E5,1.95E3,1.8E1,4.39E2,8.9E1,7.6E1],"tree_param":{"num_deleted":"0","num_feature":"58","num_nodes":"19","size_leaf_vector":"1"}},{"base_weights":[1.9186022E-5,-6.400383E-4,6.108194E-3,-7.590521E-4,1.0529674E-2,2.9882537E-2,4.8300605E-3,-1.1932473E-3,1.7711181E-3,8.149447E-5,4.4291683E-2,3.6175599E-4,2.811071E-1,3.2948486E-5,1.0806717E-4,-2.0842712E-5,1.6475542E-5,1.3017413E-4,6.7117544E-6,4.6562403E-4,4.0510283E-3,5.728719E-3,-0E0],"categories":[],"categories_nodes":[],"categories_segments":[],"categories_sizes":[],"default_left":[0,0,0,0,0,0,0,0,0,0,0,0,0,0,0,0,0,0,0,0,0,0,0],"id":8,"left_children":[1,3,5,7,9,11,13,15,17,-1,19,-1,21,-1,-1,-1,-1,-1,-1,-1,-1,-1,-1],"loss_changes":[1.9587258E0,5.7914567E-1,1.4302713E0,4.7755903E-1,5.9863013E-1,4.8500037E-1,3.7109745E-1,4.3431973E-1,6.69495E-1,0E0,7.627118E-1,0E0,4.2728847E-1,0E0,0E0,0E0,0E0,0E0,0E0,0E0,0E0,0E0,0E0],"parents":[2147483647,0,0,1,1,2,2,3,3,4,4,5,5,6,6,7,7,8,8,10,10,12,12],"right_children":[2,4,6,8,10,12,14,16,18,-1,20,-1,22,-1,-1,-1,-1,-1,-1,-1,-1,-1,-1],"split_conditions":[1.2175182E2,7.5177306E-1,2.5E-1,7.971675E1,6.879121E-1,7.592593E-1,1.648671E2,5.746665E1,2E-1,8.149447E-5,3.5E-1,3.6175599E-4,9.9771164E-2,3.2948486E-5,1.0806717E-4,-2.0842712E-5,1.6475542E-5,1.3017413E-4,6.7117544E-6,4.6562403E-4,4.0510283E-3,5.728719E-3,-0E0],"split_indices":[0,27,20,0,47,28,0,0,23,0,7,0,8,0,0,0,0,0,0,0,0,0,0],"split_type":[0,0,0,0,0,0,0,0,0,0,0,0,0,0,0,0,0,0,0,0,0,0,0],"sum_hessian":[4.87246E5,4.39569E5,4.7677E4,4.34982E5,4.587E3,2.411E3,4.5266E4,3.71449E5,6.3533E4,4.111E3,4.76E2,2.403E3,8E0,2.866E4,1.6606E4,3.13316E5,5.8133E4,7.937E3,5.5596E4,4.66E2,1E1,5E0,3E0],"tree_param":{"num_deleted":"0","num_feature":"58","num_nodes":"23","size_leaf_vector":"1"}},{"base_weights":[-3.9526138E-5,-6.442789E-4,5.090485E-3,-8.4545516E-4,8.087401E-3,3.2749193E-4,3.933858E-3,-1.7214137E-3,1.4723096E-3,6.6510625E-3,5.3616766E-2,3.7086261E-3,4.5211785E-2,-2.4557516E-5,4.3632725E-5,1.0092321E-4,5.0402105E-6,7.068963E-5,6.684961E-4,3.162897E-4,2.5363641E-3,2.348651E-5,9.103381E-5,1.4365693E-4,1.8031027E-3],"categories":[],"categories_nodes":[],"categories_segments":[],"categories_sizes":[],"default_left":[0,0,0,0,0,0,0,0,0,0,0,0,0,0,0,0,0,0,0,0,0,0,0,0,0],"id":9,"left_children":[1,3,5,7,9,-1,11,13,15,17,19,21,23,-1,-1,-1,-1,-1,-1,-1,-1,-1,-1,-1,-1],"loss_changes":[1.509495E0,7.620723E-1,1.2293183E0,8.6556226E-1,6.061634E-1,0E0,4.26188E-1,3.7581462E-1,8.1627023E-1,4.1956937E-1,1.0895793E0,3.1012148E-1,7.5169224E-1,0E0,0E0,0E0,0E0,0E0,0E0,0E0,0E0,0E0,0E0,0E0,0E0],"parents":[2147483647,0,0,1,1,2,2,3,3,4,4,6,6,7,7,8,8,9,9,10,10,11,11,12,12],"right_children":[2,4,6,8,10,-1,12,14,16,18,20,22,24,-1,-1,-1,-1,-1,-1,-1,-1,-1,-1,-1,-1],"split_conditions":[1.18186905E2,9.966778E-3,2.5E-1,5.746665E1,7.5177306E-1,3.2749193E-4,7.432432E-1,6.666667E-1,2E-1,6.5833336E-1,6.964286E-1,1.648671E2,4.361905E-1,-2.4557516E-5,4.3632725E-5,1.0092321E-4,5.0402105E-6,7.068963E-5,6.684961E-4,3.162897E-4,2.5363641E-3,2.348651E-5,9.103381E-5,1.4365693E-4,1.8031027E-3],"split_indices":[0,11,20,0,27,0,46,46,23,38,47,0,57,0,0,0,0,0,0,0,0,0,0,0,0],"split_type":[0,0,0,0,0,0,0,0,0,0,0,0,0,0,0,0,0,0,0,0,0,0,0,0,0],"sum_hessian":[4.87321E5,4.36024E5,5.1297E4,4.26264E5,9.76E3,2.655E3,4.8642E4,3.09517E5,1.16747E5,9.473E3,2.87E2,4.8391E4,2.51E2,2.96267E5,1.325E4,1.6305E4,1.00442E5,9.281E3,1.92E2,2.44E2,4.3E1,3.1952E4,1.6439E4,1.91E2,6E1],"tree_param":{"num_deleted":"0","num_feature":"58","num_nodes":"25","size_leaf_vector":"1"}},{"base_weights":[1.3037361E-5,-1.1233559E-3,3.8129184E-3,-1.3926898E-3,5.1711444E-3,1.904054E-4,2.7429266E-3,-1.9781352E-5,5.016564E-3,4.2842785E-5,1.9451175E-2,8.173084E-3,1.609638E-3,5.4608314E-5,9.4904966E-4,1.7893892E-4,1.0038264E-3,6.5957865E-5,2.0047282E-4,6.143986E-6,8.577428E-5],"categories":[],"categories_nodes":[],"categories_segments":[],"categories_sizes":[],"default_left":[0,0,0,0,0,0,0,0,0,0,0,0,0,0,0,0,0,0,0,0,0],"id":10,"left_children":[1,3,5,7,9,-1,11,-1,13,-1,15,17,19,-1,-1,-1,-1,-1,-1,-1,-1],"loss_changes":[2.104764E0,6.334796E-1,1.3535454E0,4.1887397E-1,3.722434E-1,0E0,6.26282E-1,0E0,4.2293888E-1,0E0,4.673562E-1,3.9004314E-1,4.93168E-1,0E0,0E0,0E0,0E0,0E0,0E0,0E0,0E0],"parents":[2147483647,0,0,1,1,2,2,3,3,4,4,6,6,8,8,10,10,11,11,12,12],"right_children":[2,4,6,8,10,-1,12,-1,14,-1,16,18,20,-1,-1,-1,-1,-1,-1,-1,-1],"split_conditions":[7.971675E1,6.666667E-1,2E-1,6.8E-1,5.808229E1,1.904054E-4,6E-1,-1.9781352E-5,1.9794962E-1,4.2842785E-5,7.5177306E-1,1.2175182E2,1.648671E2,5.4608314E-5,9.4904966E-4,1.7893892E-4,1.0038264E-3,6.5957865E-5,2.0047282E-4,6.143986E-6,8.577428E-5],"split_indices":[0,46,24,27,0,0,20,0,35,0,27,0,0,0,0,0,0,0,0,0,0],"split_type":[0,0,0,0,0,0,0,0,0,0,0,0,0,0,0,0,0,0,0,0,0],"sum_hessian":[4.8709E5,3.74848E5,1.12242E5,3.59548E5,1.53E4,9.627E3,1.02615E5,3.49671E5,9.877E3,1.3655E4,1.645E3,1.7637E4,8.4978E4,9.792E3,8.5E1,1.523E3,1.22E2,1.2878E4,4.759E3,7.0048E4,1.493E4],"tree_param":{"num_deleted":"0","num_feature":"58","num_nodes":"21","size_leaf_vector":"1"}},{"base_weights":[5.0062285E-5,-1.0573524E-3,3.923711E-3,-1.3810776E-3,5.4297424E-3,1.47939E-2,2.9059495E-3,-1.9678982E-5,5.193647E-3,5.3642227E-5,3.618959E-2,1.7306145E-4,5.461249E-2,8.663796E-3,1.6566545E-3,5.1172156E-5,4.2861133E-4,-5.2584925E-5,6.6227076E-4,5.372011E-4,3.6504779E-3,1.659265E-4,3.0617917E-5,1.7425662E-5,2.6222866E-4],"categories":[],"categories_nodes":[],"categories_segments":[],"categories_sizes":[],"default_left":[0,0,0,0,0,0,0,0,0,0,0,0,0,0,0,0,0,0,0,0,0,0,0,0,0],"id":11,"left_children":[1,3,5,7,9,11,13,-1,15,-1,17,-1,19,21,23,-1,-1,-1,-1,-1,-1,-1,-1,-1,-1],"loss_changes":[2.0929432E0,7.9384774E-1,1.1909337E0,4.3971843E-1,6.174347E-1,3.3619E-1,7.084757E-1,0E0,2.987482E-1,0E0,4.4959593E-1,0E0,4.2466533E-1,4.9072754E-1,4.103289E-1,0E0,0E0,0E0,0E0,0E0,0E0,0E0,0E0,0E0,0E0],"parents":[2147483647,0,0,1,1,2,2,3,3,4,4,5,5,6,6,8,8,10,10,12,12,13,13,14,14],"right_children":[2,4,6,8,10,12,14,-1,16,-1,18,-1,20,22,24,-1,-1,-1,-1,-1,-1,-1,-1,-1,-1],"split_conditions":[8.166777E1,6.5625E-1,2E-1,6.8E-1,7.5177306E-1,6.371191E-1,3.3333334E-1,-1.9678982E-5,6.538462E-2,5.3642227E-5,5E-1,1.7306145E-4,6.4285713E-1,8E-1,8.2173914E-1,5.1172156E-5,4.2861133E-4,-5.2584925E-5,6.6227076E-4,5.372011E-4,3.6504779E-3,1.659265E-4,3.0617917E-5,1.7425662E-5,2.6222866E-4],"split_indices":[0,46,24,27,27,46,23,0,11,0,43,0,57,24,27,0,0,0,0,0,0,0,0,0,0],"split_type":[0,0,0,0,0,0,0,0,0,0,0,0,0,0,0,0,0,0,0,0,0,0,0,0,0],"sum_hessian":[4.8754E5,3.79041E5,1.08499E5,3.61103E5,1.7938E4,9.244E3,9.9255E4,3.51246E5,9.857E3,1.7304E4,6.34E2,9.028E3,2.16E2,1.762E4,8.1635E4,9.508E3,3.49E2,1.75E2,4.59E2,2.08E2,8E0,1.0131E4,7.489E3,8.0536E4,1.099E3],"tree_param":{"num_deleted":"0","num_feature":"58","num_nodes":"25","size_leaf_vector":"1"}},{"base_weights":[4.0774434E-5,-5.865872E-4,6.1326544E-3,-7.7549357E-4,7.3821777E-3,3.851831E-4,4.860817E-3,-2.1145659E-5,1.4692952E-3,7.09782E-5,6.1347295E-2,4.6461628E-5,1.2656249E-2,9.8195385E-5,5.5764176E-6,4.7248867E-4,2.2636838E-3,2.7100468E-4,7.974077E-5],"categories":[],"categories_nodes":[],"categories_segments":[],"categories_sizes":[],"default_left":[0,0,0,0,0,0,0,0,0,0,0,0,0,0,0,0,0,0,0],"id":12,"left_children":[1,3,5,7,9,-1,11,-1,13,-1,15,-1,17,-1,-1,-1,-1,-1,-1],"loss_changes":[1.8653924E0,6.614606E-1,1.4036852E0,8.801726E-1,9.1321176E-1,0E0,3.8364637E-1,0E0,8.0397713E-1,0E0,7.467241E-1,0E0,2.9805702E-1,0E0,0E0,0E0,0E0,0E0,0E0],"parents":[2147483647,0,0,1,1,2,2,3,3,4,4,6,6,8,8,10,10,12,12],"right_children":[2,4,6,8,10,-1,12,-1,14,-1,16,-1,18,-1,-1,-1,-1,-1,-1],"split_conditions":[1.2363373E2,5.4054055E-4,2.5E-1,5.6841537E1,7.5177306E-1,3.851831E-4,2.0514165E2,-2.1145659E-5,2E-1,7.09782E-5,6.964286E-1,4.6461628E-5,6.666667E-1,9.8195385E-5,5.5764176E-6,4.7248867E-4,2.2636838E-3,2.7100468E-4,7.974077E-5],"split_indices":[0,11,20,0,27,0,0,0,23,0,47,0,24,0,0,0,0,0,0],"split_type":[0,0,0,0,0,0,0,0,0,0,0,0,0,0,0,0,0,0,0],"sum_hessian":[4.87319E5,4.4174E5,4.5579E4,4.31576E5,1.0164E4,2.225E3,4.3354E4,3.07412E5,1.24164E5,9.858E3,3.06E2,3.7794E4,5.56E3,1.7187E4,1.06977E5,2.59E2,4.7E1,2.267E3,3.293E3],"tree_param":{"num_deleted":"0","num_feature":"58","num_nodes":"19","size_leaf_vector":"1"}},{"base_weights":[8.539961E-6,-5.0130644E-4,6.3954545E-3,-6.4692204E-4,1.25279045E-2,1.7680662E-2,4.818188E-3,-8.512072E-4,5.7910882E-5,8.535266E-3,6.469562E-2,2.2913447E-2,4.516958E-6,5.685268E-5,6.018374E-2,-2.8416869E-6,-3.4749908E-5,4.8816444E-5,3.7589608E-4,4.930507E-4,1.8219539E-3,2.7802624E-4,2.398493E-3,5.426216E-4,4.8578638E-3],"categories":[],"categories_nodes":[],"categories_segments":[],"categories_sizes":[],"default_left":[0,0,0,0,0,0,0,0,0,0,0,0,0,0,0,0,0,0,0,0,0,0,0,0,0],"id":13,"left_children":[1,3,5,7,9,11,13,15,-1,17,19,21,-1,-1,23,-1,-1,-1,-1,-1,-1,-1,-1,-1,-1],"loss_changes":[1.5898262E0,8.4965426E-1,6.3056004E-1,4.7734642E-1,9.91187E-1,3.850764E-1,4.7618252E-1,5.128276E-1,0E0,4.3991044E-1,6.0065806E-1,3.2071018E-1,0E0,0E0,6.345684E-1,0E0,0E0,0E0,0E0,0E0,0E0,0E0,0E0,0E0,0E0],"parents":[2147483647,0,0,1,1,2,2,3,3,4,4,5,5,6,6,7,7,9,9,10,10,11,11,14,14],"right_children":[2,4,6,8,10,12,14,16,-1,18,20,22,-1,-1,24,-1,-1,-1,-1,-1,-1,-1,-1,-1,-1],"split_conditions":[1.3398997E2,7.5177306E-1,5E-1,6.666667E-1,9.966778E-3,2E-1,7.432432E-1,2.8846154E-1,5.7910882E-5,6.557377E-1,6.782804E-2,7.2619045E-1,4.516958E-6,5.685268E-5,1.9794962E-1,-2.8416869E-6,-3.4749908E-5,4.8816444E-5,3.7589608E-4,4.930507E-4,1.8219539E-3,2.7802624E-4,2.398493E-3,5.426216E-4,4.8578638E-3],"split_indices":[0,27,20,46,11,25,46,51,0,47,16,49,0,0,35,0,0,0,0,0,0,0,0,0,0],"split_type":[0,0,0,0,0,0,0,0,0,0,0,0,0,0,0,0,0,0,0,0,0,0,0,0,0],"sum_hessian":[4.87261E5,4.51163E5,3.6098E4,4.46217E5,4.946E3,4.385E3,3.1713E4,4.29628E5,1.6589E4,4.604E3,3.42E2,3.344E3,1.041E3,3.1557E4,1.56E2,3.24176E5,1.05452E5,3.803E3,8.01E2,2.65E2,7.7E1,3.332E3,1.2E1,1.5E2,6E0],"tree_param":{"num_deleted":"0","num_feature":"58","num_nodes":"25","size_leaf_vector":"1"}},{"base_weights":[3.5279205E-5,-5.407268E-4,5.3849784E-3,-7.4061233E-4,7.927849E-3,2.7998555E-2,4.1660727E-3,-9.6008024E-4,5.9883387E-5,6.236997E-3,6.1258934E-2,3.3793613E-4,3.1798357E-1,4.1096475E-5,1.6811908E-4,-1.3983437E-5,4.76497E-5,6.594822E-5,5.2491284E-4,4.282588E-4,1.7912638E-3,5.6447643E-3,-0E0],"categories":[],"categories_nodes":[],"categories_segments":[],"categories_sizes":[],"default_left":[0,0,0,0,0,0,0,0,0,0,0,0,0,0,0,0,0,0,0,0,0,0,0],"id":14,"left_children":[1,3,5,7,9,11,13,15,-1,17,19,-1,21,-1,-1,-1,-1,-1,-1,-1,-1,-1,-1],"loss_changes":[1.5043482E0,7.40807E-1,1.2911408E0,5.176688E-1,8.732019E-1,5.738791E-1,3.6236703E-1,3.0024612E-1,0E0,3.177259E-1,5.686163E-1,0E0,3.1727028E-1,0E0,0E0,0E0,0E0,0E0,0E0,0E0,0E0,0E0,0E0],"parents":[2147483647,0,0,1,1,2,2,3,3,4,4,5,5,6,6,7,7,9,9,10,10,12,12],"right_children":[2,4,6,8,10,12,14,16,-1,18,20,-1,22,-1,-1,-1,-1,-1,-1,-1,-1,-1,-1],"split_conditions":[1.2175182E2,5.4054055E-4,2.5E-1,6.666667E-1,7.5177306E-1,7.592593E-1,7.2131145E-1,6.8E-1,5.9883387E-5,6.3492066E-1,6.666667E-1,3.3793613E-4,3.3333334E-1,4.1096475E-5,1.6811908E-4,-1.3983437E-5,4.76497E-5,6.594822E-5,5.2491284E-4,4.282588E-4,1.7912638E-3,5.6447643E-3,-0E0],"split_indices":[0,11,20,46,27,28,27,27,0,38,43,0,4,0,0,0,0,0,0,0,0,0,0],"split_type":[0,0,0,0,0,0,0,0,0,0,0,0,0,0,0,0,0,0,0,0,0,0,0],"sum_hessian":[4.87357E5,4.39894E5,4.7463E4,4.29812E5,1.0082E4,2.405E3,4.5058E4,4.13439E5,1.6373E4,9.782E3,3E2,2.398E3,7E0,4.1131E4,3.927E3,4.0062E5,1.2819E4,9.533E3,2.49E2,2.3E2,7E1,5E0,2E0],"tree_param":{"num_deleted":"0","num_feature":"58","num_nodes":"23","size_leaf_vector":"1"}},{"base_weights":[4.2602067E-5,-5.5723113E-4,5.1445025E-3,-8.074464E-4,5.607837E-3,2.4625743E-2,4.072287E-3,-1.2633192E-3,1.9481803E-3,5.6960733E-5,2.8447824E-2,2.9730247E-4,2.4089378E-1,1.1955818E-4,2.3478616E-3,-1.7860117E-5,7.386073E-5,1.1349612E-4,1.1643862E-5,1.2141379E-4,7.9673325E-4,4.638468E-3,-0E0,1.837976E-5,1.7684886E-4],"categories":[],"categories_nodes":[],"categories_segments":[],"categories_sizes":[],"default_left":[0,0,0,0,0,0,0,0,0,0,0,0,0,0,0,0,0,0,0,0,0,0,0,0,0],"id":15,"left_children":[1,3,5,7,9,11,13,15,17,-1,19,-1,21,-1,23,-1,-1,-1,-1,-1,-1,-1,-1,-1,-1],"loss_changes":[1.493631E0,6.6988915E-1,1.0574328E0,5.2598673E-1,3.9664477E-1,4.038936E-1,4.5126784E-1,4.0610045E-1,4.240137E-1,0E0,4.448526E-1,0E0,3.0783296E-1,0E0,3.7636614E-1,0E0,0E0,0E0,0E0,0E0,0E0,0E0,0E0,0E0,0E0],"parents":[2147483647,0,0,1,1,2,2,3,3,4,4,5,5,6,6,7,7,8,8,10,10,12,12,14,14],"right_children":[2,4,6,8,10,12,14,16,18,-1,20,-1,22,-1,24,-1,-1,-1,-1,-1,-1,-1,-1,-1,-1],"split_conditions":[1.18186905E2,6.666667E-1,2.5E-1,7.971675E1,7.5177306E-1,7.592593E-1,2E-1,5.4054055E-4,2E-1,5.6960733E-5,7.7860224E-1,2.9730247E-4,9.9771164E-2,1.1955818E-4,7.5177306E-1,-1.7860117E-5,7.386073E-5,1.1349612E-4,1.1643862E-5,1.2141379E-4,7.9673325E-4,4.638468E-3,-0E0,1.837976E-5,1.7684886E-4],"split_indices":[0,46,20,0,27,28,42,11,23,0,33,0,8,0,27,0,0,0,0,0,0,0,0,0,0],"split_type":[0,0,0,0,0,0,0,0,0,0,0,0,0,0,0,0,0,0,0,0,0,0,0,0,0],"sum_hessian":[4.87271E5,4.35916E5,5.1355E4,4.18997E5,1.6919E4,2.653E3,4.8702E4,3.59686E5,5.9311E4,1.6183E4,7.36E2,2.644E3,9E0,1.1634E4,3.7068E4,3.51932E5,7.754E3,7.4E3,5.1911E4,4.89E2,2.47E2,6E0,3E0,3.4513E4,2.555E3],"tree_param":{"num_deleted":"0","num_feature":"58","num_nodes":"25","size_leaf_vector":"1"}},{"base_weights":[-8.276098E-5,-6.214443E-4,5.1149977E-3,-1.1403821E-3,2.2854484E-3,1.6691145E-2,3.3015837E-3,-1.3568569E-3,5.8520143E-3,1.4080673E-4,1.0355914E-3,2.1066945E-2,3.5783774E-5,7.8080856E-4,8.9872985E-5,-2.2539069E-5,1.2797932E-5,6.473447E-5,8.783702E-4,1.1716605E-5,8.924335E-4,2.5699206E-4,4.8724096E-3,6.0811285E-6,6.3641014E-4],"categories":[],"categories_nodes":[],"categories_segments":[],"categories_sizes":[],"default_left":[0,0,0,0,0,0,0,0,0,0,0,0,0,0,0,0,0,0,0,0,0,0,0,0,0],"id":16,"left_children":[1,3,5,7,9,11,13,15,17,-1,19,21,-1,23,-1,-1,-1,-1,-1,-1,-1,-1,-1,-1,-1],"loss_changes":[1.3626714E0,6.6590875E-1,9.484806E-1,5.653424E-1,7.385514E-1,3.596511E-1,3.8005072E-1,3.7909776E-1,4.5987305E-1,0E0,3.8277814E-1,8.0676365E-1,0E0,3.2780442E-1,0E0,0E0,0E0,0E0,0E0,0E0,0E0,0E0,0E0,0E0,0E0],"parents":[2147483647,0,0,1,1,2,2,3,3,4,4,5,5,6,6,7,7,8,8,10,10,11,11,13,13],"right_children":[2,4,6,8,10,12,14,16,18,-1,20,22,-1,24,-1,-1,-1,-1,-1,-1,-1,-1,-1,-1,-1],"split_conditions":[1.2363373E2,7.971675E1,5E-1,6.8E-1,2E-1,2E-1,1.648671E2,5.746665E1,1.9794962E-1,1.4080673E-4,1E0,1E0,3.5783774E-5,7.432432E-1,8.9872985E-5,-2.2539069E-5,1.2797932E-5,6.473447E-5,8.783702E-4,1.1716605E-5,8.924335E-4,2.5699206E-4,4.8724096E-3,6.0811285E-6,6.3641014E-4],"split_indices":[0,0,20,27,23,25,0,0,35,0,48,57,0,46,0,0,0,0,0,0,0,0,0,0,0],"split_type":[0,0,0,0,0,0,0,0,0,0,0,0,0,0,0,0,0,0,0,0,0,0,0,0,0],"sum_hessian":[4.87531E5,4.41842E5,4.5689E4,3.75068E5,6.6774E4,6.148E3,3.9541E4,3.63879E5,1.1189E4,8.148E3,5.8626E4,4.642E3,1.506E3,2.3992E4,1.5549E4,3.0743E5,5.6449E4,1.1077E4,1.12E2,5.8548E4,7.8E1,4.636E3,6E0,2.3861E4,1.31E2],"tree_param":{"num_deleted":"0","num_feature":"58","num_nodes":"25","size_leaf_vector":"1"}},{"base_weights":[-4.7696096E-5,-5.0061475E-4,6.302071E-3,-6.2559295E-4,1.0405687E-2,2.6808765E-2,6.699083E-5,-7.982017E-4,4.845237E-5,8.7412394E-5,5.584269E-2,3.1441334E-4,2.2258621E-1,8.746909E-6,-1.658223E-5,3.2563537E-4,1.9813052E-3,5.7723667E-3,-0E0],"categories":[],"categories_nodes":[],"categories_segments":[],"categories_sizes":[],"default_left":[0,0,0,0,0,0,0,0,0,0,0,0,0,0,0,0,0,0,0],"id":17,"left_children":[1,3,5,7,9,11,-1,13,-1,-1,15,-1,17,-1,-1,-1,-1,-1,-1],"loss_changes":[1.3992265E0,6.1528265E-1,6.2534976E-1,3.467472E-1,7.6622075E-1,3.6473882E-1,0E0,3.387939E-1,0E0,0E0,9.662416E-1,0E0,5.847064E-1,0E0,0E0,0E0,0E0,0E0,0E0],"parents":[2147483647,0,0,1,1,2,2,3,3,4,4,5,5,7,7,10,10,12,12],"right_children":[2,4,6,8,10,12,-1,14,-1,-1,16,-1,18,-1,-1,-1,-1,-1,-1],"split_conditions":[1.387603E2,7.5177306E-1,2.5E-1,6.666667E-1,5.4054055E-4,5.272727E-1,6.699083E-5,2E-1,4.845237E-5,8.7412394E-5,6.666667E-1,3.1441334E-4,0E0,8.746909E-6,-1.658223E-5,3.2563537E-4,1.9813052E-3,5.7723667E-3,-0E0],"split_indices":[0,27,20,46,11,9,0,42,0,0,43,0,3,0,0,0,0,0,0],"split_type":[0,0,0,0,0,0,0,0,0,0,0,0,0,0,0,0,0,0,0],"sum_hessian":[4.87603E5,4.55217E5,3.2386E4,4.50108E5,5.109E3,1.434E3,3.0952E4,4.33538E5,1.657E4,4.76E3,3.49E2,1.424E3,1E1,1.11997E5,3.21541E5,2.74E2,7.5E1,5E0,5E0],"tree_param":{"num_deleted":"0","num_feature":"58","num_nodes":"19","size_leaf_vector":"1"}},{"base_weights":[1.3815029E-5,-4.9807323E-4,4.9768817E-3,-6.844425E-4,7.3268875E-3,3.207283E-4,3.8899442E-3,-8.9501706E-4,5.81308E-5,5.597253E-3,6.185822E-2,4.679429E-5,6.671773E-2,-1.7488373E-5,2.4843685E-5,5.5643908E-5,5.911812E-4,4.0870637E-4,2.2498108E-3,3.4295418E-4,2.461933E-3],"categories":[],"categories_nodes":[],"categories_segments":[],"categories_sizes":[],"default_left":[0,0,0,0,0,0,0,0,0,0,0,0,0,0,0,0,0,0,0,0,0],"id":18,"left_children":[1,3,5,7,9,-1,11,13,-1,15,17,-1,19,-1,-1,-1,-1,-1,-1,-1,-1],"loss_changes":[1.2396035E0,6.401218E-1,1.0042118E0,4.8044422E-1,9.262362E-1,0E0,4.0811694E-1,5.928495E-1,0E0,4.5132214E-1,9.3229103E-1,0E0,4.112174E-1,0E0,0E0,0E0,0E0,0E0,0E0,0E0,0E0],"parents":[2147483647,0,0,1,1,2,2,3,3,4,4,6,6,7,7,9,9,10,10,12,12],"right_children":[2,4,6,8,10,-1,12,14,-1,16,18,-1,20,-1,-1,-1,-1,-1,-1,-1,-1],"split_conditions":[1.2363373E2,5.4054055E-4,2.5E-1,6.666667E-1,7.5177306E-1,3.207283E-4,7.7403843E-1,8.067844E1,5.81308E-5,6.3492066E-1,1.4777939E-1,4.679429E-5,7.592593E-1,-1.7488373E-5,2.4843685E-5,5.5643908E-5,5.911812E-4,4.0870637E-4,2.2498108E-3,3.4295418E-4,2.461933E-3],"split_indices":[0,11,20,46,27,0,46,0,0,38,35,0,28,0,0,0,0,0,0,0,0],"split_type":[0,0,0,0,0,0,0,0,0,0,0,0,0,0,0,0,0,0,0,0,0],"sum_hessian":[4.86992E5,4.41363E5,4.5629E4,4.31162E5,1.0201E4,2.266E3,4.3363E4,4.14823E5,1.6339E4,9.897E3,3.04E2,4.3259E4,1.04E2,3.53744E5,6.1079E4,9.639E3,2.58E2,2.47E2,5.7E1,8.3E1,2.1E1],"tree_param":{"num_deleted":"0","num_feature":"58","num_nodes":"21","size_leaf_vector":"1"}},{"base_weights":[4.7245085E-5,-5.350257E-4,5.4221475E-3,-6.7422213E-4,1.24816615E-2,3.300404E-4,5.3923897E-5,-2.251613E-4,-3.6608122E-5,7.3492993E-3,5.503208E-2,-4.698097E-6,8.017449E-5,6.199814E-5,5.921352E-4,5.782771E-4,6.465292E-3],"categories":[],"categories_nodes":[],"categories_segments":[],"categories_sizes":[],"default_left":[0,0,0,0,0,0,0,0,0,0,0,0,0,0,0,0,0],"id":19,"left_children":[1,3,5,7,9,-1,-1,11,-1,13,15,-1,-1,-1,-1,-1,-1],"loss_changes":[1.5278628E0,7.9028356E-1,1.1067141E0,4.3611297E-1,9.737633E-1,0E0,0E0,3.538218E-1,0E0,3.6843455E-1,1.7019131E0,0E0,0E0,0E0,0E0,0E0,0E0],"parents":[2147483647,0,0,1,1,2,2,3,3,4,4,7,7,9,9,10,10],"right_children":[2,4,6,8,10,-1,-1,12,-1,14,16,-1,-1,-1,-1,-1,-1],"split_conditions":[1.2175182E2,7.5177306E-1,2.5E-1,5.8898395E-1,6.879121E-1,3.300404E-4,5.3923897E-5,9.966778E-3,-3.6608122E-5,6.538462E-2,3.5E-1,-4.698097E-6,8.017449E-5,6.199814E-5,5.921352E-4,5.782771E-4,6.465292E-3],"split_indices":[0,27,20,32,47,0,0,11,0,11,7,0,0,0,0,0,0],"split_type":[0,0,0,0,0,0,0,0,0,0,0,0,0,0,0,0,0],"sum_hessian":[4.87359E5,4.39634E5,4.7725E4,4.35023E5,4.611E3,2.424E3,4.5301E4,3.62601E5,7.2422E4,4.126E3,4.85E2,3.54688E5,7.913E3,3.903E3,2.23E2,4.77E2,8E0],"tree_param":{"num_deleted":"0","num_feature":"58","num_nodes":"17","size_leaf_vector":"1"}},{"base_weights":[-3.3814304E-5,-1.0715416E-3,3.4243756E-3,-1.288499E-3,5.9720706E-3,1.5150775E-2,2.5006738E-3,-1.889349E-5,4.123578E-5,5.8502003E-5,3.259529E-2,1.4735653E-2,1.8117665E-1,1.3396381E-2,1.9490146E-3,1.4969875E-4,1.6800846E-3,1.2965697E-4,3.1403708E-4,-0E0,5.029481E-3,1.4451325E-4,6.544969E-4,1.345057E-4,1.5177007E-5],"categories":[],"categories_nodes":[],"categories_segments":[],"categories_sizes":[],"default_left":[0,0,0,0,0,0,0,0,0,0,0,0,0,0,0,0,0,0,0,0,0,0,0,0,0],"id":20,"left_children":[1,3,5,7,9,11,13,-1,-1,-1,15,17,19,21,23,-1,-1,-1,-1,-1,-1,-1,-1,-1,-1],"loss_changes":[1.7472693E0,5.704067E-1,1.2074729E0,3.5839093E-1,3.6930653E-1,4.5788348E-1,6.180437E-1,0E0,0E0,0E0,9.770116E-1,3.5015476E-1,7.439276E-1,3.2979178E-1,6.3728577E-1,0E0,0E0,0E0,0E0,0E0,0E0,0E0,0E0,0E0,0E0],"parents":[2147483647,0,0,1,1,2,2,3,3,4,4,5,5,6,6,10,10,11,11,12,12,13,13,14,14],"right_children":[2,4,6,8,10,12,14,-1,-1,-1,16,18,20,22,24,-1,-1,-1,-1,-1,-1,-1,-1,-1,-1],"split_conditions":[7.971675E1,6.8E-1,2.5E-1,6.5625E-1,9.966778E-3,7.592593E-1,2E-1,-1.889349E-5,4.123578E-5,5.8502003E-5,2.5785225E-2,1.2175182E2,6.4228445E-2,7.84E-1,2E-1,1.4969875E-4,1.6800846E-3,1.2965697E-4,3.1403708E-4,-0E0,5.029481E-3,1.4451325E-4,6.544969E-4,1.345057E-4,1.5177007E-5],"split_indices":[0,27,20,46,11,28,24,0,0,0,13,0,9,27,23,0,0,0,0,0,0,0,0,0,0],"split_type":[0,0,0,0,0,0,0,0,0,0,0,0,0,0,0,0,0,0,0,0,0,0,0,0,0],"sum_hessian":[4.87235E5,3.74892E5,1.12343E5,3.63763E5,1.1129E4,8.161E3,1.04182E5,3.47461E5,1.6302E4,1.0625E4,5.04E2,8.144E3,1.7E1,4.974E3,9.9208E4,4.23E2,8.1E1,5.734E3,2.41E3,9E0,8E0,4.756E3,2.18E2,7.674E3,9.1534E4],"tree_param":{"num_deleted":"0","num_feature":"58","num_nodes":"25","size_leaf_vector":"1"}},{"base_weights":[-4.05663E-6,-2.2415238E-4,8.903753E-3,-3.5280077E-4,1.0172801E-4,8.706803E-5,3.4952745E-2,1.3997399E-3,-9.485158E-4,1.8343255E-2,8.8261664E-2,3.0084393E-6,5.136675E-5,-1.5114855E-5,5.305656E-5,1.3626295E-3,1.3193645E-4,6.4179394E-4,3.0892186E-3],"categories":[],"categories_nodes":[],"categories_segments":[],"categories_sizes":[],"default_left":[0,0,0,0,0,0,0,0,0,0,0,0,0,0,0,0,0,0,0],"id":21,"left_children":[1,3,5,7,-1,-1,9,11,13,15,17,-1,-1,-1,-1,-1,-1,-1,-1],"loss_changes":[9.5080566E-1,5.052788E-1,5.7776237E-1,4.888301E-1,0E0,0E0,6.541959E-1,3.6797214E-1,4.6015555E-1,3.7473732E-1,9.135008E-1,0E0,0E0,0E0,0E0,0E0,0E0,0E0,0E0],"parents":[2147483647,0,0,1,1,2,2,3,3,6,6,7,7,8,8,9,9,10,10],"right_children":[2,4,6,8,-1,-1,10,12,14,16,18,-1,-1,-1,-1,-1,-1,-1,-1],"split_conditions":[7.2131145E-1,7.1428573E-1,6.879121E-1,2E-1,1.0172801E-4,8.706803E-5,1.0948481E-1,4E-1,6.666667E-1,2E-1,1E0,3.0084393E-6,5.136675E-5,-1.5114855E-5,5.305656E-5,1.3626295E-3,1.3193645E-4,6.4179394E-4,3.0892186E-3],"split_indices":[27,28,47,42,0,0,35,39,46,24,3,0,0,0,0,0,0,0,0],"split_type":[0,0,0,0,0,0,0,0,0,0,0,0,0,0,0,0,0,0,0],"sum_hessian":[4.87318E5,4.75626E5,1.1692E4,4.68451E5,7.175E3,1.0889E4,8.03E2,1.18612E5,3.49839E5,6.2E2,1.83E2,8.3016E4,3.5596E4,3.33496E5,1.6343E4,4.4E1,5.76E2,1.51E2,3.2E1],"tree_param":{"num_deleted":"0","num_feature":"58","num_nodes":"19","size_leaf_vector":"1"}},{"base_weights":[-6.9271687E-6,-6.4488366E-4,5.395447E-3,-8.3512295E-4,7.450666E-3,2.635284E-2,4.2406116E-3,-2.092351E-5,1.361222E-3,7.3184514E-5,5.834122E-2,3.18966E-4,3.828854E-3,1.2309453E-4,2.4875037E-3,8.653884E-5,5.7230104E-6,6.555279E-5,1.3000602E-3,7.966875E-5,3.563368E-6],"categories":[],"categories_nodes":[],"categories_segments":[],"categories_sizes":[],"default_left":[0,0,0,0,0,0,0,0,0,0,0,0,0,0,0,0,0,0,0,0,0],"id":22,"left_children":[1,3,5,7,9,11,13,-1,15,-1,17,-1,-1,-1,19,-1,-1,-1,-1,-1,-1],"loss_changes":[1.6768923E0,6.6782063E-1,1.2271587E0,7.77694E-1,7.8703403E-1,5.2875686E-1,4.684828E-1,0E0,5.807557E-1,0E0,6.5534043E-1,0E0,0E0,0E0,3.119284E-1,0E0,0E0,0E0,0E0,0E0,0E0],"parents":[2147483647,0,0,1,1,2,2,3,3,4,4,5,5,6,6,8,8,10,10,14,14],"right_children":[2,4,6,8,10,12,14,-1,16,-1,18,-1,-1,-1,20,-1,-1,-1,-1,-1,-1],"split_conditions":[1.18186905E2,5.4054055E-4,2.5E-1,5.746665E1,7.5177306E-1,7.592593E-1,2E-1,-2.092351E-5,2E-1,7.3184514E-5,7.640114E-1,3.18966E-4,3.828854E-3,1.2309453E-4,4E-1,8.653884E-5,5.7230104E-6,6.555279E-5,1.3000602E-3,7.966875E-5,3.563368E-6],"split_indices":[0,11,20,0,27,28,42,0,23,0,33,0,0,0,1,0,0,0,0,0,0],"split_type":[0,0,0,0,0,0,0,0,0,0,0,0,0,0,0,0,0,0,0,0,0],"sum_hessian":[4.87285E5,4.35908E5,5.1377E4,4.25964E5,9.944E3,2.659E3,4.8718E4,3.09205E5,1.16759E5,9.647E3,2.97E2,2.652E3,7E0,1.1603E4,3.7115E4,1.6345E4,1.00414E5,1.42E2,1.55E2,1.3408E4,2.3707E4],"tree_param":{"num_deleted":"0","num_feature":"58","num_nodes":"21","size_leaf_vector":"1"}},{"base_weights":[-8.3381805E-5,-5.1776104E-4,5.299974E-3,-6.442868E-4,1.0792004E-2,1.5031856E-2,3.933013E-3,-1.1363245E-3,1.8042682E-3,7.040324E-3,5.9498847E-2,2.5120098E-4,-4.730334E-6,4.5831108E-5,5.7347815E-2,-1.9678086E-5,1.465773E-5,9.126001E-5,-4.8085553E-7,7.859138E-5,2.4596003E-3,3.6110176E-4,1.9300214E-3,5.0611777E-4,5.7711434E-3],"categories":[],"categories_nodes":[],"categories_segments":[],"categories_sizes":[],"default_left":[0,0,0,0,0,0,0,0,0,0,0,0,0,0,0,0,0,0,0,0,0,0,0,0,0],"id":23,"left_children":[1,3,5,7,9,11,13,15,17,19,21,-1,-1,-1,23,-1,-1,-1,-1,-1,-1,-1,-1,-1,-1],"loss_changes":[1.136262E0,6.395852E-1,4.7240973E-1,5.367223E-1,8.6727345E-1,3.4900224E-1,4.49572E-1,3.6867675E-1,7.528685E-1,5.7100064E-1,8.960136E-1,0E0,0E0,0E0,8.15602E-1,0E0,0E0,0E0,0E0,0E0,0E0,0E0,0E0,0E0,0E0],"parents":[2147483647,0,0,1,1,2,2,3,3,4,4,5,5,6,6,7,7,8,8,9,9,10,10,14,14],"right_children":[2,4,6,8,10,12,14,16,18,20,22,-1,-1,-1,24,-1,-1,-1,-1,-1,-1,-1,-1,-1,-1],"split_conditions":[1.3398997E2,7.5177306E-1,5E-1,7.971675E1,9.966778E-3,2E-1,7.432432E-1,5.746665E1,6E-1,1E0,6.666667E-1,2.5120098E-4,-4.730334E-6,4.5831108E-5,1.9794962E-1,-1.9678086E-5,1.465773E-5,9.126001E-5,-4.8085553E-7,7.859138E-5,2.4596003E-3,3.6110176E-4,1.9300214E-3,5.0611777E-4,5.7711434E-3],"split_indices":[0,27,20,0,11,25,46,0,20,47,43,0,0,0,35,0,0,0,0,0,0,0,0,0,0],"split_type":[0,0,0,0,0,0,0,0,0,0,0,0,0,0,0,0,0,0,0,0,0,0,0,0,0],"sum_hessian":[4.86998E5,4.50728E5,3.627E4,4.45788E5,4.94E3,4.419E3,3.1851E4,3.71377E5,7.4411E4,4.597E3,3.43E2,3.367E3,1.052E3,3.1693E4,1.58E2,3.13072E5,5.8305E4,1.884E4,5.5571E4,4.581E3,1.6E1,2.63E2,8E1,1.53E2,5E0],"tree_param":{"num_deleted":"0","num_feature":"58","num_nodes":"25","size_leaf_vector":"1"}},{"base_weights":[-1.2788517E-4,-5.7439576E-4,5.432248E-3,-1.1128791E-3,2.0615517E-3,1.5379392E-2,4.02222E-3,-1.3591353E-3,4.821245E-5,1.6604117E-4,1.0180618E-3,2.5194706E-4,2.7341675E-6,4.6673387E-5,5.8154132E-2,-2.2601253E-5,1.1900343E-5,1.20115146E-4,3.5291814E-6,4.7791848E-4,3.9948616E-3],"categories":[],"categories_nodes":[],"categories_segments":[],"categories_sizes":[],"default_left":[0,0,0,0,0,0,0,0,0,0,0,0,0,0,0,0,0,0,0,0,0],"id":24,"left_children":[1,3,5,7,9,11,13,15,-1,-1,17,-1,-1,-1,19,-1,-1,-1,-1,-1,-1],"loss_changes":[1.2076735E0,6.4012706E-1,4.9669063E-1,4.559262E-1,8.821151E-1,3.046074E-1,4.9137503E-1,3.6364865E-1,0E0,0E0,4.3512258E-1,0E0,0E0,0E0,6.872382E-1,0E0,0E0,0E0,0E0,0E0,0E0],"parents":[2147483647,0,0,1,1,2,2,3,3,4,4,5,5,6,6,7,7,10,10,14,14],"right_children":[2,4,6,8,10,12,14,16,-1,-1,18,-1,-1,-1,20,-1,-1,-1,-1,-1,-1],"split_conditions":[1.3398997E2,7.971675E1,5E-1,6.5625E-1,2.5E-1,2E-1,7.432432E-1,5.746665E1,4.821245E-5,1.6604117E-4,2E-1,2.5194706E-4,2.7341675E-6,4.6673387E-5,1.7321178E-1,-2.2601253E-5,1.1900343E-5,1.20115146E-4,3.5291814E-6,4.7791848E-4,3.9948616E-3],"split_indices":[0,0,20,46,20,25,46,0,0,0,23,0,0,0,35,0,0,0,0,0,0],"split_type":[0,0,0,0,0,0,0,0,0,0,0,0,0,0,0,0,0,0,0,0,0],"sum_hessian":[4.87484E5,4.51335E5,3.6149E4,3.74942E5,7.6393E4,4.441E3,3.1708E4,3.57283E5,1.7659E4,6.488E3,6.9905E4,3.366E3,1.075E3,3.154E4,1.68E2,3.00171E5,5.7112E4,5.492E3,6.4413E4,1.58E2,1E1],"tree_param":{"num_deleted":"0","num_feature":"58","num_nodes":"21","size_leaf_vector":"1"}},{"base_weights":[-6.2413754E-5,-5.9155526E-4,4.8266216E-3,-1.79156E-5,1.489704E-3,3.086525E-4,3.7766178E-3,6.905145E-5,1.6924356E-4,3.5810897E-3,4.26849E-2,-1.2893914E-6,2.0130906E-4,1.04465464E-4,2.5951578E-5,1.654931E-4,1.5184091E-3],"categories":[],"categories_nodes":[],"categories_segments":[],"categories_sizes":[],"default_left":[0,0,0,0,0,0,0,0,0,0,0,0,0,0,0,0,0],"id":25,"left_children":[1,3,5,-1,7,-1,9,-1,11,13,15,-1,-1,-1,-1,-1,-1],"loss_changes":[1.2592199E0,7.649029E-1,9.7053754E-1,0E0,6.6317284E-1,0E0,3.1885725E-1,0E0,4.1719753E-1,3.1692094E-1,4.1814137E-1,0E0,0E0,0E0,0E0,0E0,0E0],"parents":[2147483647,0,0,1,1,2,2,4,4,6,6,8,8,9,9,10,10],"right_children":[2,4,6,-1,8,-1,10,-1,12,14,16,-1,-1,-1,-1,-1,-1],"split_conditions":[1.2175182E2,5.6841537E1,2.5E-1,-1.79156E-5,3.3333334E-1,3.086525E-4,7.432432E-1,6.905145E-5,6.879121E-1,2E-1,4.361905E-1,-1.2893914E-6,2.0130906E-4,1.04465464E-4,2.5951578E-5,1.654931E-4,1.5184091E-3],"split_indices":[0,0,20,0,23,0,46,0,47,42,57,0,0,0,0,0,0],"split_type":[0,0,0,0,0,0,0,0,0,0,0,0,0,0,0,0,0],"sum_hessian":[4.87621E5,4.40098E5,4.7523E4,3.14256E5,1.25842E5,2.373E3,4.515E4,3.1079E4,9.4763E4,4.4938E4,2.12E2,9.3133E4,1.63E3,1.08E4,3.4138E4,1.59E2,5.3E1],"tree_param":{"num_deleted":"0","num_feature":"58","num_nodes":"17","size_leaf_vector":"1"}},{"base_weights":[7.032577E-5,-3.5916304E-4,5.440078E-3,-5.4720044E-4,7.567022E-3,2.5628114E-4,4.7033424E-3,-9.003858E-6,4.684721E-5,5.9641446E-3,5.3040378E-2,5.6009067E-5,5.1174797E-2,6.207978E-5,5.345555E-4,3.95853E-4,1.7532241E-3,3.8889595E-4,3.9299754E-3],"categories":[],"categories_nodes":[],"categories_segments":[],"categories_sizes":[],"default_left":[0,0,0,0,0,0,0,0,0,0,0,0,0,0,0,0,0,0,0],"id":26,"left_children":[1,3,5,7,9,-1,11,-1,-1,13,15,-1,17,-1,-1,-1,-1,-1,-1],"loss_changes":[1.1257355E0,6.681437E-1,3.853402E-1,3.1831264E-1,7.252339E-1,0E0,3.601513E-1,0E0,0E0,3.4971955E-1,5.4570055E-1,0E0,7.0506775E-1,0E0,0E0,0E0,0E0,0E0,0E0],"parents":[2147483647,0,0,1,1,2,2,3,3,4,4,6,6,9,9,10,10,12,12],"right_children":[2,4,6,8,10,-1,12,-1,-1,14,16,-1,18,-1,-1,-1,-1,-1,-1],"split_conditions":[1.3398997E2,5.4054055E-4,2.5E-1,6.666667E-1,7.5177306E-1,2.5628114E-4,7.432432E-1,-9.003858E-6,4.684721E-5,6.3492066E-1,1.4777939E-1,5.6009067E-5,1.7321178E-1,6.207978E-5,5.345555E-4,3.95853E-4,1.7532241E-3,3.8889595E-4,3.9299754E-3],"split_indices":[0,11,20,46,27,0,46,0,0,38,35,0,35,0,0,0,0,0,0],"split_type":[0,0,0,0,0,0,0,0,0,0,0,0,0,0,0,0,0,0,0],"sum_hessian":[4.86952E5,4.50797E5,3.6155E4,4.40416E5,1.0381E4,1.662E3,3.4493E4,4.23721E5,1.6695E4,1.0039E4,3.42E2,3.4325E4,1.68E2,9.781E3,2.58E2,2.79E2,6.3E1,1.58E2,1E1],"tree_param":{"num_deleted":"0","num_feature":"58","num_nodes":"19","size_leaf_vector":"1"}},{"base_weights":[-1.4077539E-5,-5.127098E-4,4.196021E-3,-1.6435062E-5,1.5352194E-3,2.3065407E-2,3.957616E-5,1.1438354E-3,1.5482654E-2,1.7960157E-4,4.8173868E-4,5.6095712E-5,-5.7364227E-6,1.2443017E-4,5.285273E-4],"categories":[],"categories_nodes":[],"categories_segments":[],"categories_sizes":[],"default_left":[0,0,0,0,0,0,0,0,0,0,0,0,0,0,0],"id":27,"left_children":[1,3,5,-1,7,9,-1,11,13,-1,-1,-1,-1,-1,-1],"loss_changes":[1.0215279E0,7.107249E-1,1.0013078E0,0E0,6.563704E-1,3.3051193E-1,0E0,6.3285834E-1,4.600532E-1,0E0,0E0,0E0,0E0,0E0,0E0],"parents":[2147483647,0,0,1,1,2,2,4,4,5,5,7,7,8,8],"right_children":[2,4,6,-1,8,10,-1,12,14,-1,-1,-1,-1,-1,-1],"split_conditions":[1.18186905E2,5.6841537E1,2.5E-1,-1.6435062E-5,6.666667E-1,1E0,3.957616E-5,6E-1,2E0,1.7960157E-4,4.8173868E-4,5.6095712E-5,-5.7364227E-6,1.2443017E-4,5.285273E-4],"split_indices":[0,0,20,0,46,41,0,20,40,0,0,0,0,0,0],"split_type":[0,0,0,0,0,0,0,0,0,0,0,0,0,0,0],"sum_hessian":[4.87539E5,4.36024E5,5.1515E4,3.14163E5,1.21861E5,2.675E3,4.884E4,1.18572E5,3.289E3,1.723E3,9.52E2,3.8653E4,7.9919E4,2.736E3,5.53E2],"tree_param":{"num_deleted":"0","num_feature":"58","num_nodes":"15","size_leaf_vector":"1"}},{"base_weights":[-4.457469E-5,-5.49505E-4,4.8290505E-3,-6.929592E-4,1.290314E-2,3.2073396E-4,4.686053E-5,-8.6652354E-4,4.6985035E-5,9.258218E-3,6.0536947E-2,-5.5255914E-6,-3.579471E-5,1.0581964E-4,2.809408E-3,3.859532E-4,1.9216285E-3],"categories":[],"categories_nodes":[],"categories_segments":[],"categories_sizes":[],"default_left":[0,0,0,0,0,0,0,0,0,0,0,0,0,0,0,0,0],"id":28,"left_children":[1,3,5,7,9,-1,-1,11,-1,13,15,-1,-1,-1,-1,-1,-1],"loss_changes":[1.1972345E0,8.460675E-1,1.022263E0,3.3493987E-1,7.653001E-1,0E0,0E0,3.5431454E-1,0E0,6.437596E-1,7.7850246E-1,0E0,0E0,0E0,0E0,0E0,0E0],"parents":[2147483647,0,0,1,1,2,2,3,3,4,4,7,7,9,9,10,10],"right_children":[2,4,6,8,10,-1,-1,12,-1,14,16,-1,-1,-1,-1,-1,-1],"split_conditions":[1.2363373E2,7.5177306E-1,2.5E-1,6.666667E-1,9.966778E-3,3.2073396E-4,4.686053E-5,4.7699782E-1,4.6985035E-5,1E0,6.666667E-1,-5.5255914E-6,-3.579471E-5,1.0581964E-4,2.809408E-3,3.859532E-4,1.9216285E-3],"split_indices":[0,27,20,46,11,0,0,34,0,47,43,0,0,0,0,0,0],"split_type":[0,0,0,0,0,0,0,0,0,0,0,0,0,0,0,0,0],"sum_hessian":[4.87439E5,4.41778E5,4.5661E4,4.37156E5,4.622E3,2.273E3,4.3388E4,4.20806E5,1.635E4,4.304E3,3.18E2,3.46569E5,7.4237E4,4.29E3,1.4E1,2.45E2,7.3E1],"tree_param":{"num_deleted":"0","num_feature":"58","num_nodes":"17","size_leaf_vector":"1"}},{"base_weights":[2.6904145E-6,-5.083154E-4,4.741307E-3,-9.3136274E-4,2.4709238E-3,2.8927994E-4,3.7574922E-3,-1.7524442E-5,1.98675E-3,2.3768229E-5,1.913833E-2,5.3360057E-3,-2.106571E-5,1.19158074E-4,8.257109E-6,-0E0,3.5751544E-4,3.8373113E-5,1.2394213E-4],"categories":[],"categories_nodes":[],"categories_segments":[],"categories_sizes":[],"default_left":[0,0,0,0,0,0,0,0,0,0,0,0,0,0,0,0,0,0,0],"id":29,"left_children":[1,3,5,7,9,-1,11,-1,13,-1,15,17,-1,-1,-1,-1,-1,-1,-1],"loss_changes":[1.1822128E0,5.534347E-1,8.413156E-1,5.2147937E-1,5.1424885E-1,0E0,3.8919026E-1,0E0,5.202271E-1,0E0,3.1857586E-1,3.555227E-1,0E0,0E0,0E0,0E0,0E0,0E0,0E0],"parents":[2147483647,0,0,1,1,2,2,3,3,4,4,6,6,8,8,10,10,11,11],"right_children":[2,4,6,8,10,-1,12,-1,14,-1,16,18,-1,-1,-1,-1,-1,-1,-1],"split_conditions":[1.2175182E2,6.1728394E-1,2.5E-1,7.971675E1,7.288136E-1,2.8927994E-4,1E0,-1.7524442E-5,2E-1,2.3768229E-5,5E-1,1.648671E2,-2.106571E-5,1.19158074E-4,8.257109E-6,-0E0,3.5751544E-4,3.8373113E-5,1.2394213E-4],"split_indices":[0,27,20,0,48,0,20,0,23,0,25,0,0,0,0,0,0,0,0],"split_type":[0,0,0,0,0,0,0,0,0,0,0,0,0,0,0,0,0,0,0],"sum_hessian":[4.87293E5,4.39758E5,4.7535E4,3.85234E5,5.4524E4,2.398E3,4.5137E4,3.32524E5,5.271E4,5.2727E4,1.797E3,3.5054E4,1.0083E4,7.873E3,4.4837E4,5.92E2,1.205E3,2.3402E4,1.1652E4],"tree_param":{"num_deleted":"0","num_feature":"58","num_nodes":"19","size_leaf_vector":"1"}},{"base_weights":[3.1899843E-5,-1.894675E-4,9.154965E-3,-5.376767E-4,3.375568E-5,9.643792E-5,3.164164E-2,1.1397438E-3,-1.1482001E-3,1.8152002E-4,1.0175424E-1,-4.283304E-7,4.9672908E-5,-1.7497436E-5,4.1118594E-5,7.854263E-4,3.494412E-3],"categories":[],"categories_nodes":[],"categories_segments":[],"categories_sizes":[],"default_left":[0,0,0,0,0,0,0,0,0,0,0,0,0,0,0,0,0],"id":30,"left_children":[1,3,5,7,-1,-1,9,11,13,-1,15,-1,-1,-1,-1,-1,-1],"loss_changes":[9.89083E-1,4.755915E-1,3.639816E-1,4.3483448E-1,0E0,0E0,7.720116E-1,3.75823E-1,3.3679488E-1,0E0,7.1691453E-1,0E0,0E0,0E0,0E0,0E0,0E0],"parents":[2147483647,0,0,1,1,2,2,3,3,6,6,7,7,8,8,10,10],"right_children":[2,4,6,8,-1,-1,10,12,14,-1,16,-1,-1,-1,-1,-1,-1],"split_conditions":[7.2131145E-1,6.226415E-1,9.966778E-3,2E-1,3.375568E-5,9.643792E-5,6.666667E-1,4E-1,6.5625E-1,1.8152002E-4,5.4318447E-2,-4.283304E-7,4.9672908E-5,-1.7497436E-5,4.1118594E-5,7.854263E-4,3.494412E-3],"split_indices":[27,27,11,42,0,0,43,39,46,0,13,0,0,0,0,0,0],"split_type":[0,0,0,0,0,0,0,0,0,0,0,0,0,0,0,0,0],"sum_hessian":[4.87393E5,4.7579E5,1.1603E4,4.24595E5,5.1195E4,1.0911E4,6.92E2,1.13068E5,3.11527E5,5.62E2,1.3E2,7.9668E4,3.34E4,2.95278E5,1.6249E4,1.09E2,2.1E1],"tree_param":{"num_deleted":"0","num_feature":"58","num_nodes":"17","size_leaf_vector":"1"}},{"base_weights":[-5.0963336E-5,-5.676047E-4,4.7136527E-3,-1.4196092E-3,1.5539938E-3,2.237227E-2,4.7277565E-5,-1.9719939E-5,5.5646664E-3,7.185058E-5,1.8389845E-4,2.681215E-4,2.5583994E-1,5.5421133E-5,6.2298635E-4,-1.6178558E-6,2.1423098E-4,7.914601E-3,4.0769824E-4],"categories":[],"categories_nodes":[],"categories_segments":[],"categories_sizes":[],"default_left":[0,0,0,0,0,0,0,0,0,0,0,0,0,0,0,0,0,0,0],"id":31,"left_children":[1,3,5,7,9,11,-1,-1,13,-1,15,-1,17,-1,-1,-1,-1,-1,-1],"loss_changes":[1.1964386E0,7.94199E-1,7.8248787E-1,3.2815284E-1,7.1473885E-1,4.2264688E-1,0E0,0E0,3.0354464E-1,0E0,5.0886685E-1,0E0,3.2584596E-1,0E0,0E0,0E0,0E0,0E0,0E0],"parents":[2147483647,0,0,1,1,2,2,3,3,4,4,5,5,8,8,10,10,12,12],"right_children":[2,4,6,8,10,12,-1,-1,14,-1,16,-1,18,-1,-1,-1,-1,-1,-1],"split_conditions":[1.2175182E2,5.6841537E1,2.5E-1,9.966778E-3,3.3333334E-1,7.592593E-1,4.7277565E-5,-1.9719939E-5,7.5177306E-1,7.185058E-5,7.677054E-1,2.681215E-4,1.5341628E2,5.5421133E-5,6.2298635E-4,-1.6178558E-6,2.1423098E-4,7.914601E-3,4.0769824E-4],"split_indices":[0,0,20,11,23,28,0,0,27,0,27,0,0,0,0,0,0,0,0],"split_type":[0,0,0,0,0,0,0,0,0,0,0,0,0,0,0,0,0,0,0],"sum_hessian":[4.86937E5,4.39403E5,4.7534E4,3.13683E5,1.2572E5,2.395E3,4.5139E4,3.0713E5,6.553E3,3.1008E4,9.4712E4,2.387E3,8E0,6.398E3,1.55E2,9.2958E4,1.754E3,2E0,6E0],"tree_param":{"num_deleted":"0","num_feature":"58","num_nodes":"19","size_leaf_vector":"1"}},{"base_weights":[-1.6937636E-5,-5.405368E-4,4.808493E-3,-7.511671E-4,5.3909505E-3,2.5016855E-2,4.678223E-5,-1.1185547E-5,6.818945E-5,4.936986E-5,2.6723305E-2,3.0181333E-4,2.2278573E-1,1.7487835E-4,8.398707E-4,7.821986E-3,2.9678186E-4],"categories":[],"categories_nodes":[],"categories_segments":[],"categories_sizes":[],"default_left":[0,0,0,0,0,0,0,0,0,0,0,0,0,0,0,0,0],"id":32,"left_children":[1,3,5,7,9,11,-1,-1,-1,-1,13,-1,15,-1,-1,-1,-1],"loss_changes":[1.2283021E0,5.465878E-1,1.0260063E0,3.6381269E-1,4.5019588E-1,3.3333433E-1,0E0,0E0,0E0,0E0,4.379819E-1,0E0,3.8276812E-1,0E0,0E0,0E0,0E0],"parents":[2147483647,0,0,1,1,2,2,3,3,4,4,5,5,10,10,12,12],"right_children":[2,4,6,8,10,12,-1,-1,-1,-1,14,-1,16,-1,-1,-1,-1],"split_conditions":[1.2175182E2,6.8E-1,2.5E-1,5.4054055E-4,6.879121E-1,7.592593E-1,4.678223E-5,-1.1185547E-5,6.818945E-5,4.936986E-5,1.0948481E-1,3.0181333E-4,1.5341628E2,1.7487835E-4,8.398707E-4,7.821986E-3,2.9678186E-4],"split_indices":[0,27,20,11,47,28,0,0,0,0,35,0,0,0,0,0,0],"split_type":[0,0,0,0,0,0,0,0,0,0,0,0,0,0,0,0,0],"sum_hessian":[4.87048E5,4.39472E5,4.7576E4,4.24488E5,1.4984E4,2.395E3,4.5181E4,4.15199E5,9.289E3,1.4048E4,9.36E2,2.386E3,9E0,7.2E2,2.16E2,2E0,7E0],"tree_param":{"num_deleted":"0","num_feature":"58","num_nodes":"17","size_leaf_vector":"1"}},{"base_weights":[3.74137E-5,-3.8042327E-4,5.2590165E-3,-5.0389377E-4,1.06184315E-2,1.3062447E-4,2.7492242E-3,-1.2086051E-5,1.8539119E-3,9.926426E-3,1.895229E-1,2.734575E-4,2.4950832E-5,8.536747E-5,2.3187265E-6,8.618185E-5,4.5538563E-4,5.014972E-3,-0E0],"categories":[],"categories_nodes":[],"categories_segments":[],"categories_sizes":[],"default_left":[0,0,0,0,0,0,0,0,0,0,0,0,0,0,0,0,0,0,0],"id":33,"left_children":[1,3,5,7,9,-1,11,-1,13,15,17,-1,-1,-1,-1,-1,-1,-1,-1],"loss_changes":[1.0660359E0,6.0738134E-1,4.6037316E-1,4.8200652E-1,5.0784725E-1,0E0,3.4131065E-1,0E0,5.943832E-1,3.760215E-1,7.1926844E-1,0E0,0E0,0E0,0E0,0E0,0E0,0E0,0E0],"parents":[2147483647,0,0,1,1,2,2,3,3,4,4,6,6,8,8,9,9,10,10],"right_children":[2,4,6,8,10,-1,12,-1,14,16,18,-1,-1,-1,-1,-1,-1,-1,-1],"split_conditions":[1.3398997E2,7.5177306E-1,4E-1,8.067844E1,1E0,1.3062447E-4,2E-1,-1.2086051E-5,6E-1,7.288136E-1,2E-1,2.734575E-4,2.4950832E-5,8.536747E-5,2.3187265E-6,8.618185E-5,4.5538563E-4,5.014972E-3,-0E0],"split_indices":[0,27,1,0,47,0,24,0,20,48,24,0,0,0,0,0,0,0,0],"split_type":[0,0,0,0,0,0,0,0,0,0,0,0,0,0,0,0,0,0,0],"sum_hessian":[4.87419E5,4.51211E5,3.6208E4,4.4625E5,4.961E3,1.1805E4,2.4403E4,3.73781E5,7.2469E4,4.945E3,1.6E1,9.13E2,2.349E4,1.8211E4,5.4258E4,4.448E3,4.97E2,8E0,8E0],"tree_param":{"num_deleted":"0","num_feature":"58","num_nodes":"19","size_leaf_vector":"1"}},{"base_weights":[-1.5501213E-5,-5.360804E-4,4.3816636E-3,-7.105163E-4,6.8658083E-3,2.9270904E-4,3.3483214E-3,-1.8374667E-5,1.2823304E-3,6.004805E-5,4.4057295E-2,3.1392411E-3,4.3611355E-2,9.0160014E-5,3.970326E-6,2.397142E-4,1.7119892E-3,1.6669597E-5,8.326479E-5,1.1124822E-4,1.8823429E-3],"categories":[],"categories_nodes":[],"categories_segments":[],"categories_sizes":[],"default_left":[0,0,0,0,0,0,0,0,0,0,0,0,0,0,0,0,0,0,0,0,0],"id":34,"left_children":[1,3,5,7,9,-1,11,-1,13,-1,15,17,19,-1,-1,-1,-1,-1,-1,-1,-1],"loss_changes":[1.1134204E0,5.5944335E-1,9.92621E-1,6.389079E-1,7.4628127E-1,0E0,3.86244E-1,0E0,6.6014767E-1,0E0,1.103802E0,3.0318853E-1,7.986953E-1,0E0,0E0,0E0,0E0,0E0,0E0,0E0,0E0],"parents":[2147483647,0,0,1,1,2,2,3,3,4,4,6,6,8,8,10,10,11,11,12,12],"right_children":[2,4,6,8,10,-1,12,-1,14,-1,16,18,20,-1,-1,-1,-1,-1,-1,-1,-1],"split_conditions":[1.18186905E2,5.4054055E-4,2.5E-1,5.746665E1,8.052999E-1,2.9270904E-4,7.432432E-1,-1.8374667E-5,2E-1,6.004805E-5,6.4081633E-1,1.648671E2,4.361905E-1,9.0160014E-5,3.970326E-6,2.397142E-4,1.7119892E-3,1.6669597E-5,8.326479E-5,1.1124822E-4,1.8823429E-3],"split_indices":[0,11,20,0,33,0,46,0,23,0,46,0,57,0,0,0,0,0,0,0,0],"split_type":[0,0,0,0,0,0,0,0,0,0,0,0,0,0,0,0,0,0,0,0,0],"sum_hessian":[4.873E5,4.35824E5,5.1476E4,4.2586E5,9.964E3,2.638E3,4.8838E4,3.09301E5,1.16559E5,9.449E3,5.15E2,4.8599E4,2.39E2,1.633E4,1.00229E5,4.1E2,1.05E2,3.2096E4,1.6503E4,1.84E2,5.5E1],"tree_param":{"num_deleted":"0","num_feature":"58","num_nodes":"21","size_leaf_vector":"1"}},{"base_weights":[-7.1515865E-6,-2.7448198E-4,5.8475444E-3,-4.2164294E-4,7.621557E-5,6.1054205E-5,2.8089862E-4,1.8774643E-5,-8.590692E-4,-1.5129167E-5,2.324833E-5],"categories":[],"categories_nodes":[],"categories_segments":[],"categories_sizes":[],"default_left":[0,0,0,0,0,0,0,0,0,0,0],"id":35,"left_children":[1,3,5,7,-1,-1,-1,-1,9,-1,-1],"loss_changes":[7.594089E-1,4.3195218E-1,3.304355E-1,3.815085E-1,0E0,0E0,0E0,0E0,3.4732574E-1,0E0,0E0],"parents":[2147483647,0,0,1,1,2,2,3,3,8,8],"right_children":[2,4,6,8,-1,-1,-1,-1,10,-1,-1],"split_conditions":[6.8E-1,5.4054055E-4,6.879121E-1,2E-1,7.621557E-5,6.1054205E-5,2.8089862E-4,1.8774643E-5,6.2068963E-1,-1.5129167E-5,2.324833E-5],"split_indices":[27,11,47,23,0,0,0,0,27,0,0],"split_type":[0,0,0,0,0,0,0,0,0,0,0],"sum_hessian":[4.87096E5,4.65913E5,2.1183E4,4.55432E5,1.0481E4,2.0021E4,1.162E3,8.4398E4,3.71034E5,3.29236E5,4.1798E4],"tree_param":{"num_deleted":"0","num_feature":"58","num_nodes":"11","size_leaf_vector":"1"}},{"base_weights":[1.2844952E-4,-2.949626E-4,5.4242588E-3,-4.1325437E-4,1.0265347E-2,1.634496E-2,3.8958003E-3,-8.651626E-4,1.8385052E-3,7.5358083E-3,5.0560754E-2,1.5750958E-2,1.866154E-1,3.6366684E-3,4.9380764E-2,-1.2276417E-5,1.0622797E-4,9.101239E-5,4.952826E-8,8.5224085E-5,2.5260667E-3,2.987113E-4,1.6858077E-3,2.5714366E-4,6.249974E-6,-0E0,7.2369603E-3,5.428743E-6,8.744999E-5,1.9732166E-4,2.2000785E-3],"categories":[],"categories_nodes":[],"categories_segments":[],"categories_sizes":[],"default_left":[0,0,0,0,0,0,0,0,0,0,0,0,0,0,0,0,0,0,0,0,0,0,0,0,0,0,0,0,0,0,0],"id":36,"left_children":[1,3,5,7,9,11,13,15,17,19,21,23,25,27,29,-1,-1,-1,-1,-1,-1,-1,-1,-1,-1,-1,-1,-1,-1,-1,-1],"loss_changes":[1.0942179E0,5.576991E-1,5.9230375E-1,4.5301992E-1,5.1262033E-1,3.362651E-1,3.458482E-1,3.8543683E-1,7.3344773E-1,5.6240344E-1,5.9021163E-1,3.0467987E-1,9.54082E-1,3.3264697E-1,6.1032104E-1,0E0,0E0,0E0,0E0,0E0,0E0,0E0,0E0,0E0,0E0,0E0,0E0,0E0,0E0,0E0,0E0],"parents":[2147483647,0,0,1,1,2,2,3,3,4,4,5,5,6,6,7,7,8,8,9,9,10,10,11,11,12,12,13,13,14,14],"right_children":[2,4,6,8,10,12,14,16,18,20,22,24,26,28,30,-1,-1,-1,-1,-1,-1,-1,-1,-1,-1,-1,-1,-1,-1,-1,-1],"split_conditions":[1.3398997E2,7.5177306E-1,5E-1,7.971675E1,6.538462E-2,1E0,7.432432E-1,7.1428573E-1,6E-1,1E0,6.666667E-1,2E-1,1.8000488E2,1.648671E2,4.7449884E-1,-1.2276417E-5,1.0622797E-4,9.101239E-5,4.952826E-8,8.5224085E-5,2.5260667E-3,2.987113E-4,1.6858077E-3,2.5714366E-4,6.249974E-6,-0E0,7.2369603E-3,5.428743E-6,8.744999E-5,1.9732166E-4,2.2000785E-3],"split_indices":[0,27,20,0,11,57,46,28,20,47,43,25,0,0,57,0,0,0,0,0,0,0,0,0,0,0,0,0,0,0,0],"split_type":[0,0,0,0,0,0,0,0,0,0,0,0,0,0,0,0,0,0,0,0,0,0,0,0,0,0,0,0,0,0,0],"sum_hessian":[4.8677E5,4.5064E5,3.613E4,4.45698E5,4.942E3,4.393E3,3.1737E4,3.71398E5,7.43E4,4.641E3,3.01E2,4.381E3,1.2E1,3.1569E4,1.68E2,3.67029E5,4.369E3,1.8744E4,5.5556E4,4.626E3,1.5E1,2.33E2,6.8E1,3.318E3,1.063E3,8E0,4E0,1.6163E4,1.5406E4,1.36E2,3.2E1],"tree_param":{"num_deleted":"0","num_feature":"58","num_nodes":"31","size_leaf_vector":"1"}},{"base_weights":[-1.1038281E-4,-5.841036E-4,4.2485297E-3,-1.8605482E-5,1.6556756E-3,2.358119E-2,3.2103604E-3,7.3932926E-5,2.6009456E-4,2.8356916E-4,2.5142044E-1,1.0099949E-4,2.116482E-5,-3.665678E-7,2.2142044E-4,7.723015E-3,4.0104214E-4],"categories":[],"categories_nodes":[],"categories_segments":[],"categories_sizes":[],"default_left":[0,0,0,0,0,0,0,0,0,0,0,0,0,0,0,0,0],"id":37,"left_children":[1,3,5,-1,7,9,11,-1,13,-1,15,-1,-1,-1,-1,-1,-1],"loss_changes":[1.0032362E0,8.8277066E-1,9.412619E-1,0E0,7.3775274E-1,4.0010428E-1,3.2797807E-1,0E0,4.8402774E-1,0E0,3.0312258E-1,0E0,0E0,0E0,0E0,0E0,0E0],"parents":[2147483647,0,0,1,1,2,2,4,4,5,5,6,6,8,8,10,10],"right_children":[2,4,6,-1,8,10,12,-1,14,-1,16,-1,-1,-1,-1,-1,-1],"split_conditions":[1.2175182E2,5.6841537E1,2.5E-1,-1.8605482E-5,3.3333334E-1,7.592593E-1,2E-1,7.3932926E-5,6.879121E-1,2.8356916E-4,1.5341628E2,1.0099949E-4,2.116482E-5,-3.665678E-7,2.2142044E-4,7.723015E-3,4.0104214E-4],"split_indices":[0,0,20,0,23,28,42,0,47,0,0,0,0,0,0,0,0],"split_type":[0,0,0,0,0,0,0,0,0,0,0,0,0,0,0,0,0],"sum_hessian":[4.86794E5,4.39186E5,4.7608E4,3.13714E5,1.25472E5,2.4E3,4.5208E4,3.1022E4,9.445E4,2.392E3,8E0,1.076E4,3.4448E4,9.2873E4,1.577E3,2E0,6E0],"tree_param":{"num_deleted":"0","num_feature":"58","num_nodes":"17","size_leaf_vector":"1"}},{"base_weights":[4.306356E-5,-3.5309664E-4,4.99973E-3,-5.411922E-4,7.5563164E-3,1.7189657E-4,3.7825883E-3,-1.6684473E-5,1.2708225E-3,5.9932563E-3,5.202584E-2,4.426888E-5,4.9547642E-2,5.5458127E-5,-1.7032812E-6,6.393589E-5,5.979333E-4,2.9181014E-3,5.422796E-4,1.1337908E-4,2.393066E-3],"categories":[],"categories_nodes":[],"categories_segments":[],"categories_sizes":[],"default_left":[0,0,0,0,0,0,0,0,0,0,0,0,0,0,0,0,0,0,0,0,0],"id":38,"left_children":[1,3,5,7,9,-1,11,-1,13,15,17,-1,19,-1,-1,-1,-1,-1,-1,-1,-1],"loss_changes":[9.596669E-1,6.676578E-1,3.732869E-1,6.290894E-1,6.9317627E-1,0E0,3.460512E-1,0E0,5.9220016E-1,3.5011545E-1,3.976034E-1,0E0,8.429433E-1,0E0,0E0,0E0,0E0,0E0,0E0,0E0,0E0],"parents":[2147483647,0,0,1,1,2,2,3,3,4,4,6,6,8,8,9,9,10,10,12,12],"right_children":[2,4,6,8,10,-1,12,-1,14,16,18,-1,20,-1,-1,-1,-1,-1,-1,-1,-1],"split_conditions":[1.3398997E2,5.4054055E-4,5E-1,5.6841537E1,7.5177306E-1,1.7189657E-4,7.432432E-1,-1.6684473E-5,6E-1,6.5833336E-1,-4.8111547E-2,4.426888E-5,4.7449884E-1,5.5458127E-5,-1.7032812E-6,6.393589E-5,5.979333E-4,2.9181014E-3,5.422796E-4,1.1337908E-4,2.393066E-3],"split_indices":[0,11,20,0,27,0,46,0,20,38,12,0,57,0,0,0,0,0,0,0,0],"split_type":[0,0,0,0,0,0,0,0,0,0,0,0,0,0,0,0,0,0,0,0,0],"sum_hessian":[4.87461E5,4.51285E5,3.6176E4,4.40868E5,1.0417E4,4.391E3,3.1785E4,3.07522E5,1.33346E5,1.0075E4,3.42E2,3.1619E4,1.66E2,4.1318E4,9.2028E4,9.874E3,2.01E2,1.3E1,3.29E2,1.32E2,3.4E1],"tree_param":{"num_deleted":"0","num_feature":"58","num_nodes":"21","size_leaf_vector":"1"}},{"base_weights":[2.8940298E-5,-3.78944E-4,5.1310672E-3,-5.683359E-4,7.5885975E-3,1.8699537E-4,3.7553255E-3,-7.9801434E-4,6.589406E-5,7.817304E-5,4.6496823E-2,4.4006054E-5,4.6198953E-2,-3.6529404E-6,-2.9370953E-5,1.3459928E-4,1.1246054E-3,3.903774E-4,5.503108E-3],"categories":[],"categories_nodes":[],"categories_segments":[],"categories_sizes":[],"default_left":[0,0,0,0,0,0,0,0,0,0,0,0,0,0,0,0,0,0,0],"id":39,"left_children":[1,3,5,7,9,-1,11,13,-1,-1,15,-1,17,-1,-1,-1,-1,-1,-1],"loss_changes":[1.0165166E0,6.769365E-1,4.7567087E-1,5.862529E-1,5.2405393E-1,0E0,3.1170982E-1,3.299324E-1,0E0,0E0,4.6900797E-1,0E0,7.8009504E-1,0E0,0E0,0E0,0E0,0E0,0E0],"parents":[2147483647,0,0,1,1,2,2,3,3,4,4,6,6,7,7,10,10,12,12],"right_children":[2,4,6,8,10,-1,12,14,-1,-1,16,-1,18,-1,-1,-1,-1,-1,-1],"split_conditions":[1.3398997E2,5.4054055E-4,5E-1,6.666667E-1,7.5177306E-1,1.8699537E-4,7.432432E-1,2.8846154E-1,6.589406E-5,7.817304E-5,1.1303371E-1,4.4006054E-5,1.9794962E-1,-3.6529404E-6,-2.9370953E-5,1.3459928E-4,1.1246054E-3,3.903774E-4,5.503108E-3],"split_indices":[0,11,20,46,27,0,46,51,0,0,35,0,35,0,0,0,0,0,0],"split_type":[0,0,0,0,0,0,0,0,0,0,0,0,0,0,0,0,0,0,0],"sum_hessian":[4.87242E5,4.51077E5,3.6165E4,4.40669E5,1.0408E4,4.42E3,3.1745E4,4.24015E5,1.6654E4,1.0069E4,3.39E2,3.1571E4,1.74E2,3.19282E5,1.04733E5,1.92E2,1.47E2,1.69E2,5E0],"tree_param":{"num_deleted":"0","num_feature":"58","num_nodes":"19","size_leaf_vector":"1"}},{"base_weights":[1.5174964E-5,-4.2881258E-4,4.140404E-3,-6.3441077E-4,5.8933863E-5,2.8504056E-4,3.1410328E-3,-7.8187406E-4,5.8851247E-3,3.6951635E-5,3.977862E-2,-1.4649595E-5,1.8782637E-5,6.1439794E-5,5.404683E-4,4.508977E-5,1.7725712E-3],"categories":[],"categories_nodes":[],"categories_segments":[],"categories_sizes":[],"default_left":[0,0,0,0,0,0,0,0,0,0,0,0,0,0,0,0,0],"id":40,"left_children":[1,3,5,7,-1,-1,9,11,13,-1,15,-1,-1,-1,-1,-1,-1],"loss_changes":[8.936997E-1,4.6060017E-1,8.6582214E-1,4.0355653E-1,0E0,0E0,3.0466557E-1,3.619896E-1,3.1619802E-1,0E0,7.599224E-1,0E0,0E0,0E0,0E0,0E0,0E0],"parents":[2147483647,0,0,1,1,2,2,3,3,6,6,7,7,8,8,10,10],"right_children":[2,4,6,8,-1,-1,10,12,14,-1,16,-1,-1,-1,-1,-1,-1],"split_conditions":[1.2175182E2,6.666667E-1,2.5E-1,9.966778E-3,5.8933863E-5,2.8504056E-4,7.432432E-1,8.067844E1,7.5177306E-1,3.6951635E-5,4.361905E-1,-1.4649595E-5,1.8782637E-5,6.1439794E-5,5.404683E-4,4.508977E-5,1.7725712E-3],"split_indices":[0,46,20,11,0,0,46,0,27,0,57,0,0,0,0,0,0],"split_type":[0,0,0,0,0,0,0,0,0,0,0,0,0,0,0,0,0],"sum_hessian":[4.86869E5,4.39444E5,4.7425E4,4.22585E5,1.6859E4,2.396E3,4.5029E4,4.13318E5,9.267E3,4.4801E4,2.28E2,3.53791E5,5.9527E4,9.04E3,2.27E2,1.72E2,5.6E1],"tree_param":{"num_deleted":"0","num_feature":"58","num_nodes":"17","size_leaf_vector":"1"}},{"base_weights":[-4.9985578E-5,-5.2554964E-4,4.3310993E-3,-6.985148E-4,6.771094E-3,2.3246227E-2,3.3172418E-3,-1.1098183E-5,4.9406888E-5,6.760308E-5,4.9059164E-2,1.6849166E-4,4.0587764E-2,3.8932983E-5,4.4123203E-2,1.6479337E-3,2.7936866E-4,6.0937443E-4,-9.116579E-5,1.2274084E-4,1.7125013E-3],"categories":[],"categories_nodes":[],"categories_segments":[],"categories_sizes":[],"default_left":[0,0,0,0,0,0,0,0,0,0,0,0,0,0,0,0,0,0,0,0,0],"id":41,"left_children":[1,3,5,7,9,11,13,-1,-1,-1,15,-1,17,-1,19,-1,-1,-1,-1,-1,-1],"loss_changes":[1.013645E0,5.519031E-1,8.9917964E-1,3.6724627E-1,5.645113E-1,3.7960696E-1,3.7514874E-1,0E0,0E0,0E0,5.990482E-1,0E0,3.4378505E-1,0E0,6.3865197E-1,0E0,0E0,0E0,0E0,0E0,0E0],"parents":[2147483647,0,0,1,1,2,2,3,3,4,4,5,5,6,6,10,10,12,12,14,14],"right_children":[2,4,6,8,10,12,14,-1,-1,-1,16,-1,18,-1,20,-1,-1,-1,-1,-1,-1],"split_conditions":[1.2175182E2,5.4054055E-4,2.5E-1,6.666667E-1,7.5177306E-1,2E-1,7.432432E-1,-1.1098183E-5,4.9406888E-5,6.760308E-5,-5.357143E-2,1.6849166E-4,5.635838E-1,3.8932983E-5,4.361905E-1,1.6479337E-3,2.7936866E-4,6.0937443E-4,-9.116579E-5,1.2274084E-4,1.7125013E-3],"split_indices":[0,11,20,46,27,24,46,0,0,0,17,0,47,0,57,0,0,0,0,0,0],"split_type":[0,0,0,0,0,0,0,0,0,0,0,0,0,0,0,0,0,0,0,0,0],"sum_hessian":[4.87485E5,4.3986E5,4.7625E4,4.29746E5,1.0114E4,2.396E3,4.5229E4,4.13332E5,1.6414E4,9.805E3,3.09E2,1.549E3,8.47E2,4.5003E4,2.26E2,7.1E1,2.38E2,7.36E2,1.11E2,1.69E2,5.7E1],"tree_param":{"num_deleted":"0","num_feature":"58","num_nodes":"21","size_leaf_vector":"1"}},{"base_weights":[-9.942335E-6,-3.8108075E-4,4.6098195E-3,-4.9634115E-4,9.97138E-3,1.7260075E-2,4.6037178E-5,-1.1458228E-5,1.5697279E-3,6.5086116E-3,5.6884438E-2,8.470099E-4,1.7763082E-4,8.4863306E-5,-2.005079E-6,4.486346E-5,4.0643997E-4,3.8831285E-4,1.6350296E-3],"categories":[],"categories_nodes":[],"categories_segments":[],"categories_sizes":[],"default_left":[0,0,0,0,0,0,0,0,0,0,0,0,0,0,0,0,0,0,0],"id":42,"left_children":[1,3,5,7,9,11,-1,-1,13,15,17,-1,-1,-1,-1,-1,-1,-1,-1],"loss_changes":[8.32607E-1,5.3288794E-1,4.1986454E-1,3.8300273E-1,7.643649E-1,3.4215146E-1,0E0,0E0,6.7229265E-1,3.2903653E-1,5.3642786E-1,0E0,0E0,0E0,0E0,0E0,0E0,0E0,0E0],"parents":[2147483647,0,0,1,1,2,2,3,3,4,4,5,5,8,8,9,9,10,10],"right_children":[2,4,6,8,10,12,-1,-1,14,16,18,-1,-1,-1,-1,-1,-1,-1,-1],"split_conditions":[1.3398997E2,7.5177306E-1,2E-1,7.971675E1,9.966778E-3,1.3635951E2,4.6037178E-5,-1.1458228E-5,6E-1,6.879121E-1,6.666667E-1,8.470099E-4,1.7763082E-4,8.4863306E-5,-2.005079E-6,4.486346E-5,4.0643997E-4,3.8831285E-4,1.6350296E-3],"split_indices":[0,27,24,0,11,0,0,0,20,47,43,0,0,0,0,0,0,0,0],"split_type":[0,0,0,0,0,0,0,0,0,0,0,0,0,0,0,0,0,0,0],"sum_hessian":[4.86918E5,4.50816E5,3.6102E4,4.45903E5,4.913E3,2.467E3,3.3635E4,3.71366E5,7.4537E4,4.586E3,3.27E2,1.34E2,2.333E3,1.8711E4,5.5826E4,4.137E3,4.49E2,2.47E2,8E1],"tree_param":{"num_deleted":"0","num_feature":"58","num_nodes":"19","size_leaf_vector":"1"}},{"base_weights":[6.154453E-5,-1.9170028E-4,8.864252E-5,-1.5017344E-5,1.825474E-3,9.926625E-3,8.914815E-4,9.813617E-5,3.3830808E-4,6.7636006E-6,1.5981909E-4],"categories":[],"categories_nodes":[],"categories_segments":[],"categories_sizes":[],"default_left":[0,0,0,0,0,0,0,0,0,0,0],"id":43,"left_children":[1,3,-1,-1,5,7,9,-1,-1,-1,-1],"loss_changes":[8.675546E-1,9.525441E-1,0E0,0E0,1.1759079E0,5.594034E-1,5.7800597E-1,0E0,0E0,0E0,0E0],"parents":[2147483647,0,0,1,1,4,4,5,5,6,6],"right_children":[2,4,-1,-1,6,8,10,-1,-1,-1,-1],"split_conditions":[1.648671E2,5.6841537E1,8.864252E-5,-1.5017344E-5,2.5E-1,1.2175182E2,6.666667E-1,9.813617E-5,3.3830808E-4,6.7636006E-6,1.5981909E-4],"split_indices":[0,0,0,0,20,0,46,0,0,0,0],"split_type":[0,0,0,0,0,0,0,0,0,0,0],"sum_hessian":[4.87518E5,4.70417E5,1.7101E4,3.14245E5,1.56172E5,1.6085E4,1.40087E5,1.4337E4,1.748E3,1.36075E5,4.012E3],"tree_param":{"num_deleted":"0","num_feature":"58","num_nodes":"11","size_leaf_vector":"1"}},{"base_weights":[1.2498032E-4,-1.5261576E-4,6.2513407E-3,-4.94525E-4,3.047505E-3,6.603779E-5,2.5396505E-2,-6.697987E-4,5.1841416E-5,1.2504041E-2,1.6735366E-5,2.1611778E-2,1.7871538E-1,-1.638755E-5,1.2729221E-5,2.0419843E-4,-2.539967E-5,2.2923332E-4,2.2919297E-3,6.9779474E-3,6.908564E-4],"categories":[],"categories_nodes":[],"categories_segments":[],"categories_sizes":[],"default_left":[0,0,0,0,0,0,0,0,0,0,0,0,0,0,0,0,0,0,0,0,0],"id":44,"left_children":[1,3,5,7,9,-1,11,13,-1,15,-1,17,19,-1,-1,-1,-1,-1,-1,-1,-1],"loss_changes":[8.3227885E-1,5.0880784E-1,3.8679463E-1,3.3961076E-1,7.200669E-1,0E0,4.8426676E-1,4.3443638E-1,0E0,3.807751E-1,0E0,4.3190774E-1,6.5677273E-1,0E0,0E0,0E0,0E0,0E0,0E0,0E0,0E0],"parents":[2147483647,0,0,1,1,2,2,3,3,4,4,6,6,7,7,9,9,11,11,12,12],"right_children":[2,4,6,8,10,-1,12,14,-1,16,-1,18,20,-1,-1,-1,-1,-1,-1,-1,-1],"split_conditions":[6.8E-1,1.18186905E2,7.288136E-1,6.666667E-1,5E-1,6.603779E-5,1.9794962E-1,5.746665E1,5.1841416E-5,5.147541E-1,1.6735366E-5,6.944444E-1,7.0429033E-1,-1.638755E-5,1.2729221E-5,2.0419843E-4,-2.539967E-5,2.2923332E-4,2.2919297E-3,6.9779474E-3,6.908564E-4],"split_indices":[27,0,48,46,20,0,35,0,0,47,0,57,31,0,0,0,0,0,0,0,0],"split_type":[0,0,0,0,0,0,0,0,0,0,0,0,0,0,0,0,0,0,0,0,0],"sum_hessian":[4.8748E5,4.66266E5,2.1214E4,4.21408E5,4.4858E4,2.0195E4,1.019E3,4.06125E5,1.5283E4,6.838E3,3.802E4,9.98E2,2.1E1,2.95097E5,1.11028E5,5.462E3,1.376E3,9.81E2,1.7E1,4E0,1.7E1],"tree_param":{"num_deleted":"0","num_feature":"58","num_nodes":"21","size_leaf_vector":"1"}},{"base_weights":[7.5408934E-5,-7.6279603E-4,2.8825337E-3,-1.183116E-5,6.3446285E-5,1.4241721E-4,2.081566E-3,6.7415154E-3,1.0655117E-3,5.995363E-5,2.1265964E-4,1.0399954E-5,2.4461295E-4],"categories":[],"categories_nodes":[],"categories_segments":[],"categories_sizes":[],"default_left":[0,0,0,0,0,0,0,0,0,0,0,0,0],"id":45,"left_children":[1,3,5,-1,-1,-1,7,9,11,-1,-1,-1,-1],"loss_changes":[1.1478999E0,3.8911116E-1,7.5310904E-1,0E0,0E0,0E0,4.8146337E-1,3.5472065E-1,3.5759228E-1,0E0,0E0,0E0,0E0],"parents":[2147483647,0,0,1,1,2,2,6,6,7,7,8,8],"right_children":[2,4,6,-1,-1,-1,8,10,12,-1,-1,-1,-1],"split_conditions":[7.971675E1,6.8E-1,2E-1,-1.183116E-5,6.3446285E-5,1.4241721E-4,3.3333334E-1,2E0,7.288136E-1,5.995363E-5,2.1265964E-4,1.0399954E-5,2.4461295E-4],"split_indices":[0,27,24,0,0,0,23,22,48,0,0,0,0],"split_type":[0,0,0,0,0,0,0,0,0,0,0,0,0],"sum_hessian":[4.87377E5,3.75164E5,1.12213E5,3.64028E5,1.1136E4,9.649E3,1.02564E5,1.8266E4,8.4298E4,1.5355E4,2.911E3,8.3254E4,1.044E3],"tree_param":{"num_deleted":"0","num_feature":"58","num_nodes":"13","size_leaf_vector":"1"}},{"base_weights":[4.6890753E-5,-3.2076455E-4,4.6569533E-3,-5.539819E-6,1.0373648E-2,1.1665008E-4,2.9924238E-5,9.012732E-5,3.8143497E-2,3.7779057E-4,3.6848406E-3],"categories":[],"categories_nodes":[],"categories_segments":[],"categories_sizes":[],"default_left":[0,0,0,0,0,0,0,0,0,0,0],"id":46,"left_children":[1,3,5,-1,7,-1,-1,-1,9,-1,-1],"loss_changes":[8.28174E-1,5.7558906E-1,3.740157E-1,0E0,4.1730607E-1,0E0,0E0,0E0,8.473863E-1,0E0,0E0],"parents":[2147483647,0,0,1,1,2,2,4,4,8,8],"right_children":[2,4,6,-1,8,-1,-1,-1,10,-1,-1],"split_conditions":[1.3398997E2,7.5177306E-1,4E-1,-5.539819E-6,6.879121E-1,1.1665008E-4,2.9924238E-5,9.012732E-5,3.5E-1,3.7779057E-4,3.6848406E-3],"split_indices":[0,27,1,0,47,0,0,0,7,0,0],"split_type":[0,0,0,0,0,0,0,0,0,0,0],"sum_hessian":[4.87262E5,4.51166E5,3.6096E4,4.46193E5,4.973E3,1.1808E4,2.4288E4,4.477E3,4.96E2,4.83E2,1.3E1],"tree_param":{"num_deleted":"0","num_feature":"58","num_nodes":"11","size_leaf_vector":"1"}},{"base_weights":[-3.957414E-5,-3.1387957E-4,7.473389E-5,-6.685669E-4,2.9978962E-3,-8.5597706E-4,5.390933E-5,1.1530465E-2,1.8049112E-5,-1.9597548E-5,1.2689025E-5,1.3847522E-4,1.8813644E-3],"categories":[],"categories_nodes":[],"categories_segments":[],"categories_sizes":[],"default_left":[0,0,0,0,0,0,0,0,0,0,0,0,0],"id":47,"left_children":[1,3,-1,5,7,9,-1,11,-1,-1,-1,-1,-1],"loss_changes":[7.973756E-1,5.4591703E-1,0E0,3.8953328E-1,5.911958E-1,5.338212E-1,0E0,3.9385104E-1,0E0,0E0,0E0,0E0,0E0],"parents":[2147483647,0,0,1,1,3,3,4,4,5,5,7,7],"right_children":[2,4,-1,6,8,10,-1,12,-1,-1,-1,-1,-1],"split_conditions":[6.8E-1,1.18186905E2,7.473389E-5,6.666667E-1,5E-1,5.746665E1,5.390933E-5,8.068709E-1,1.8049112E-5,-1.9597548E-5,1.2689025E-5,1.3847522E-4,1.8813644E-3],"split_indices":[27,0,0,46,20,0,0,52,0,0,0,0,0],"split_type":[0,0,0,0,0,0,0,0,0,0,0,0,0],"sum_hessian":[4.87044E5,4.65805E5,2.1239E4,4.20889E5,4.4916E4,4.05673E5,1.5216E4,6.892E3,3.8024E4,2.947E5,1.10973E5,6.871E3,2.1E1],"tree_param":{"num_deleted":"0","num_feature":"58","num_nodes":"13","size_leaf_vector":"1"}},{"base_weights":[4.6016583E-5,-1.1430607E-4,1.0779683E-2,-3.417887E-4,7.443986E-5,8.440495E-5,2.7389046E-2,2.4562347E-4,-2.6410653E-5,-1.3260567E-5,4.935142E-2,1.3894852E-6,8.4975996E-5,8.267008E-4,-2.785345E-5],"categories":[],"categories_nodes":[],"categories_segments":[],"categories_sizes":[],"default_left":[0,0,0,0,0,0,0,0,0,0,0,0,0,0,0],"id":48,"left_children":[1,3,5,7,-1,-1,9,11,-1,-1,13,-1,-1,-1,-1],"loss_changes":[8.443498E-1,6.569799E-1,4.685713E-1,4.7983107E-1,0E0,0E0,8.953966E-1,3.0162832E-1,0E0,0E0,7.1053064E-1,0E0,0E0,0E0,0E0],"parents":[2147483647,0,0,1,1,2,2,3,3,6,6,7,7,10,10],"right_children":[2,4,6,8,-1,-1,10,12,-1,-1,14,-1,-1,-1,-1],"split_conditions":[7.5177306E-1,1.6060811E2,1.1303371E-1,5.882353E-2,7.443986E-5,8.440495E-5,5E-1,5.4054055E-4,-2.6410653E-5,-1.3260567E-5,6.1035097E-1,1.3894852E-6,8.4975996E-5,8.267008E-4,-2.785345E-5],"split_indices":[27,0,35,56,0,0,43,11,0,0,34,0,0,0,0],"split_type":[0,0,0,0,0,0,0,0,0,0,0,0,0,0,0],"sum_hessian":[4.87362E5,4.80141E5,7.221E3,4.62805E5,1.7336E4,5.829E3,1.392E3,3.46835E5,1.1597E5,5.96E2,7.96E2,3.39882E5,6.953E3,6.11E2,1.85E2],"tree_param":{"num_deleted":"0","num_feature":"58","num_nodes":"15","size_leaf_vector":"1"}},{"base_weights":[5.3361193E-5,-1.757954E-4,8.0079E-5,-3.5137145E-4,7.0818504E-3,-4.411012E-4,7.1814517E-3,7.889802E-5,5.861763E-2,-2.4178584E-8,-3.064032E-5,8.217676E-5,2.3108087E-3,4.8581106E-3,5.249713E-4],"categories":[],"categories_nodes":[],"categories_segments":[],"categories_sizes":[],"default_left":[0,0,0,0,0,0,0,0,0,0,0,0,0,0,0],"id":49,"left_children":[1,3,-1,5,7,9,11,-1,13,-1,-1,-1,-1,-1,-1],"loss_changes":[7.0892483E-1,5.9511554E-1,0E0,3.0653238E-1,4.1942316E-1,3.9679158E-1,4.9942064E-1,0E0,6.4239526E-1,0E0,0E0,0E0,0E0,0E0,0E0],"parents":[2147483647,0,0,1,1,3,3,4,4,5,5,6,6,8,8],"right_children":[2,4,-1,6,8,10,12,-1,14,-1,-1,-1,-1,-1,-1],"split_conditions":[1.648671E2,5.4054055E-4,8.0079E-5,7.5177306E-1,7.532467E-1,4.7699782E-1,1E0,7.889802E-5,2.5E-1,-2.4178584E-8,-3.064032E-5,8.217676E-5,2.3108087E-3,4.8581106E-3,5.249713E-4],"split_indices":[0,11,0,27,48,34,47,0,26,0,0,0,0,0,0],"split_type":[0,0,0,0,0,0,0,0,0,0,0,0,0,0,0],"sum_hessian":[4.86944E5,4.69834E5,1.711E4,4.58808E5,1.1026E4,4.53477E5,5.331E3,1.0868E4,1.58E2,3.72009E5,8.1468E4,5.315E3,1.6E1,6E0,1.52E2],"tree_param":{"num_deleted":"0","num_feature":"58","num_nodes":"15","size_leaf_vector":"1"}},{"base_weights":[-0E0,-3.506769E-4,3.2583058E-3,-5.703557E-4,5.1116445E-3,7.928958E-3,8.748538E-6,-4.6930012E-7,-2.7368593E-5,5.1290517E-5,2.7424714E-2,1.0692645E-2,-2.0272453E-6,5.8410504E-5,8.6580287E-4,1.1737972E-4,4.141455E-4],"categories":[],"categories_nodes":[],"categories_segments":[],"categories_sizes":[],"default_left":[0,0,0,0,0,0,0,0,0,0,0,0,0,0,0,0,0],"id":50,"left_children":[1,3,5,7,9,11,-1,-1,-1,-1,13,15,-1,-1,-1,-1,-1],"loss_changes":[5.570475E-1,5.251423E-1,5.6225497E-1,3.6137402E-1,3.7067407E-1,3.7916183E-1,0E0,0E0,0E0,0E0,6.427179E-1,3.5229814E-1,0E0,0E0,0E0,0E0,0E0],"parents":[2147483647,0,0,1,1,2,2,3,3,4,4,5,5,10,10,11,11],"right_children":[2,4,6,8,10,12,-1,-1,-1,-1,14,16,-1,-1,-1,-1,-1],"split_conditions":[1.2175182E2,6.666667E-1,4E-1,2.8846154E-1,7.5177306E-1,3.555299E-1,8.748538E-6,-4.6930012E-7,-2.7368593E-5,5.1290517E-5,7.7860224E-1,3E0,-2.0272453E-6,5.8410504E-5,8.6580287E-4,1.1737972E-4,4.141455E-4],"split_indices":[0,46,1,51,27,37,0,0,0,0,33,22,0,0,0,0,0],"split_type":[0,0,0,0,0,0,0,0,0,0,0,0,0,0,0,0,0],"sum_hessian":[4.87024E5,4.39647E5,4.7377E4,4.22743E5,1.6904E4,1.6707E4,3.067E4,3.17806E5,1.04937E5,1.6183E4,7.21E2,1.2502E4,4.205E3,4.74E2,2.47E2,1.1813E4,6.89E2],"tree_param":{"num_deleted":"0","num_feature":"58","num_nodes":"17","size_leaf_vector":"1"}},{"base_weights":[-6.26838E-6,-4.1696546E-4,3.468512E-3,-6.1533944E-4,5.634537E-5,1.2224597E-2,2.1254644E-3,-7.5024425E-4,5.373339E-3,1.7786635E-2,7.943426E-6,2.2249224E-5,2.4715276E-2,-1.757996E-5,1.1831533E-5,5.289767E-5,6.039597E-4,2.1268147E-4,1.5170153E-3,2.0227474E-4,2.4388058E-3],"categories":[],"categories_nodes":[],"categories_segments":[],"categories_sizes":[],"default_left":[0,0,0,0,0,0,0,0,0,0,0,0,0,0,0,0,0,0,0,0,0],"id":51,"left_children":[1,3,5,7,-1,9,11,13,15,17,-1,-1,19,-1,-1,-1,-1,-1,-1,-1,-1],"loss_changes":[6.9472784E-1,4.225871E-1,5.9729177E-1,3.365754E-1,0E0,4.2786968E-1,3.4266484E-1,4.5160785E-1,4.2636684E-1,3.2546294E-1,0E0,0E0,8.5807794E-1,0E0,0E0,0E0,0E0,0E0,0E0,0E0,0E0],"parents":[2147483647,0,0,1,1,2,2,3,3,5,5,6,6,7,7,8,8,9,9,12,12],"right_children":[2,4,6,8,-1,10,12,14,16,18,-1,-1,20,-1,-1,-1,-1,-1,-1,-1,-1],"split_conditions":[1.18186905E2,6.666667E-1,2.5E-1,9.966778E-3,5.634537E-5,2E-1,3E0,5.746665E1,7.5177306E-1,6.1958873E-1,7.943426E-6,2.2249224E-5,7.414634E-1,-1.757996E-5,1.1831533E-5,5.289767E-5,6.039597E-4,2.1268147E-4,1.5170153E-3,2.0227474E-4,2.4388058E-3],"split_indices":[0,46,24,11,0,25,22,0,27,38,0,0,28,0,0,0,0,0,0,0,0],"split_type":[0,0,0,0,0,0,0,0,0,0,0,0,0,0,0,0,0,0,0,0,0],"sum_hessian":[4.87954E5,4.36514E5,5.144E4,4.19647E5,1.6867E4,6.788E3,4.4652E4,4.10489E5,9.158E3,4.556E3,2.232E3,4.3987E4,6.65E2,2.96847E5,1.13642E5,8.928E3,2.3E2,4.524E3,3.2E1,6.36E2,2.9E1],"tree_param":{"num_deleted":"0","num_feature":"58","num_nodes":"21","size_leaf_vector":"1"}},{"base_weights":[5.018975E-5,-3.5081833E-4,3.452047E-3,-5.923373E-4,4.7468343E-3,1.4699239E-4,2.0731206E-3,-7.2596775E-4,5.1933406E-3,4.752859E-5,2.5724184E-2,2.0108979E-4,1.4992016E-3,-1.1469511E-5,4.135391E-5,5.0484516E-5,4.6658973E-4,-9.371697E-5,5.3620874E-4,1.6103952E-5,5.27152E-4],"categories":[],"categories_nodes":[],"categories_segments":[],"categories_sizes":[],"default_left":[0,0,0,0,0,0,0,0,0,0,0,0,0,0,0,0,0,0,0,0,0],"id":52,"left_children":[1,3,5,7,9,-1,11,13,15,-1,17,-1,19,-1,-1,-1,-1,-1,-1,-1,-1],"loss_changes":[6.6598403E-1,5.3396356E-1,5.786933E-1,3.191709E-1,3.7981817E-1,0E0,3.4411788E-1,3.0495244E-1,3.2675245E-1,0E0,4.8929238E-1,0E0,3.4965166E-1,0E0,0E0,0E0,0E0,0E0,0E0,0E0,0E0],"parents":[2147483647,0,0,1,1,2,2,3,3,4,4,6,6,7,7,8,8,10,10,12,12],"right_children":[2,4,6,8,10,-1,12,14,16,-1,18,-1,20,-1,-1,-1,-1,-1,-1,-1,-1],"split_conditions":[1.18186905E2,6.5625E-1,5E-1,5.4054055E-4,7.5177306E-1,1.4699239E-4,2E-1,1.0331922E2,6.028572E-1,4.752859E-5,5E-1,2.0108979E-4,7.432432E-1,-1.1469511E-5,4.135391E-5,5.0484516E-5,4.6658973E-4,-9.371697E-5,5.3620874E-4,1.6103952E-5,5.27152E-4],"split_indices":[0,46,20,11,27,0,24,0,38,0,43,0,46,0,0,0,0,0,0,0,0],"split_type":[0,0,0,0,0,0,0,0,0,0,0,0,0,0,0,0,0,0,0,0,0],"sum_hessian":[4.86987E5,4.35495E5,5.1492E4,4.15895E5,1.96E4,7.316E3,4.4176E4,4.06596E5,9.299E3,1.8765E4,8.35E2,1.71E3,4.2466E4,3.8861E5,1.7986E4,8.986E3,3.13E2,2.72E2,5.63E2,4.2253E4,2.13E2],"tree_param":{"num_deleted":"0","num_feature":"58","num_nodes":"21","size_leaf_vector":"1"}},{"base_weights":[6.8487784E-6,-4.2860795E-4,4.0477035E-3,-6.0034235E-4,6.8405936E-3,2.0637926E-2,3.9615457E-5,-7.597224E-4,3.965891E-3,6.5976834E-5,5.5565696E-2,1.8319617E-4,5.8609585E-4,-1.4348259E-5,1.9318748E-5,4.690225E-5,1.4963305E-3,2.9463123E-4,1.8529336E-3],"categories":[],"categories_nodes":[],"categories_segments":[],"categories_sizes":[],"default_left":[0,0,0,0,0,0,0,0,0,0,0,0,0,0,0,0,0,0,0],"id":53,"left_children":[1,3,5,7,9,11,-1,13,15,-1,17,-1,-1,-1,-1,-1,-1,-1,-1],"loss_changes":[8.591089E-1,5.4550844E-1,6.9117075E-1,3.1091386E-1,7.465142E-1,3.4469938E-1,0E0,3.6511004E-1,3.1694418E-1,0E0,8.1558543E-1,0E0,0E0,0E0,0E0,0E0,0E0,0E0,0E0],"parents":[2147483647,0,0,1,1,2,2,3,3,4,4,5,5,7,7,8,8,10,10],"right_children":[2,4,6,8,10,12,-1,14,16,-1,18,-1,-1,-1,-1,-1,-1,-1,-1],"split_conditions":[1.2175182E2,5.4054055E-4,2.5E-1,6.8E-1,7.5177306E-1,4E-1,3.9615457E-5,7.971675E1,1E0,6.5976834E-5,6.666667E-1,1.8319617E-4,5.8609585E-4,-1.4348259E-5,1.9318748E-5,4.690225E-5,1.4963305E-3,2.9463123E-4,1.8529336E-3],"split_indices":[0,11,20,27,27,24,0,0,47,0,43,0,0,0,0,0,0,0,0],"split_type":[0,0,0,0,0,0,0,0,0,0,0,0,0,0,0,0,0,0,0],"sum_hessian":[4.87142E5,4.39634E5,4.7508E4,4.29559E5,1.0075E4,2.396E3,4.5112E4,4.15184E5,1.4375E4,9.768E3,3.07E2,1.961E3,4.35E2,3.5609E5,5.9094E4,1.4351E4,2.4E1,2.32E2,7.5E1],"tree_param":{"num_deleted":"0","num_feature":"58","num_nodes":"19","size_leaf_vector":"1"}},{"base_weights":[6.654275E-5,-2.9186666E-4,4.576493E-3,-1.3447222E-5,1.4912906E-3,1.9652108E-2,3.8393412E-3,7.976625E-3,6.877976E-4,2.2781228E-4,2.1025792E-1,4.509508E-5,5.085893E-2,8.4640415E-5,3.88093E-4,5.518127E-6,1.8956939E-4,7.0144283E-3,-0E0,1.6894066E-4,2.3637083E-3],"categories":[],"categories_nodes":[],"categories_segments":[],"categories_sizes":[],"default_left":[0,0,0,0,0,0,0,0,0,0,0,0,0,0,0,0,0,0,0,0,0],"id":54,"left_children":[1,3,5,-1,7,9,11,13,15,-1,17,-1,19,-1,-1,-1,-1,-1,-1,-1,-1],"loss_changes":[7.901039E-1,6.267915E-1,3.8746482E-1,0E0,7.09465E-1,3.5138822E-1,3.719762E-1,4.0613133E-1,4.283284E-1,0E0,8.451426E-1,0E0,7.615081E-1,0E0,0E0,0E0,0E0,0E0,0E0,0E0,0E0],"parents":[2147483647,0,0,1,1,2,2,4,4,5,5,6,6,7,7,8,8,10,10,12,12],"right_children":[2,4,6,-1,8,10,12,14,16,-1,18,-1,20,-1,-1,-1,-1,-1,-1,-1,-1],"split_conditions":[1.3398997E2,5.6841537E1,2.5E-1,-1.3447222E-5,2.5E-1,5.272727E-1,7.432432E-1,1.2175182E2,7.677054E-1,2.2781228E-4,0E0,4.509508E-5,4.7449884E-1,8.4640415E-5,3.88093E-4,5.518127E-6,1.8956939E-4,7.0144283E-3,-0E0,1.6894066E-4,2.3637083E-3],"split_indices":[0,0,20,0,20,9,46,0,27,0,3,0,57,0,0,0,0,0,0,0,0],"split_type":[0,0,0,0,0,0,0,0,0,0,0,0,0,0,0,0,0,0,0,0,0],"sum_hessian":[4.87392E5,4.51401E5,3.5991E4,3.14367E5,1.37034E5,1.644E3,3.4347E4,1.5033E4,1.22001E5,1.634E3,1E1,3.4178E4,1.69E2,1.4286E4,7.47E2,1.1997E5,2.031E3,4E0,6E0,1.36E2,3.3E1],"tree_param":{"num_deleted":"0","num_feature":"58","num_nodes":"21","size_leaf_vector":"1"}},{"base_weights":[2.98418E-5,-2.256275E-4,8.858852E-5,-3.397502E-4,9.10604E-3,-5.040385E-4,5.0416795E-5,7.48199E-5,3.7908517E-2,1.3125353E-5,-1.3148801E-5,1.9399154E-4,1.2814678E-3],"categories":[],"categories_nodes":[],"categories_segments":[],"categories_sizes":[],"default_left":[0,0,0,0,0,0,0,0,0,0,0,0,0],"id":55,"left_children":[1,3,-1,5,7,9,-1,-1,11,-1,-1,-1,-1],"loss_changes":[8.7774956E-1,4.9577647E-1,0E0,3.302935E-1,4.8628852E-1,3.7651432E-1,0E0,0E0,7.110795E-1,0E0,0E0,0E0,0E0],"parents":[2147483647,0,0,1,1,3,3,4,4,5,5,8,8],"right_children":[2,4,-1,6,8,10,-1,-1,12,-1,-1,-1,-1],"split_conditions":[1.648671E2,7.5177306E-1,8.858852E-5,6.666667E-1,6.879121E-1,2E-1,5.0416795E-5,7.48199E-5,1.0948481E-1,1.3125353E-5,-1.3148801E-5,1.9399154E-4,1.2814678E-3],"split_indices":[0,27,0,46,47,42,0,0,35,0,0,0,0],"split_type":[0,0,0,0,0,0,0,0,0,0,0,0,0],"sum_hessian":[4.8708E5,4.69915E5,1.7165E4,4.64294E5,5.621E3,4.47532E5,1.6762E4,5.084E3,5.37E2,1.159E5,3.31632E5,4.04E2,1.33E2],"tree_param":{"num_deleted":"0","num_feature":"58","num_nodes":"13","size_leaf_vector":"1"}},{"base_weights":[-2.5822748E-5,-2.2607995E-4,8.106813E-3,-5.601083E-4,2.7907763E-3,7.889483E-5,2.7704993E-2,-1.532104E-5,1.2053725E-3,2.0066332E-2,1.7631258E-3,2.5672335E-4,1.2472364E-1,8.227061E-5,6.2123836E-6,1.3703913E-4,4.5977448E-4,7.906402E-5,2.9149476E-6,4.225777E-4,3.9678058E-3],"categories":[],"categories_nodes":[],"categories_segments":[],"categories_sizes":[],"default_left":[0,0,0,0,0,0,0,0,0,0,0,0,0,0,0,0,0,0,0,0,0],"id":56,"left_children":[1,3,5,7,9,-1,11,-1,13,15,17,-1,19,-1,-1,-1,-1,-1,-1,-1,-1],"loss_changes":[7.888324E-1,4.777731E-1,3.9796507E-1,4.987712E-1,8.2669485E-1,0E0,6.030482E-1,0E0,4.3794698E-1,3.7181973E-1,3.0603918E-1,0E0,8.949045E-1,0E0,0E0,0E0,0E0,0E0,0E0,0E0,0E0],"parents":[2147483647,0,0,1,1,2,2,3,3,4,4,6,6,8,8,9,9,10,10,12,12],"right_children":[2,4,6,8,10,-1,12,-1,14,16,18,-1,20,-1,-1,-1,-1,-1,-1,-1,-1],"split_conditions":[7.2131145E-1,1.18186905E2,6.942675E-1,5.746665E1,2.5E-1,7.889483E-5,1.7321178E-1,-1.532104E-5,2.5E-1,2E-1,2E-1,2.5672335E-4,7.432432E-1,8.227061E-5,6.2123836E-6,1.3703913E-4,4.5977448E-4,7.906402E-5,2.9149476E-6,4.225777E-4,3.9678058E-3],"split_indices":[27,0,49,0,20,0,35,0,20,24,42,0,46,0,0,0,0,0,0,0,0],"split_type":[0,0,0,0,0,0,0,0,0,0,0,0,0,0,0,0,0,0,0,0,0],"sum_hessian":[4.8693E5,4.75292E5,1.1638E4,4.28072E5,4.722E4,1.0672E4,9.66E2,3.11814E5,1.16258E5,2.622E3,4.4598E4,9.04E2,6.2E1,1.3553E4,1.02705E5,1.709E3,9.13E2,1.1172E4,3.3426E4,4.4E1,1.8E1],"tree_param":{"num_deleted":"0","num_feature":"58","num_nodes":"21","size_leaf_vector":"1"}},{"base_weights":[2.266151E-7,-3.836324E-4,3.554711E-3,-5.586373E-4,4.5101508E-3,2.0185767E-2,3.3519314E-5,-1.6194573E-6,-3.0822062E-5,4.083172E-5,2.6958127E-2,2.4053016E-4,2.8719395E-1,2.2895329E-4,1.6260835E-3,-0E0,6.550556E-3],"categories":[],"categories_nodes":[],"categories_segments":[],"categories_sizes":[],"default_left":[0,0,0,0,0,0,0,0,0,0,0,0,0,0,0,0,0],"id":57,"left_children":[1,3,5,7,9,11,-1,-1,-1,-1,13,-1,15,-1,-1,-1,-1],"loss_changes":[6.6595805E-1,3.7410113E-1,6.8861157E-1,3.44177E-1,4.0943918E-1,4.9047035E-1,0E0,0E0,0E0,0E0,6.163817E-1,0E0,5.3881633E-1,0E0,0E0,0E0,0E0],"parents":[2147483647,0,0,1,1,2,2,3,3,4,4,5,5,10,10,12,12],"right_children":[2,4,6,8,10,12,-1,-1,-1,-1,14,-1,16,-1,-1,-1,-1],"split_conditions":[1.2175182E2,6.8E-1,2.5E-1,5.7855785E-1,6.964286E-1,7.592593E-1,3.3519314E-5,-1.6194573E-6,-3.0822062E-5,4.083172E-5,7.307571E-1,2.4053016E-4,-7.355603E-3,2.2895329E-4,1.6260835E-3,-0E0,6.550556E-3],"split_indices":[0,27,20,32,47,28,0,0,0,0,50,0,13,0,0,0,0],"split_type":[0,0,0,0,0,0,0,0,0,0,0,0,0,0,0,0,0],"sum_hessian":[4.86852E5,4.39265E5,4.7587E4,4.24204E5,1.5061E4,2.375E3,4.5212E4,3.46054E5,7.815E4,1.4284E4,7.77E2,2.368E3,7E0,7.21E2,5.6E1,3E0,4E0],"tree_param":{"num_deleted":"0","num_feature":"58","num_nodes":"17","size_leaf_vector":"1"}},{"base_weights":[-2.2429251E-6,-1.7797307E-4,7.1215117E-3,-3.8710577E-4,5.5969297E-3,8.0579885E-5,5.2396055E-2,-8.647661E-4,1.4998663E-3,1.4842734E-4,2.9122588E-5,3.817971E-1,3.6484256E-2,-1.2844631E-5,5.522338E-5,9.3200244E-5,-1.5808105E-6,7.2223376E-3,-0E0,7.789438E-5,2.0172975E-3],"categories":[],"categories_nodes":[],"categories_segments":[],"categories_sizes":[],"default_left":[0,0,0,0,0,0,0,0,0,0,0,0,0,0,0,0,0,0,0,0,0],"id":58,"left_children":[1,3,5,7,9,-1,11,13,15,-1,-1,17,19,-1,-1,-1,-1,-1,-1,-1,-1],"loss_changes":[6.065244E-1,5.718475E-1,3.4073907E-1,4.135973E-1,3.298276E-1,0E0,6.515646E-1,3.0328307E-1,8.9486265E-1,0E0,0E0,4.7558367E-1,5.1697636E-1,0E0,0E0,0E0,0E0,0E0,0E0,0E0,0E0],"parents":[2147483647,0,0,1,1,2,2,3,3,4,4,6,6,7,7,8,8,11,11,12,12],"right_children":[2,4,6,8,10,-1,12,14,16,-1,-1,18,20,-1,-1,-1,-1,-1,-1,-1,-1],"split_conditions":[5.4054055E-4,1.648671E2,7.532467E-1,7.971675E1,6.666667E-1,8.0579885E-5,2.5E-1,6.8E-1,3.3333334E-1,1.4842734E-4,2.9122588E-5,-1.6666667E-1,2.5785225E-2,-1.2844631E-5,5.522338E-5,9.3200244E-5,-1.5808105E-6,7.2223376E-3,-0E0,7.789438E-5,2.0172975E-3],"split_indices":[11,0,48,0,20,0,26,27,23,0,0,7,13,0,0,0,0,0,0,0,0],"split_type":[0,0,0,0,0,0,0,0,0,0,0,0,0,0,0,0,0,0,0,0,0],"sum_hessian":[4.87449E5,4.75787E5,1.1662E4,4.59248E5,1.6539E4,1.1495E4,1.67E2,3.66704E5,9.2544E4,5.65E3,1.0889E4,6E0,1.61E2,3.56107E5,1.0597E4,2.0004E4,7.254E4,4E0,2E0,1.33E2,2.8E1],"tree_param":{"num_deleted":"0","num_feature":"58","num_nodes":"21","size_leaf_vector":"1"}},{"base_weights":[-1.1022227E-5,-3.8731785E-4,3.4621116E-3,-5.5294705E-4,5.933784E-3,1.788981E-2,3.372491E-5,-1.7148452E-6,-3.0191133E-5,5.194113E-5,3.390278E-2,2.1242672E-4,2.3697777E-1,3.3288178E-4,2.5736364E-3,7.485033E-3,2.4376427E-4],"categories":[],"categories_nodes":[],"categories_segments":[],"categories_sizes":[],"default_left":[0,0,0,0,0,0,0,0,0,0,0,0,0,0,0,0,0],"id":59,"left_children":[1,3,5,7,9,11,-1,-1,-1,-1,13,-1,15,-1,-1,-1,-1],"loss_changes":[6.3508195E-1,4.5748773E-1,5.210348E-1,3.2899988E-1,5.40076E-1,3.7419862E-1,0E0,0E0,0E0,0E0,7.047022E-1,0E0,3.0737215E-1,0E0,0E0,0E0,0E0],"parents":[2147483647,0,0,1,1,2,2,3,3,4,4,5,5,10,10,12,12],"right_children":[2,4,6,8,10,12,-1,-1,-1,-1,14,-1,16,-1,-1,-1,-1],"split_conditions":[1.2175182E2,6.9207317E-1,2.5E-1,5.7855785E-1,7.058824E-1,7.592593E-1,3.372491E-5,-1.7148452E-6,-3.0191133E-5,5.194113E-5,1.0801883E-1,2.1242672E-4,1.5341628E2,3.3288178E-4,2.5736364E-3,7.485033E-3,2.4376427E-4],"split_indices":[0,28,20,32,48,28,0,0,0,0,16,0,0,0,0,0,0],"split_type":[0,0,0,0,0,0,0,0,0,0,0,0,0,0,0,0,0],"sum_hessian":[4.87187E5,4.39701E5,4.7486E4,4.28556E5,1.1145E4,2.39E3,4.5096E4,3.50099E5,7.8457E4,1.049E4,6.55E2,2.382E3,8E0,6.31E2,2.4E1,2E0,6E0],"tree_param":{"num_deleted":"0","num_feature":"58","num_nodes":"17","size_leaf_vector":"1"}},{"base_weights":[-8.6806525E-5,-3.3456314E-4,6.680788E-5,2.4581174E-4,-2.63371E-5,1.6842913E-3,-5.1286174E-6,5.453895E-6,5.8925325E-5],"categories":[],"categories_nodes":[],"categories_segments":[],"categories_sizes":[],"default_left":[0,0,0,0,0,0,0,0,0],"id":60,"left_children":[1,3,-1,5,-1,7,-1,-1,-1],"loss_changes":[6.505177E-1,4.780496E-1,0E0,3.3060804E-1,0E0,4.103345E-1,0E0,0E0,0E0],"parents":[2147483647,0,0,1,1,3,3,5,5],"right_children":[2,4,-1,6,-1,8,-1,-1,-1],"split_conditions":[6.8E-1,2.8846154E-1,6.680788E-5,2E-1,-2.63371E-5,4E-1,-5.1286174E-6,5.453895E-6,5.8925325E-5],"split_indices":[27,51,0,42,0,39,0,0,0],"split_type":[0,0,0,0,0,0,0,0,0],"sum_hessian":[4.87584E5,4.66315E5,2.1269E4,3.50585E5,1.1573E5,1.09854E5,2.40731E5,7.7731E4,3.2123E4],"tree_param":{"num_deleted":"0","num_feature":"58","num_nodes":"9","size_leaf_vector":"1"}},{"base_weights":[3.225258E-6,-3.9183113E-4,3.6529605E-3,-5.372142E-4,5.758937E-3,1.8887373E-2,2.8367122E-3,-1.5419117E-5,1.1935869E-3,5.7285026E-5,3.8696956E-2,2.2493796E-4,2.3856255E-1,9.412027E-5,1.3586816E-3,6.176909E-5,2.7025033E-6,1.5073575E-3,2.3070342E-4,5.0144587E-3,-0E0,1.4716551E-5,7.1346835E-4],"categories":[],"categories_nodes":[],"categories_segments":[],"categories_sizes":[],"default_left":[0,0,0,0,0,0,0,0,0,0,0,0,0,0,0,0,0,0,0,0,0,0,0],"id":61,"left_children":[1,3,5,7,9,11,13,-1,15,-1,17,-1,19,-1,21,-1,-1,-1,-1,-1,-1,-1,-1],"loss_changes":[7.0382994E-1,3.9000756E-1,5.8148E-1,5.130709E-1,3.735755E-1,3.7523866E-1,3.071847E-1,0E0,4.4264168E-1,0E0,4.834442E-1,0E0,3.5697472E-1,0E0,3.2620475E-1,0E0,0E0,0E0,0E0,0E0,0E0,0E0,0E0],"parents":[2147483647,0,0,1,1,2,2,3,3,4,4,5,5,6,6,8,8,10,10,12,12,14,14],"right_children":[2,4,6,8,10,12,14,-1,16,-1,18,-1,20,-1,22,-1,-1,-1,-1,-1,-1,-1,-1],"split_conditions":[1.2175182E2,5.4054055E-4,2.5E-1,5.6841537E1,6.028572E-1,7.592593E-1,2E-1,-1.5419117E-5,2.5E-1,5.7285026E-5,-1.6666667E-1,2.2493796E-4,9.9771164E-2,9.412027E-5,7.7403843E-1,6.176909E-5,2.7025033E-6,1.5073575E-3,2.3070342E-4,5.0144587E-3,-0E0,1.4716551E-5,7.1346835E-4],"split_indices":[0,11,20,0,38,28,42,0,24,0,7,0,8,0,46,0,0,0,0,0,0,0,0],"split_type":[0,0,0,0,0,0,0,0,0,0,0,0,0,0,0,0,0,0,0,0,0,0,0],"sum_hessian":[4.8694E5,4.39249E5,4.7691E4,4.29191E5,1.0058E4,2.392E3,4.5299E4,3.06995E5,1.22196E5,9.721E3,3.37E2,2.384E3,8E0,1.0824E4,3.4475E4,2.5304E4,9.6892E4,6.2E1,2.75E2,5E0,3E0,3.4369E4,1.06E2],"tree_param":{"num_deleted":"0","num_feature":"58","num_nodes":"23","size_leaf_vector":"1"}},{"base_weights":[-6.993304E-5,-2.8030516E-4,6.3435845E-3,1.572024E-4,-3.189291E-5,5.8386184E-5,4.2487506E-2,-2.6057076E-6,3.412731E-3,-0E0,5.9815638E-2,1.4524563E-4,2.4504283E-5,1.1471516E-3,3.1109957E-4],"categories":[],"categories_nodes":[],"categories_segments":[],"categories_sizes":[],"default_left":[0,0,0,0,0,0,0,0,0,0,0,0,0,0,0],"id":62,"left_children":[1,3,5,7,-1,-1,9,-1,11,-1,13,-1,-1,-1,-1],"loss_changes":[6.551017E-1,4.6835464E-1,9.1885626E-1,4.7147647E-1,0E0,0E0,4.9377143E-1,0E0,4.69502E-1,0E0,4.67394E-1,0E0,0E0,0E0,0E0],"parents":[2147483647,0,0,1,1,2,2,3,3,6,6,8,8,10,10],"right_children":[2,4,6,8,-1,-1,10,-1,12,-1,14,-1,-1,-1,-1],"split_conditions":[6.9207317E-1,5.8898395E-1,7.288136E-1,1.18186905E2,-3.189291E-5,5.8386184E-5,5E-1,-2.6057076E-6,5E-1,-0E0,2E0,1.4524563E-4,2.4504283E-5,1.1471516E-3,3.1109957E-4],"split_indices":[28,32,48,0,0,0,43,0,20,0,21,0,0,0,0],"split_type":[0,0,0,0,0,0,0,0,0,0,0,0,0,0,0],"sum_hessian":[4.87929E5,4.72513E5,1.5416E4,3.95663E5,7.685E4,1.474E4,6.76E2,3.55657E5,4.0006E4,1.97E2,4.79E2,6.025E3,3.3981E4,2.44E2,2.35E2],"tree_param":{"num_deleted":"0","num_feature":"58","num_nodes":"15","size_leaf_vector":"1"}},{"base_weights":[-2.5623569E-5,-2.9231235E-4,5.794628E-3,-4.898097E-4,6.0208822E-5,5.9034774E-5,2.401178E-2,-1.140271E-5,1.2935485E-3,1.7620757E-2,1.01597175E-1,8.489944E-5,-5.4168436E-6,1.1221775E-4,8.237048E-4,8.8356016E-4,9.085696E-3],"categories":[],"categories_nodes":[],"categories_segments":[],"categories_sizes":[],"default_left":[0,0,0,0,0,0,0,0,0,0,0,0,0,0,0,0,0],"id":63,"left_children":[1,3,5,7,-1,-1,9,-1,11,13,15,-1,-1,-1,-1,-1,-1],"loss_changes":[7.532572E-1,4.6579313E-1,4.0816432E-1,3.3438155E-1,0E0,0E0,5.195215E-1,0E0,8.0474687E-1,4.1570643E-1,1.1855714E0,0E0,0E0,0E0,0E0,0E0,0E0],"parents":[2147483647,0,0,1,1,2,2,3,3,6,6,8,8,9,9,10,10],"right_children":[2,4,6,8,-1,-1,10,-1,12,14,16,-1,-1,-1,-1,-1,-1],"split_conditions":[6.8E-1,1.569179E2,6.879121E-1,7.971675E1,6.0208822E-5,5.9034774E-5,8.2011765E-1,-1.140271E-5,6E-1,4.4444445E-1,1.9794962E-1,8.489944E-5,-5.4168436E-6,1.1221775E-4,8.237048E-4,8.8356016E-4,9.085696E-3],"split_indices":[27,0,47,0,0,0,52,0,20,56,35,0,0,0,0,0,0],"split_type":[0,0,0,0,0,0,0,0,0,0,0,0,0,0,0,0,0],"sum_hessian":[4.8717E5,4.65913E5,2.1257E4,4.48601E5,1.7312E4,2.0081E4,1.176E3,3.63624E5,8.4977E4,1.093E3,8.3E1,2.0454E4,6.4523E4,9.35E2,1.58E2,8E1,3E0],"tree_param":{"num_deleted":"0","num_feature":"58","num_nodes":"17","size_leaf_vector":"1"}},{"base_weights":[4.1229756E-5,-1.9274357E-4,5.210518E-3,-5.0025235E-4,2.6762926E-3,4.8142825E-5,1.6572582E-2,-2.5383179E-6,-2.5349833E-5,1.4685186E-4,1.3351876E-5,-2.6210491E-5,2.7134536E-2,-5.2041455E-6,3.328958E-5,9.706132E-5,5.2430725E-4],"categories":[],"categories_nodes":[],"categories_segments":[],"categories_sizes":[],"default_left":[0,0,0,0,0,0,0,0,0,0,0,0,0,0,0,0,0],"id":64,"left_children":[1,3,5,7,9,-1,11,13,-1,-1,-1,-1,15,-1,-1,-1,-1],"loss_changes":[5.9147453E-1,4.096627E-1,3.204369E-1,3.1689644E-1,6.4649284E-1,0E0,4.5620686E-1,3.4542015E-1,0E0,0E0,0E0,0E0,3.858348E-1,0E0,0E0,0E0,0E0],"parents":[2147483647,0,0,1,1,2,2,3,3,4,4,6,6,7,7,12,12],"right_children":[2,4,6,8,10,-1,12,14,-1,-1,-1,-1,16,-1,-1,-1,-1],"split_conditions":[6.8E-1,1.18186905E2,6.557377E-1,5.882353E-2,5E-1,4.8142825E-5,6E-1,7.971675E1,-2.5349833E-5,1.4685186E-4,1.3351876E-5,-2.6210491E-5,5E-1,-5.2041455E-6,3.328958E-5,9.706132E-5,5.2430725E-4],"split_indices":[27,0,47,56,20,0,42,0,0,0,0,0,45,0,0,0,0],"split_type":[0,0,0,0,0,0,0,0,0,0,0,0,0,0,0,0,0],"sum_hessian":[4.86827E5,4.65648E5,2.1179E4,4.20738E5,4.491E4,1.8932E4,2.247E3,3.17137E5,1.03601E5,6.764E3,3.8146E4,7.94E2,1.453E3,2.74698E5,4.2439E4,6.4E2,8.13E2],"tree_param":{"num_deleted":"0","num_feature":"58","num_nodes":"17","size_leaf_vector":"1"}},{"base_weights":[2.3651266E-5,-1.8645612E-4,7.308195E-5,-2.818251E-4,1.1584687E-2,-4.187939E-4,6.95838E-5,1.1878841E-4,6.955372E-2,5.537602E-8,-2.8596882E-5,7.219054E-5,2.065409E-3],"categories":[],"categories_nodes":[],"categories_segments":[],"categories_sizes":[],"default_left":[0,0,0,0,0,0,0,0,0,0,0,0,0],"id":65,"left_children":[1,3,-1,5,7,9,-1,-1,11,-1,-1,-1,-1],"loss_changes":[5.963272E-1,5.217039E-1,0E0,3.6922207E-1,4.1778398E-1,3.596381E-1,0E0,0E0,6.551541E-1,0E0,0E0,0E0,0E0],"parents":[2147483647,0,0,1,1,3,3,4,4,5,5,8,8],"right_children":[2,4,-1,6,8,10,-1,-1,12,-1,-1,-1,-1],"split_conditions":[1.648671E2,7.532467E-1,7.308195E-5,9.966778E-3,8.333333E-1,5.7855785E-1,6.95838E-5,1.1878841E-4,6.666667E-1,5.537602E-8,-2.8596882E-5,7.219054E-5,2.065409E-3],"split_indices":[0,48,0,11,55,32,0,0,24,0,0,0,0],"split_type":[0,0,0,0,0,0,0,0,0,0,0,0,0],"sum_hessian":[4.87214E5,4.70082E5,1.7132E4,4.66349E5,3.733E3,4.55721E5,1.0628E4,3.61E3,1.23E2,3.70961E5,8.476E4,7.7E1,4.6E1],"tree_param":{"num_deleted":"0","num_feature":"58","num_nodes":"13","size_leaf_vector":"1"}},{"base_weights":[-2.3572706E-5,-7.5621536E-4,2.4129646E-3,-1.0920864E-5,9.029693E-5,7.239944E-3,1.1672658E-3,1.280368E-4,1.5978023E-5,1.20372395E-4,6.5018947E-4,2.3184939E-5,-3.0315801E-5],"categories":[],"categories_nodes":[],"categories_segments":[],"categories_sizes":[],"default_left":[0,0,0,0,0,0,0,0,0,0,0,0,0],"id":66,"left_children":[1,3,5,-1,-1,7,9,-1,-1,-1,11,-1,-1],"loss_changes":[8.694378E-1,3.3472317E-1,6.7223287E-1,0E0,0E0,3.9959323E-1,3.8433087E-1,0E0,0E0,0E0,3.091235E-1,0E0,0E0],"parents":[2147483647,0,0,1,1,2,2,5,5,6,6,10,10],"right_children":[2,4,6,-1,-1,8,10,-1,-1,-1,12,-1,-1],"split_conditions":[7.971675E1,7.1428573E-1,3.3333334E-1,-1.0920864E-5,9.029693E-5,8E-1,2E-1,1.280368E-4,1.5978023E-5,1.20372395E-4,5E-1,2.3184939E-5,-3.0315801E-5],"split_indices":[0,28,23,0,0,24,24,0,0,0,1,0,0],"split_type":[0,0,0,0,0,0,0,0,0,0,0,0,0],"sum_hessian":[4.87543E5,3.75002E5,1.12541E5,3.6979E5,5.212E3,2.2998E4,8.9543E4,1.532E4,7.678E3,5.122E3,8.4421E4,6.0845E4,2.3576E4],"tree_param":{"num_deleted":"0","num_feature":"58","num_nodes":"13","size_leaf_vector":"1"}},{"base_weights":[4.379479E-5,-1.7460324E-4,6.093434E-5,-3.919221E-6,5.683305E-3,6.119642E-5,4.3714654E-2,3.3362207E-4,4.066674E-3],"categories":[],"categories_nodes":[],"categories_segments":[],"categories_sizes":[],"default_left":[0,0,0,0,0,0,0,0,0],"id":67,"left_children":[1,3,-1,-1,5,-1,7,-1,-1],"loss_changes":[5.1382416E-1,3.7219042E-1,0E0,0E0,3.0037567E-1,0E0,8.073789E-1,0E0,0E0],"parents":[2147483647,0,0,1,1,4,4,6,6],"right_children":[2,4,-1,-1,6,-1,8,-1,-1],"split_conditions":[6.8E-1,5.4054055E-4,6.093434E-5,-3.919221E-6,6.5833336E-1,6.119642E-5,8.052999E-1,3.3362207E-4,4.066674E-3],"split_indices":[27,11,0,0,38,0,33,0,0],"split_type":[0,0,0,0,0,0,0,0,0],"sum_hessian":[4.86899E5,4.6564E5,2.1259E4,4.5505E5,1.059E4,1.0383E4,2.07E2,1.97E2,1E1],"tree_param":{"num_deleted":"0","num_feature":"58","num_nodes":"9","size_leaf_vector":"1"}},{"base_weights":[7.3130927E-6,-1.746367E-4,6.389637E-3,2.687823E-6,-2.7231858E-5,6.25846E-5,3.463013E-2,2.577097E-2,1.2187541E-1,1.249359E-3,1.7293227E-4,-0E0,4.1134395E-3],"categories":[],"categories_nodes":[],"categories_segments":[],"categories_sizes":[],"default_left":[0,0,0,0,0,0,0,0,0,0,0,0,0],"id":68,"left_children":[1,3,5,-1,-1,-1,7,9,11,-1,-1,-1,-1],"loss_changes":[5.6898123E-1,3.6802754E-1,5.1817244E-1,0E0,0E0,0E0,4.049725E-1,4.4746047E-1,1.1725292E0,0E0,0E0,0E0,0E0],"parents":[2147483647,0,0,1,1,2,2,6,6,7,7,8,8],"right_children":[2,4,6,-1,-1,-1,8,10,12,-1,-1,-1,-1],"split_conditions":[6.9736844E-1,5.8898395E-1,7.288136E-1,2.687823E-6,-2.7231858E-5,6.25846E-5,7.307571E-1,5E-1,7.84E-1,1.249359E-3,1.7293227E-4,-0E0,4.1134395E-3],"split_indices":[28,32,48,0,0,0,50,20,27,0,0,0,0],"split_type":[0,0,0,0,0,0,0,0,0,0,0,0,0],"sum_hessian":[4.87121E5,4.73538E5,1.3583E4,3.96066E5,7.7472E4,1.2957E4,6.26E2,5.74E2,5.2E1,7.4E1,5E2,3.4E1,1.8E1],"tree_param":{"num_deleted":"0","num_feature":"58","num_nodes":"13","size_leaf_vector":"1"}},{"base_weights":[-6.501319E-6,-2.4060428E-4,5.0845104E-3,-3.8083596E-4,7.213813E-5,5.326025E-5,2.2444155E-2,-6.467274E-4,2.958156E-5,1.4702232E-2,8.860612E-2,7.241137E-6,-1.7127975E-5,7.465711E-5,7.490785E-4,2.1760014E-3,-0E0],"categories":[],"categories_nodes":[],"categories_segments":[],"categories_sizes":[],"default_left":[0,0,0,0,0,0,0,0,0,0,0,0,0,0,0,0,0],"id":69,"left_children":[1,3,5,7,-1,-1,9,11,-1,13,15,-1,-1,-1,-1,-1,-1],"loss_changes":[5.7798976E-1,3.8810834E-1,2.9780656E-1,3.3032557E-1,0E0,0E0,4.3564513E-1,3.6463565E-1,0E0,3.0560052E-1,7.744282E-1,0E0,0E0,0E0,0E0,0E0,0E0],"parents":[2147483647,0,0,1,1,2,2,3,3,6,6,7,7,9,9,10,10],"right_children":[2,4,6,8,-1,-1,