{"learner":{"attributes":{"best_iteration":"999","best_score":"0.5236226037510853"},"feature_names":["winner_elo","loser_elo","elo_diff","height_diff","winner_win_rate_20","loser_win_rate_20","winner_win_rate_Hard_20","loser_win_rate_Hard_20","winner_win_rate_Carpet_20","loser_win_rate_Carpet_20","winner_win_rate_Clay_20","loser_win_rate_Clay_20","winner_win_rate_Grass_20","loser_win_rate_Grass_20","winner_win_rate_ATP_50","loser_win_rate_ATP_50","winner_win_rate_Challenger_50","loser_win_rate_Challenger_50","winner_win_rate_Grand Slam_50","loser_win_rate_Grand Slam_50","winner_win_rate_Davis Cup_50","loser_win_rate_Davis Cup_50","winner_win_rate_Masters_50","loser_win_rate_Masters_50","winner_win_rate_Tour Final_50","loser_win_rate_Tour Final_50","winner_win_rate_Other_50","loser_win_rate_Other_50","win_rate_20_diff","win_rate_Hard_20_diff","win_rate_Carpet_20_diff","win_rate_Clay_20_diff","win_rate_Grass_20_diff","win_rate_ATP_50_diff","win_rate_Challenger_50_diff","win_rate_Grand Slam_50_diff","win_rate_Davis Cup_50_diff","win_rate_Masters_50_diff","win_rate_Tour Final_50_diff","win_rate_Other_50_diff"],"feature_types":[],"gradient_booster":{"model":{"gbtree_model_param":{"num_parallel_tree":"1","num_trees":"1000"},"iteration_indptr":[0,1,2,3,4,5,6,7,8,9,10,11,12,13,14,15,16,17,18,19,20,21,22,23,24,25,26,27,28,29,30,31,32,33,34,35,36,37,38,39,40,41,42,43,44,45,46,47,48,49,50,51,52,53,54,55,56,57,58,59,60,61,62,63,64,65,66,67,68,69,70,71,72,73,74,75,76,77,78,79,80,81,82,83,84,85,86,87,88,89,90,91,92,93,94,95,96,97,98,99,100,101,102,103,104,105,106,107,108,109,110,111,112,113,114,115,116,117,118,119,120,121,122,123,124,125,126,127,128,129,130,131,132,133,134,135,136,137,138,139,140,141,142,143,144,145,146,147,148,149,150,151,152,153,154,155,156,157,158,159,160,161,162,163,164,165,166,167,168,169,170,171,172,173,174,175,176,177,178,179,180,181,182,183,184,185,186,187,188,189,190,191,192,193,194,195,196,197,198,199,200,201,202,203,204,205,206,207,208,209,210,211,212,213,214,215,216,217,218,219,220,221,222,223,224,225,226,227,228,229,230,231,232,233,234,235,236,237,238,239,240,241,242,243,244,245,246,247,248,249,250,251,252,253,254,255,256,257,258,259,260,261,262,263,264,265,266,267,268,269,270,271,272,273,274,275,276,277,278,279,280,281,282,283,284,285,286,287,288,289,290,291,292,293,294,295,296,297,298,299,300,301,302,303,304,305,306,307,308,309,310,311,312,313,314,315,316,317,318,319,320,321,322,323,324,325,326,327,328,329,330,331,332,333,334,335,336,337,338,339,340,341,342,343,344,345,346,347,348,349,350,351,352,353,354,355,356,357,358,359,360,361,362,363,364,365,366,367,368,369,370,371,372,373,374,375,376,377,378,379,380,381,382,383,384,385,386,387,388,389,390,391,392,393,394,395,396,397,398,399,400,401,402,403,404,405,406,407,408,409,410,411,412,413,414,415,416,417,418,419,420,421,422,423,424,425,426,427,428,429,430,431,432,433,434,435,436,437,438,439,440,441,442,443,444,445,446,447,448,449,450,451,452,453,454,455,456,457,458,459,460,461,462,463,464,465,466,467,468,469,470,471,472,473,474,475,476,477,478,479,480,481,482,483,484,485,486,487,488,489,490,491,492,493,494,495,496,497,498,499,500,501,502,503,504,505,506,507,508,509,510,511,512,513,514,515,516,517,518,519,520,521,522,523,524,525,526,527,528,529,530,531,532,533,534,535,536,537,538,539,540,541,542,543,544,545,546,547,548,549,550,551,552,553,554,555,556,557,558,559,560,561,562,563,564,565,566,567,568,569,570,571,572,573,574,575,576,577,578,579,580,581,582,583,584,585,586,587,588,589,590,591,592,593,594,595,596,597,598,599,600,601,602,603,604,605,606,607,608,609,610,611,612,613,614,615,616,617,618,619,620,621,622,623,624,625,626,627,628,629,630,631,632,633,634,635,636,637,638,639,640,641,642,643,644,645,646,647,648,649,650,651,652,653,654,655,656,657,658,659,660,661,662,663,664,665,666,667,668,669,670,671,672,673,674,675,676,677,678,679,680,681,682,683,684,685,686,687,688,689,690,691,692,693,694,695,696,697,698,699,700,701,702,703,704,705,706,707,708,709,710,711,712,713,714,715,716,717,718,719,720,721,722,723,724,725,726,727,728,729,730,731,732,733,734,735,736,737,738,739,740,741,742,743,744,745,746,747,748,749,750,751,752,753,754,755,756,757,758,759,760,761,762,763,764,765,766,767,768,769,770,771,772,773,774,775,776,777,778,779,780,781,782,783,784,785,786,787,788,789,790,791,792,793,794,795,796,797,798,799,800,801,802,803,804,805,806,807,808,809,810,811,812,813,814,815,816,817,818,819,820,821,822,823,824,825,826,827,828,829,830,831,832,833,834,835,836,837,838,839,840,841,842,843,844,845,846,847,848,849,850,851,852,853,854,855,856,857,858,859,860,861,862,863,864,865,866,867,868,869,870,871,872,873,874,875,876,877,878,879,880,881,882,883,884,885,886,887,888,889,890,891,892,893,894,895,896,897,898,899,900,901,902,903,904,905,906,907,908,909,910,911,912,913,914,915,916,917,918,919,920,921,922,923,924,925,926,927,928,929,930,931,932,933,934,935,936,937,938,939,940,941,942,943,944,945,946,947,948,949,950,951,952,953,954,955,956,957,958,959,960,961,962,963,964,965,966,967,968,969,970,971,972,973,974,975,976,977,978,979,980,981,982,983,984,985,986,987,988,989,990,991,992,993,994,995,996,997,998,999,1000],"tree_info":[0,0,0,0,0,0,0,0,0,0,0,0,0,0,0,0,0,0,0,0,0,0,0,0,0,0,0,0,0,0,0,0,0,0,0,0,0,0,0,0,0,0,0,0,0,0,0,0,0,0,0,0,0,0,0,0,0,0,0,0,0,0,0,0,0,0,0,0,0,0,0,0,0,0,0,0,0,0,0,0,0,0,0,0,0,0,0,0,0,0,0,0,0,0,0,0,0,0,0,0,0,0,0,0,0,0,0,0,0,0,0,0,0,0,0,0,0,0,0,0,0,0,0,0,0,0,0,0,0,0,0,0,0,0,0,0,0,0,0,0,0,0,0,0,0,0,0,0,0,0,0,0,0,0,0,0,0,0,0,0,0,0,0,0,0,0,0,0,0,0,0,0,0,0,0,0,0,0,0,0,0,0,0,0,0,0,0,0,0,0,0,0,0,0,0,0,0,0,0,0,0,0,0,0,0,0,0,0,0,0,0,0,0,0,0,0,0,0,0,0,0,0,0,0,0,0,0,0,0,0,0,0,0,0,0,0,0,0,0,0,0,0,0,0,0,0,0,0,0,0,0,0,0,0,0,0,0,0,0,0,0,0,0,0,0,0,0,0,0,0,0,0,0,0,0,0,0,0,0,0,0,0,0,0,0,0,0,0,0,0,0,0,0,0,0,0,0,0,0,0,0,0,0,0,0,0,0,0,0,0,0,0,0,0,0,0,0,0,0,0,0,0,0,0,0,0,0,0,0,0,0,0,0,0,0,0,0,0,0,0,0,0,0,0,0,0,0,0,0,0,0,0,0,0,0,0,0,0,0,0,0,0,0,0,0,0,0,0,0,0,0,0,0,0,0,0,0,0,0,0,0,0,0,0,0,0,0,0,0,0,0,0,0,0,0,0,0,0,0,0,0,0,0,0,0,0,0,0,0,0,0,0,0,0,0,0,0,0,0,0,0,0,0,0,0,0,0,0,0,0,0,0,0,0,0,0,0,0,0,0,0,0,0,0,0,0,0,0,0,0,0,0,0,0,0,0,0,0,0,0,0,0,0,0,0,0,0,0,0,0,0,0,0,0,0,0,0,0,0,0,0,0,0,0,0,0,0,0,0,0,0,0,0,0,0,0,0,0,0,0,0,0,0,0,0,0,0,0,0,0,0,0,0,0,0,0,0,0,0,0,0,0,0,0,0,0,0,0,0,0,0,0,0,0,0,0,0,0,0,0,0,0,0,0,0,0,0,0,0,0,0,0,0,0,0,0,0,0,0,0,0,0,0,0,0,0,0,0,0,0,0,0,0,0,0,0,0,0,0,0,0,0,0,0,0,0,0,0,0,0,0,0,0,0,0,0,0,0,0,0,0,0,0,0,0,0,0,0,0,0,0,0,0,0,0,0,0,0,0,0,0,0,0,0,0,0,0,0,0,0,0,0,0,0,0,0,0,0,0,0,0,0,0,0,0,0,0,0,0,0,0,0,0,0,0,0,0,0,0,0,0,0,0,0,0,0,0,0,0,0,0,0,0,0,0,0,0,0,0,0,0,0,0,0,0,0,0,0,0,0,0,0,0,0,0,0,0,0,0,0,0,0,0,0,0,0,0,0,0,0,0,0,0,0,0,0,0,0,0,0,0,0,0,0,0,0,0,0,0,0,0,0,0,0,0,0,0,0,0,0,0,0,0,0,0,0,0,0,0,0,0,0,0,0,0,0,0,0,0,0,0,0,0,0,0,0,0,0,0,0,0,0,0,0,0,0,0,0,0,0,0,0,0,0,0,0,0,0,0,0,0,0,0,0,0,0,0,0,0,0,0,0,0,0,0,0,0,0,0,0,0,0,0,0,0,0,0,0,0,0,0,0,0,0,0,0,0,0,0,0,0,0,0,0,0,0,0,0,0,0,0,0,0,0,0,0,0,0,0,0,0,0,0,0,0,0,0,0,0,0,0,0,0,0,0,0,0,0,0,0,0,0,0,0,0,0,0,0,0,0,0,0,0,0,0,0,0,0,0,0,0,0,0,0,0,0,0,0,0,0,0,0,0,0,0,0,0,0,0,0,0,0,0,0,0,0,0,0,0,0,0,0,0,0,0,0,0,0,0,0,0,0,0,0,0,0,0,0,0,0,0,0,0,0,0,0,0,0,0,0,0,0,0,0,0,0,0,0,0,0,0,0,0,0,0,0,0,0,0,0,0,0,0,0,0,0,0,0,0,0,0,0,0,0,0,0,0,0,0,0,0,0,0,0,0,0,0,0,0,0],"trees":[{"base_weights":[-2.0462938E-3,-9.144883E-1,7.6342344E-1,-1.4149927E0,-5.1495916E-1,3.789469E-1,1.405856E0,-1.7895558E0,-1.2142215E0,-6.1790097E-1,-1.4648997E-2,1.3258408E-1,6.7000574E-1,1.2059743E0,1.7837796E0,-5.988792E-2,-5.0200954E-2,-3.9518796E-2,-2.6158568E-2,-2.2467485E-2,-1.099672E-2,5.9347367E-3,-7.0811403E-3,-1.0567592E-2,7.277769E-3,8.645819E-3,2.3317976E-2,2.6325038E-2,3.918252E-2,5.9887815E-2,4.9917273E-2],"categories":[],"categories_nodes":[],"categories_segments":[],"categories_sizes":[],"default_left":[0,0,0,0,0,0,0,0,0,0,0,0,0,0,0,0,0,0,0,0,0,0,0,0,0,0,0,0,0,0,0],"id":0,"left_children":[1,3,5,7,9,11,13,15,17,19,21,23,25,27,29,-1,-1,-1,-1,-1,-1,-1,-1,-1,-1,-1,-1,-1,-1,-1,-1],"loss_changes":[4.502119E4,5.879383E3,8.657266E3,9.7913086E2,8.4223096E2,1.5723625E3,9.8888086E2,1.0563867E2,2.9854102E2,4.4625732E2,1.3138428E2,6.336271E2,4.113623E2,2.809961E2,1.1188379E2,0E0,0E0,0E0,0E0,0E0,0E0,0E0,0E0,0E0,0E0,0E0,0E0,0E0,0E0,0E0,0E0],"parents":[2147483647,0,0,1,1,2,2,3,3,4,4,5,5,6,6,7,7,8,8,9,9,10,10,11,11,12,12,13,13,14,14],"right_children":[2,4,6,8,10,12,14,16,18,20,22,24,26,28,30,-1,-1,-1,-1,-1,-1,-1,-1,-1,-1,-1,-1,-1,-1,-1,-1],"split_conditions":[2.6457077E-5,-7.485974E-1,7.486503E-1,-1.3739185E0,3.436459E-1,3.2086524E-1,1.3739715E0,-2.424363E0,-1.9806248E-1,-2.2456077E-1,2.0821084E-1,-4.9178368E-1,-1.3747138E-1,1.9803897E-1,-2.3700778E0,-5.988792E-2,-5.0200954E-2,-3.9518796E-2,-2.6158568E-2,-2.2467485E-2,-1.099672E-2,5.9347367E-3,-7.0811403E-3,-1.0567592E-2,7.277769E-3,8.645819E-3,2.3317976E-2,2.6325038E-2,3.918252E-2,5.9887815E-2,4.9917273E-2],"split_indices":[28,28,28,28,2,28,28,4,2,28,17,2,2,2,5,0,0,0,0,0,0,0,0,0,0,0,0,0,0,0,0],"split_type":[0,0,0,0,0,0,0,0,0,0,0,0,0,0,0,0,0,0,0,0,0,0,0,0,0,0,0,0,0,0,0],"sum_hessian":[6.4457E4,2.94055E4,3.50515E4,1.3052E4,1.63535E4,2.192925E4,1.312225E4,4.55175E3,8.50025E3,1.35625E4,2.791E3,1.18775E4,1.005175E4,8.58575E3,4.5365E3,1.63175E3,2.92E3,6.5305E3,1.96975E3,8.91375E3,4.64875E3,1.424E3,1.367E3,2.196E3,9.6815E3,2.2055E3,7.84625E3,2.008E3,6.57775E3,1.63025E3,2.90625E3],"tree_param":{"num_deleted":"0","num_feature":"40","num_nodes":"31","size_leaf_vector":"1"}},{"base_weights":[3.4503895E-3,-6.687043E-1,6.4530945E-1,-1.1082811E0,-3.243963E-1,3.03641E-1,1.1019248E0,-1.5945951E0,-9.0367866E-1,-4.7383845E-1,3.9918092E-1,-4.2341104E-1,4.5728216E-1,1.594698E0,8.9823383E-1,-5.673048E-2,-4.1542932E-2,-1.3824069E-2,-3.4928955E-2,-1.9416945E-2,1.318337E-2,5.67736E-3,2.43272E-2,-2.972349E-2,-7.5384243E-3,-1.3279967E-2,1.90582E-2,5.753429E-2,4.20091E-2,1.3812101E-2,3.4799073E-2],"categories":[],"categories_nodes":[],"categories_segments":[],"categories_sizes":[],"default_left":[0,0,0,0,0,0,0,0,0,0,0,0,0,0,0,0,0,0,0,0,0,0,0,0,0,0,0,0,0,0,0],"id":1,"left_children":[1,3,5,7,9,11,13,15,17,19,21,23,25,27,29,-1,-1,-1,-1,-1,-1,-1,-1,-1,-1,-1,-1,-1,-1,-1,-1],"loss_changes":[2.7846795E4,4.7713496E3,5.1505303E3,1.3761875E3,1.9121766E3,2.1099788E3,1.4166816E3,2.5202539E2,1.1246138E3,2.3211235E3,2.6140225E2,3.214563E2,2.4979858E3,2.5647852E2,1.1453208E3,0E0,0E0,0E0,0E0,0E0,0E0,0E0,0E0,0E0,0E0,0E0,0E0,0E0,0E0,0E0,0E0],"parents":[2147483647,0,0,1,1,2,2,3,3,4,4,5,5,6,6,7,7,8,8,9,9,10,10,11,11,12,12,13,13,14,14],"right_children":[2,4,6,8,10,12,14,16,18,20,22,24,26,28,30,-1,-1,-1,-1,-1,-1,-1,-1,-1,-1,-1,-1,-1,-1,-1,-1],"split_conditions":[-2.5217313E-2,-7.102268E-1,6.9773316E-1,-1.0807853E0,9.948244E-2,-9.478094E-2,-1.1004711E0,-2.048337E0,6.1723185E-1,9.7331956E-2,8.30977E-1,-1.1120856E0,-1.5159635E-1,-2.1709237E0,6.172685E-1,-5.673048E-2,-4.1542932E-2,-1.3824069E-2,-3.4928955E-2,-1.9416945E-2,1.318337E-2,5.67736E-3,2.43272E-2,-2.972349E-2,-7.5384243E-3,-1.3279967E-2,1.90582E-2,5.753429E-2,4.20091E-2,1.3812101E-2,3.4799073E-2],"split_indices":[2,2,2,4,29,29,5,4,5,31,29,29,31,5,4,0,0,0,0,0,0,0,0,0,0,0,0,0,0,0,0],"split_type":[0,0,0,0,0,0,0,0,0,0,0,0,0,0,0,0,0,0,0,0,0,0,0,0,0,0,0,0,0,0,0],"sum_hessian":[6.4543555E4,3.1527629E4,3.3015926E4,1.384687E4,1.768076E4,1.8886064E4,1.4129861E4,4.0983438E3,9.748526E3,1.4654595E4,3.026165E3,3.2943445E3,1.5591721E4,4.1303403E3,9.999521E3,1.6951587E3,2.403185E3,3.6126436E3,6.135883E3,1.2316605E4,2.3379888E3,2.005354E3,1.02081104E3,7.6556586E2,2.5287786E3,2.5741946E3,1.3017525E4,1.5479866E3,2.5823535E3,3.7423926E3,6.257129E3],"tree_param":{"num_deleted":"0","num_feature":"40","num_nodes":"31","size_leaf_vector":"1"}},{"base_weights":[-1.1642763E-3,-7.181387E-1,8.7800497E-1,-1.3339823E0,-3.515364E-1,4.9859852E-1,1.3392131E0,-1.6940746E0,-1.1441898E0,-6.2905806E-1,-1.1798074E-1,-2.3802007E-2,5.7712644E-1,1.0878904E0,1.6089942E0,-5.6821134E-2,-4.7461834E-2,-3.715445E-2,-2.5035461E-2,-2.1005442E-2,-3.2658596E-3,-6.6884942E-3,1.0055537E-2,-8.094697E-3,7.29634E-3,1.04337055E-2,2.0998796E-2,2.047886E-2,3.4568723E-2,4.3545965E-2,5.336598E-2],"categories":[],"categories_nodes":[],"categories_segments":[],"categories_sizes":[],"default_left":[0,0,0,0,0,0,0,0,0,0,0,0,0,0,0,0,0,0,0,0,0,0,0,0,0,0,0,0,0,0,0],"id":2,"left_children":[1,3,5,7,9,11,13,15,17,19,21,23,25,27,29,-1,-1,-1,-1,-1,-1,-1,-1,-1,-1,-1,-1,-1,-1,-1,-1],"loss_changes":[4.0695387E4,8.0278926E3,5.073744E3,9.046289E2,1.4447847E3,6.528613E2,8.8539453E2,9.91875E1,2.5258008E2,3.767422E2,5.759542E2,1.3672142E2,3.8934473E2,1.759624E2,1.6588086E2,0E0,0E0,0E0,0E0,0E0,0E0,0E0,0E0,0E0,0E0,0E0,0E0,0E0,0E0,0E0,0E0],"parents":[2147483647,0,0,1,1,2,2,3,3,4,4,5,5,6,6,7,7,8,8,9,9,10,10,11,11,12,12,13,13,14,14],"right_children":[2,4,6,8,10,12,14,16,18,20,22,24,26,28,30,-1,-1,-1,-1,-1,-1,-1,-1,-1,-1,-1,-1,-1,-1,-1,-1],"split_conditions":[1.6044593E-1,-6.737352E-1,7.486503E-1,-1.3474965E0,-2.2456077E-1,-4.6097568E-1,1.272687E0,-2.370048E0,-1.9806248E-1,4.211694E-1,4.920766E-1,4.9250573E-2,3.2086524E-1,-1.0246853E-1,1.6333877E0,-5.6821134E-2,-4.7461834E-2,-3.715445E-2,-2.5035461E-2,-2.1005442E-2,-3.2658596E-3,-6.6884942E-3,1.0055537E-2,-8.094697E-3,7.29634E-3,1.04337055E-2,2.0998796E-2,2.047886E-2,3.4568723E-2,4.3545965E-2,5.336598E-2],"split_indices":[28,28,28,28,28,2,28,4,2,2,2,16,28,2,28,0,0,0,0,0,0,0,0,0,0,0,0,0,0,0,0],"split_type":[0,0,0,0,0,0,0,0,0,0,0,0,0,0,0,0,0,0,0,0,0,0,0,0,0,0,0,0,0,0,0],"sum_hessian":[6.4558836E4,3.555971E4,2.8999127E4,1.3268114E4,2.2291596E4,1.5911802E4,1.3087326E4,4.5765664E3,8.691548E3,1.0185998E4,1.2105597E4,2.0792427E3,1.3832559E4,6.77825E3,6.3090767E3,1.6371573E3,2.939409E3,6.660261E3,2.0312867E3,8.960362E3,1.2256362E3,9.829473E3,2.2761238E3,1.0823495E3,9.968931E2,4.826283E3,9.006275E3,9.3124097E2,5.847009E3,3.2793918E3,3.0296846E3],"tree_param":{"num_deleted":"0","num_feature":"40","num_nodes":"31","size_leaf_vector":"1"}},{"base_weights":[-1.952518E-3,-6.977682E-1,8.5069776E-1,-1.2935456E0,-3.4353033E-1,4.7555822E-1,1.3024815E0,-1.5491756E0,-1.0402503E0,-6.128601E-1,-1.1559033E-1,5.5182762E-2,5.711831E-1,1.1177334E0,1.649335E0,-5.5440348E-2,-4.3326404E-2,-3.325967E-2,-1.8406127E-2,-2.142607E-2,-7.15683E-3,-6.4866496E-3,9.439348E-3,-1.642088E-2,3.7758914E-3,1.3652344E-2,2.4458526E-2,2.0516047E-2,3.541329E-2,5.5459533E-2,4.61362E-2],"categories":[],"categories_nodes":[],"categories_segments":[],"categories_sizes":[],"default_left":[0,0,0,0,0,0,0,0,0,0,0,0,0,0,0,0,0,0,0,0,0,0,0,0,0,0,0,0,0,0,0],"id":3,"left_children":[1,3,5,7,9,11,13,15,17,19,21,23,25,27,29,-1,-1,-1,-1,-1,-1,-1,-1,-1,-1,-1,-1,-1,-1,-1,-1],"loss_changes":[3.819031E4,7.480006E3,4.901541E3,8.538789E2,1.3645815E3,6.352368E2,8.3871484E2,2.0325293E2,1.9301367E2,3.862434E2,5.214013E2,1.24820724E2,3.6441455E2,2.320293E2,9.807617E1,0E0,0E0,0E0,0E0,0E0,0E0,0E0,0E0,0E0,0E0,0E0,0E0,0E0,0E0,0E0,0E0],"parents":[2147483647,0,0,1,1,2,2,3,3,4,4,5,5,6,6,7,7,8,8,9,9,10,10,11,11,12,12,13,13,14,14],"right_children":[2,4,6,8,10,12,14,16,18,20,22,24,26,28,30,-1,-1,-1,-1,-1,-1,-1,-1,-1,-1,-1,-1,-1,-1,-1,-1],"split_conditions":[1.6044593E-1,-6.737352E-1,7.486503E-1,-1.1229095E0,-2.2456077E-1,-2.9699633E-1,1.3739715E0,-2.5079243E0,1.025763E-1,1.5497197E-1,4.920766E-1,-6.475641E-1,4.99109E-1,-1.0246853E-1,-2.4243925E0,-5.5440348E-2,-4.3326404E-2,-3.325967E-2,-1.8406127E-2,-2.142607E-2,-7.15683E-3,-6.4866496E-3,9.439348E-3,-1.642088E-2,3.7758914E-3,1.3652344E-2,2.4458526E-2,2.0516047E-2,3.541329E-2,5.5459533E-2,4.61362E-2],"split_indices":[28,28,28,28,28,2,28,4,2,2,2,33,28,2,5,0,0,0,0,0,0,0,0,0,0,0,0,0,0,0,0],"split_type":[0,0,0,0,0,0,0,0,0,0,0,0,0,0,0,0,0,0,0,0,0,0,0,0,0,0,0,0,0,0,0],"sum_hessian":[6.4368695E4,3.5444266E4,2.8924428E4,1.3215221E4,2.2229045E4,1.5803901E4,1.3120526E4,6.5745547E3,6.6406655E3,1.0188441E4,1.20406045E4,2.9292559E3,1.28746455E4,8.563678E3,4.556848E3,1.7044066E3,4.8701484E3,5.721613E3,9.1905286E2,8.0167227E3,2.171719E3,9.758772E3,2.2818313E3,3.0667865E2,2.6225771E3,8.72699E3,4.147656E3,1.0831642E3,7.480514E3,1.6284197E3,2.9284285E3],"tree_param":{"num_deleted":"0","num_feature":"40","num_nodes":"31","size_leaf_vector":"1"}},{"base_weights":[1.4351512E-3,-5.4560757E-1,3.7545356E-1,3.9828077E-1,-8.250551E-1,8.535484E-1,-1.3977702E-1,-1.7555611E0,5.966886E-1,-1.3107145E0,-5.92466E-1,1.419945E0,6.833933E-1,-3.4800234E-1,5.32621E-1,4.808173E-2,-5.377773E-2,4.8593104E-2,9.025218E-3,-5.1788013E-2,-3.400534E-2,-6.1857696E-3,-2.7617732E-2,5.2415006E-2,3.837237E-2,1.4142901E-2,3.2794744E-2,-4.059574E-3,-2.6880966E-2,2.1772502E-2,-8.035939E-3],"categories":[],"categories_nodes":[],"categories_segments":[],"categories_sizes":[],"default_left":[0,0,0,0,0,0,0,0,0,0,0,0,0,0,0,0,0,0,0,0,0,0,0,0,0,0,0,0,0,0,0],"id":4,"left_children":[1,3,5,7,9,11,13,15,17,19,21,23,25,27,29,-1,-1,-1,-1,-1,-1,-1,-1,-1,-1,-1,-1,-1,-1,-1,-1],"loss_changes":[1.3164893E4,6.892087E3,9.413738E3,2.5517334E3,2.2762861E3,1.9091924E3,2.5755273E3,6.552905E1,1.6538561E3,4.7841797E2,1.7276992E3,2.0849219E2,1.32344E3,1.6368706E3,6.7267554E2,0E0,0E0,0E0,0E0,0E0,0E0,0E0,0E0,0E0,0E0,0E0,0E0,0E0,0E0,0E0,0E0],"parents":[2147483647,0,0,1,1,2,2,3,3,4,4,5,5,6,6,7,7,8,8,9,9,10,10,11,11,12,12,13,13,14,14],"right_children":[2,4,6,8,10,12,14,16,18,20,22,24,26,28,30,-1,-1,-1,-1,-1,-1,-1,-1,-1,-1,-1,-1,-1,-1,-1,-1],"split_conditions":[-2.51769E-1,-7.2705746E-1,3.1850088E-1,-2.2646134E0,-8.7638986E-1,-8.7642294E-1,1.1687732E0,-2.653086E0,-1.8812453E0,-1.8812145E0,2.913436E-1,-1.8812453E0,6.8365324E-1,1.1687351E0,1.3474629E0,4.808173E-2,-5.377773E-2,4.8593104E-2,9.025218E-3,-5.1788013E-2,-3.400534E-2,-6.1857696E-3,-2.7617732E-2,5.2415006E-2,3.837237E-2,1.4142901E-2,3.2794744E-2,-4.059574E-3,-2.6880966E-2,2.1772502E-2,-8.035939E-3],"split_indices":[4,5,5,4,4,5,4,5,5,4,5,5,4,5,5,0,0,0,0,0,0,0,0,0,0,0,0,0,0,0,0],"split_type":[0,0,0,0,0,0,0,0,0,0,0,0,0,0,0,0,0,0,0,0,0,0,0,0,0,0,0,0,0,0,0],"sum_hessian":[6.4341348E4,2.6127014E4,3.8214332E4,5.9680347E3,2.0158979E4,1.9821254E4,1.839308E4,5.02688E2,5.4653467E3,6.5264062E3,1.3632572E4,4.5771895E3,1.5244064E4,1.4044478E4,4.348602E3,4.9918013E0,4.9769617E2,1.2248478E3,4.2404985E3,1.948275E3,4.5781313E3,6.2623623E3,7.37021E3,1.3738107E3,3.2033787E3,1.0048544E4,5.19552E3,1.01188955E4,3.9255815E3,3.5035396E3,8.450625E2],"tree_param":{"num_deleted":"0","num_feature":"40","num_nodes":"31","size_leaf_vector":"1"}},{"base_weights":[-1.2415543E-3,-8.089115E-1,6.5755254E-1,-1.2386721E0,-4.672427E-1,2.1604307E-1,1.09481E0,-1.5731992E0,-1.0571711E0,-5.190432E-1,1.535684E-1,-8.0707693E-1,2.4765694E-1,8.70701E-1,1.4831302E0,-5.277164E-2,-4.4102293E-2,-3.2899458E-2,-1.093508E-2,-1.6700331E-2,1.2202075E-2,-1.3159706E-3,1.3476543E-2,-2.8156884E-2,-7.866485E-3,-1.1459801E-2,9.13265E-3,1.757542E-3,2.7245348E-2,4.004514E-2,4.9694106E-2],"categories":[],"categories_nodes":[],"categories_segments":[],"categories_sizes":[],"default_left":[0,0,0,0,0,0,0,0,0,0,0,0,0,0,0,0,0,0,0,0,0,0,0,0,0,0,0,0,0,0,0],"id":5,"left_children":[1,3,5,7,9,11,13,15,17,19,21,23,25,27,29,-1,-1,-1,-1,-1,-1,-1,-1,-1,-1,-1,-1,-1,-1,-1,-1],"loss_changes":[3.418585E4,4.237377E3,6.8309053E3,7.7420703E2,5.172617E2,5.6968585E2,1.5456191E3,8.321973E1,2.2614258E2,5.1739404E2,7.238829E1,3.7455048E1,6.106354E2,3.430127E2,1.646748E2,0E0,0E0,0E0,0E0,0E0,0E0,0E0,0E0,0E0,0E0,0E0,0E0,0E0,0E0,0E0,0E0],"parents":[2147483647,0,0,1,1,2,2,3,3,4,4,5,5,6,6,7,7,8,8,9,9,10,10,11,11,12,12,13,13,14,14],"right_children":[2,4,6,8,10,12,14,16,18,20,22,24,26,28,30,-1,-1,-1,-1,-1,-1,-1,-1,-1,-1,-1,-1,-1,-1,-1,-1],"split_conditions":[-1.6039301E-1,-8.155796E-1,4.99109E-1,-1.3739185E0,2.544002E-1,-1.0242616E0,1.1550461E0,-2.4696252E0,8.245723E-2,4.096706E-1,1.0294158E0,3.437516E-2,-3.2378206E-1,-4.3454963E-1,1.6333877E0,-5.277164E-2,-4.4102293E-2,-3.2899458E-2,-1.093508E-2,-1.6700331E-2,1.2202075E-2,-1.3159706E-3,1.3476543E-2,-2.8156884E-2,-7.866485E-3,-1.1459801E-2,9.13265E-3,1.757542E-3,2.7245348E-2,4.004514E-2,4.9694106E-2],"split_indices":[28,28,28,28,33,35,28,4,33,35,33,31,33,33,28,0,0,0,0,0,0,0,0,0,0,0,0,0,0,0,0],"split_type":[0,0,0,0,0,0,0,0,0,0,0,0,0,0,0,0,0,0,0,0,0,0,0,0,0,0,0,0,0,0,0],"sum_hessian":[6.424644E4,2.8862027E4,3.5384414E4,1.2781802E4,1.6080227E4,1.7607459E4,1.7776955E4,4.492815E3,8.288986E3,1.4842124E4,1.2381023E3,5.26924E2,1.7080535E4,1.1273972E4,6.502983E3,1.597197E3,2.895618E3,7.8413545E3,4.47632E2,1.4262823E4,5.7930133E2,7.426656E2,4.954367E2,4.237569E2,1.03167145E2,1.4118958E3,1.5668639E4,4.975482E2,1.0776424E4,3.5097078E3,2.9932754E3],"tree_param":{"num_deleted":"0","num_feature":"40","num_nodes":"31","size_leaf_vector":"1"}},{"base_weights":[1.558087E-3,-6.424089E-1,7.881714E-1,-1.1997547E0,-3.1251767E-1,4.4490826E-1,1.2074612E0,-1.446333E0,-9.574187E-1,-5.6217504E-1,-1.0038618E-1,3.638468E-2,5.3810954E-1,1.0328789E0,1.5399466E0,-5.169E-2,-4.051369E-2,-2.9737217E-2,-3.579844E-3,-1.977875E-2,-6.7064213E-3,-5.6326203E-3,1.13711255E-2,-4.925309E-3,7.4728834E-3,1.4513023E-2,2.9995954E-2,1.0214432E-2,3.2144636E-2,4.3195117E-2,4.989864E-2],"categories":[],"categories_nodes":[],"categories_segments":[],"categories_sizes":[],"default_left":[0,0,0,0,0,0,0,0,0,0,0,0,0,0,0,0,0,0,0,0,0,0,0,0,0,0,0,0,0,0,0],"id":6,"left_children":[1,3,5,7,9,11,13,15,17,19,21,23,25,27,29,-1,-1,-1,-1,-1,-1,-1,-1,-1,-1,-1,-1,-1,-1,-1,-1],"loss_changes":[3.2449E4,6.47567E3,4.149508E3,7.809258E2,1.1717698E3,6.036753E2,7.515664E2,1.6949316E2,1.8708057E2,3.3403467E2,5.0119583E2,1.2576881E2,3.2334253E2,2.270957E2,5.2447266E1,0E0,0E0,0E0,0E0,0E0,0E0,0E0,0E0,0E0,0E0,0E0,0E0,0E0,0E0,0E0,0E0],"parents":[2147483647,0,0,1,1,2,2,3,3,4,4,5,5,6,6,7,7,8,8,9,9,10,10,11,11,12,12,13,13,14,14],"right_children":[2,4,6,8,10,12,14,16,18,20,22,24,26,28,30,-1,-1,-1,-1,-1,-1,-1,-1,-1,-1,-1,-1,-1,-1,-1,-1],"split_conditions":[1.6044593E-1,-6.737352E-1,7.486503E-1,-1.1229095E0,-2.2456077E-1,-2.9699633E-1,1.3739715E0,-2.5079243E0,4.336367E-1,1.3743576E-1,5.91572E-1,2.0822755E-1,1.2383422E0,-8.176315E-2,1.8715861E0,-5.169E-2,-4.051369E-2,-2.9737217E-2,-3.579844E-3,-1.977875E-2,-6.7064213E-3,-5.6326203E-3,1.13711255E-2,-4.925309E-3,7.4728834E-3,1.4513023E-2,2.9995954E-2,1.0214432E-2,3.2144636E-2,4.3195117E-2,4.989864E-2],"split_indices":[28,28,28,28,28,2,28,4,33,2,2,16,2,33,28,0,0,0,0,0,0,0,0,0,0,0,0,0,0,0,0],"split_type":[0,0,0,0,0,0,0,0,0,0,0,0,0,0,0,0,0,0,0,0,0,0,0,0,0,0,0,0,0,0,0],"sum_hessian":[6.4056426E4,3.5221848E4,2.8834578E4,1.3095044E4,2.2126803E4,1.585596E4,1.2978617E4,6.488042E3,6.607002E3,1.0163395E4,1.1963409E4,2.9458877E3,1.2910072E4,8.512998E3,4.4656196E3,1.6651057E3,4.8229365E3,6.3504224E3,2.5657922E2,7.897259E3,2.2661355E3,1.0120006E4,1.8434034E3,1.5161224E3,1.4297654E3,1.1552742E4,1.3573298E3,4.5027902E2,8.062719E3,2.4723975E3,1.993222E3],"tree_param":{"num_deleted":"0","num_feature":"40","num_nodes":"31","size_leaf_vector":"1"}},{"base_weights":[1.2344874E-3,-7.644646E-1,6.253312E-1,-1.1840974E0,-4.3422845E-1,3.0872163E-1,1.1738527E0,-1.5021133E0,-1.0118083E0,-5.070551E-1,6.076048E-2,1.0482188E-1,5.599658E-1,1.0022142E0,1.4994932E0,-5.052203E-2,-4.208966E-2,-3.2997426E-2,-2.1446867E-2,-2.2065092E-2,-1.1871984E-2,8.5250065E-3,-5.013762E-3,-9.400511E-3,6.071684E-3,6.8833176E-3,1.9565893E-2,2.1501373E-2,3.2650363E-2,5.0802927E-2,4.179977E-2],"categories":[],"categories_nodes":[],"categories_segments":[],"categories_sizes":[],"default_left":[0,0,0,0,0,0,0,0,0,0,0,0,0,0,0,0,0,0,0,0,0,0,0,0,0,0,0,0,0,0,0],"id":7,"left_children":[1,3,5,7,9,11,13,15,17,19,21,23,25,27,29,-1,-1,-1,-1,-1,-1,-1,-1,-1,-1,-1,-1,-1,-1,-1,-1],"loss_changes":[3.0536969E4,3.9759043E3,6.1137207E3,6.9059766E2,5.790134E2,1.1434824E3,7.1836523E2,7.737598E1,2.135293E2,3.5564746E2,1.04963554E2,5.02885E2,3.04614E2,2.0658887E2,8.884863E1,0E0,0E0,0E0,0E0,0E0,0E0,0E0,0E0,0E0,0E0,0E0,0E0,0E0,0E0,0E0,0E0],"parents":[2147483647,0,0,1,1,2,2,3,3,4,4,5,5,6,6,7,7,8,8,9,9,10,10,11,11,12,12,13,13,14,14],"right_children":[2,4,6,8,10,12,14,16,18,20,22,24,26,28,30,-1,-1,-1,-1,-1,-1,-1,-1,-1,-1,-1,-1,-1,-1,-1,-1],"split_conditions":[-1.6039301E-1,-8.155796E-1,7.486503E-1,-1.3739185E0,4.7138506E-1,3.2086524E-1,1.3739715E0,-2.4696252E0,-1.9806248E-1,-4.4914797E-1,-5.1313066E-1,-4.9178368E-1,-1.3747138E-1,1.9803897E-1,-2.4696548E0,-5.052203E-2,-4.208966E-2,-3.2997426E-2,-2.1446867E-2,-2.2065092E-2,-1.1871984E-2,8.5250065E-3,-5.013762E-3,-9.400511E-3,6.071684E-3,6.8833176E-3,1.9565893E-2,2.1501373E-2,3.2650363E-2,5.0802927E-2,4.179977E-2],"split_indices":[28,28,28,28,2,28,28,4,2,28,17,2,2,2,5,0,0,0,0,0,0,0,0,0,0,0,0,0,0,0,0],"split_type":[0,0,0,0,0,0,0,0,0,0,0,0,0,0,0,0,0,0,0,0,0,0,0,0,0,0,0,0,0,0,0],"sum_hessian":[6.3900242E4,2.869464E4,3.52056E4,1.2635611E4,1.6059029E4,2.2322613E4,1.2882988E4,4.437135E3,8.198478E3,1.3999492E4,2.059537E3,1.2323314E4,9.999298E3,8.439229E3,4.4437593E3,1.5587944E3,2.8783403E3,6.320029E3,1.8784485E3,4.5846606E3,9.414831E3,1.0400867E3,1.0194503E3,2.3307104E3,9.9926045E3,2.1825146E3,7.8167827E3,1.9583405E3,6.4808887E3,1.5664376E3,2.8773215E3],"tree_param":{"num_deleted":"0","num_feature":"40","num_nodes":"31","size_leaf_vector":"1"}},{"base_weights":[-1.726319E-4,-6.078886E-1,7.4510306E-1,-1.0099715E0,-2.0457177E-1,4.9978256E-1,1.270957E0,-1.3763361E0,-8.00412E-1,-2.451251E-1,5.1402986E-1,3.2336143E-1,7.2911596E-1,1.6338317E0,1.1689383E0,-4.955258E-2,-3.8393456E-2,-2.511521E-2,-2.5174458E-4,-8.316606E-3,2.3028942E-2,3.165557E-2,8.254887E-3,-9.705117E-3,1.09557975E-2,1.6112244E-3,2.3201833E-2,5.0059985E-2,4.3181546E-2,3.20554E-2,4.072086E-2],"categories":[],"categories_nodes":[],"categories_segments":[],"categories_sizes":[],"default_left":[0,0,0,0,0,0,0,0,0,0,0,0,0,0,0,0,0,0,0,0,0,0,0,0,0,0,0,0,0,0,0],"id":8,"left_children":[1,3,5,7,9,11,13,15,17,19,21,23,25,27,29,-1,-1,-1,-1,-1,-1,-1,-1,-1,-1,-1,-1,-1,-1,-1,-1],"loss_changes":[2.8958205E4,5.7110225E3,3.7039258E3,1.3526953E3,5.1252356E2,7.920293E2,3.3598438E2,1.6820117E2,3.266328E2,5.4121436E2,1.2102113E2,2.997041E2,2.5450293E2,1.0847656E1,1.3329883E2,0E0,0E0,0E0,0E0,0E0,0E0,0E0,0E0,0E0,0E0,0E0,0E0,0E0,0E0,0E0,0E0],"parents":[2147483647,0,0,1,1,2,2,3,3,4,4,5,5,6,6,7,7,8,8,9,9,10,10,11,11,12,12,13,13,14,14],"right_children":[2,4,6,8,10,12,14,16,18,20,22,24,26,28,30,-1,-1,-1,-1,-1,-1,-1,-1,-1,-1,-1,-1,-1,-1,-1,-1],"split_conditions":[1.6044593E-1,-4.990561E-1,9.6747893E-1,-1.1229095E0,7.375036E-1,4.99109E-1,-2.0713468E0,-2.424363E0,4.336367E-1,1.0776514E0,1.1436766E0,-5.1888156E-1,-1.6189103E-1,-2.6688087E0,1.4972743E0,-4.955258E-2,-3.8393456E-2,-2.511521E-2,-2.5174458E-4,-8.316606E-3,2.3028942E-2,3.165557E-2,8.254887E-3,-9.705117E-3,1.09557975E-2,1.6112244E-3,2.3201833E-2,5.0059985E-2,4.3181546E-2,3.20554E-2,4.072086E-2],"split_indices":[28,28,28,28,33,28,5,4,33,35,15,33,33,5,28,0,0,0,0,0,0,0,0,0,0,0,0,0,0,0,0],"split_type":[0,0,0,0,0,0,0,0,0,0,0,0,0,0,0,0,0,0,0,0,0,0,0,0,0,0,0,0,0,0,0],"sum_hessian":[6.393529E4,3.5217996E4,2.8717295E4,1.76351E4,1.7582896E4,1.9583414E4,9.133881E3,6.4146216E3,1.1220479E4,1.664439E4,9.385061E2,1.1070199E4,8.513215E3,2.0008773E3,7.133003E3,1.6606243E3,4.7539976E3,1.07226045E4,4.9787387E2,1.6133918E4,5.104725E2,2.8622464E2,6.522815E2,6.7185535E2,1.0398344E4,5.240475E2,7.9891675E3,1.6900204E3,3.108569E2,4.657748E3,2.4752551E3],"tree_param":{"num_deleted":"0","num_feature":"40","num_nodes":"31","size_leaf_vector":"1"}},{"base_weights":[1.3154822E-4,-7.250703E-1,5.8933115E-1,-1.2396089E0,-4.804973E-1,2.8603894E-1,1.1171545E0,-1.5137135E0,-1.1101927E0,-7.0644087E-1,-3.0736876E-1,1.0001188E-1,5.1557106E-1,8.8996947E-1,1.3489772E0,-4.8563614E-2,-4.2823825E-2,-3.4249082E-2,-1.217835E-2,-2.2422336E-2,-1.4171386E-3,-1.0522625E-2,7.844002E-3,-1.7030222E-2,4.243355E-3,-8.2058795E-3,1.6492447E-2,4.600923E-3,2.7681954E-2,4.892678E-2,3.753467E-2],"categories":[],"categories_nodes":[],"categories_segments":[],"categories_sizes":[],"default_left":[0,0,0,0,0,0,0,0,0,0,0,0,0,0,0,0,0,0,0,0,0,0,0,0,0,0,0,0,0,0,0],"id":9,"left_children":[1,3,5,7,9,11,13,15,17,19,21,23,25,27,29,-1,-1,-1,-1,-1,-1,-1,-1,-1,-1,-1,-1,-1,-1,-1,-1],"loss_changes":[2.7228389E4,3.593914E3,5.627907E3,3.2449902E2,7.571323E2,9.533584E2,6.742744E2,2.4105469E1,1.3789307E2,2.2673535E2,2.7071167E2,3.4128766E2,2.6975342E2,1.5620068E2,1.7272949E2,0E0,0E0,0E0,0E0,0E0,0E0,0E0,0E0,0E0,0E0,0E0,0E0,0E0,0E0,0E0,0E0],"parents":[2147483647,0,0,1,1,2,2,3,3,4,4,5,5,6,6,7,7,8,8,9,9,10,10,11,11,12,12,13,13,14,14],"right_children":[2,4,6,8,10,12,14,16,18,20,22,24,26,28,30,-1,-1,-1,-1,-1,-1,-1,-1,-1,-1,-1,-1,-1,-1,-1,-1],"split_conditions":[-1.6039301E-1,-8.983223E-1,7.486503E-1,-1.5720838E0,-4.4914797E-1,3.2086524E-1,1.1550461E0,-2.5692027E0,8.245723E-2,2.544002E-1,4.336367E-1,-7.375036E-1,-6.475641E-1,-3.2378206E-1,-2.5079536E0,-4.8563614E-2,-4.2823825E-2,-3.4249082E-2,-1.217835E-2,-2.2422336E-2,-1.4171386E-3,-1.0522625E-2,7.844002E-3,-1.7030222E-2,4.243355E-3,-8.2058795E-3,1.6492447E-2,4.600923E-3,2.7681954E-2,4.892678E-2,3.753467E-2],"split_indices":[28,28,28,28,28,28,28,4,33,33,33,33,33,33,5,0,0,0,0,0,0,0,0,0,0,0,0,0,0,0,0],"split_type":[0,0,0,0,0,0,0,0,0,0,0,0,0,0,0,0,0,0,0,0,0,0,0,0,0,0,0,0,0,0,0],"sum_hessian":[6.372167E4,2.8563986E4,3.5157684E4,9.2013955E3,1.9362592E4,2.2328977E4,1.2828707E4,2.9473694E3,6.2540264E3,8.398441E3,1.096415E4,1.2334337E4,9.994641E3,6.4818237E3,6.3468833E3,1.3201838E3,1.6271857E3,5.985999E3,2.680273E2,7.9067417E3,4.916995E2,1.01876875E4,7.764623E2,7.198026E2,1.1614534E4,4.1450137E2,9.580139E3,2.7639056E2,6.205433E3,1.6306779E3,4.716205E3],"tree_param":{"num_deleted":"0","num_feature":"40","num_nodes":"31","size_leaf_vector":"1"}},{"base_weights":[-3.5366794E-4,-7.056137E-1,5.7291263E-1,-1.211227E0,-4.663239E-1,2.8074935E-1,1.0857304E0,-1.4092543E0,-1.0318904E0,-5.6040394E-1,-5.97571E-2,9.375165E-2,5.107468E-1,9.21144E-1,1.405431E0,-4.7693875E-2,-3.9349917E-2,-3.1871643E-2,-7.5525767E-3,-2.265049E-2,-1.1794669E-2,-3.7568074E-3,1.6940715E-2,-1.1852384E-2,5.184593E-3,5.756512E-3,1.7916352E-2,1.520295E-2,2.9640153E-2,4.7849104E-2,3.902475E-2],"categories":[],"categories_nodes":[],"categories_segments":[],"categories_sizes":[],"default_left":[0,0,0,0,0,0,0,0,0,0,0,0,0,0,0,0,0,0,0,0,0,0,0,0,0,0,0,0,0,0,0],"id":10,"left_children":[1,3,5,7,9,11,13,15,17,19,21,23,25,27,29,-1,-1,-1,-1,-1,-1,-1,-1,-1,-1,-1,-1,-1,-1,-1,-1],"loss_changes":[2.5654607E4,3.4415771E3,5.2438486E3,3.2285938E2,7.386499E2,9.589912E2,6.6691016E2,7.409375E1,1.1380029E2,5.1008154E2,1.4845845E2,4.7549976E2,2.755044E2,2.3178076E2,8.319238E1,0E0,0E0,0E0,0E0,0E0,0E0,0E0,0E0,0E0,0E0,0E0,0E0,0E0,0E0,0E0,0E0],"parents":[2147483647,0,0,1,1,2,2,3,3,4,4,5,5,6,6,7,7,8,8,9,9,10,10,11,11,12,12,13,13,14,14],"right_children":[2,4,6,8,10,12,14,16,18,20,22,24,26,28,30,-1,-1,-1,-1,-1,-1,-1,-1,-1,-1,-1,-1,-1,-1,-1,-1],"split_conditions":[-1.6039301E-1,-8.983223E-1,7.486503E-1,-1.3739185E0,2.5164777E-1,3.2086524E-1,1.3739715E0,-2.4696252E0,3.2378206E-1,-4.4914797E-1,7.375036E-1,-6.3752615E-1,-1.549247E-1,-5.9348892E-2,-2.3700778E0,-4.7693875E-2,-3.9349917E-2,-3.1871643E-2,-7.5525767E-3,-2.265049E-2,-1.1794669E-2,-3.7568074E-3,1.6940715E-2,-1.1852384E-2,5.184593E-3,5.756512E-3,1.7916352E-2,1.520295E-2,2.9640153E-2,4.7849104E-2,3.902475E-2],"split_indices":[28,28,28,28,2,28,28,4,33,28,33,2,2,2,5,0,0,0,0,0,0,0,0,0,0,0,0,0,0,0,0],"split_type":[0,0,0,0,0,0,0,0,0,0,0,0,0,0,0,0,0,0,0,0,0,0,0,0,0,0,0,0,0,0,0],"sum_hessian":[6.345207E4,2.8450646E4,3.5001426E4,9.137937E3,1.931271E4,2.229897E4,1.2702455E4,4.3391455E3,4.7987905E3,1.5683019E4,3.6296921E3,1.2300214E4,9.998756E3,8.388254E3,4.3142007E3,1.5167865E3,2.822359E3,4.6177783E3,1.8101219E2,7.246629E3,8.43639E3,3.2861206E3,3.4357162E2,1.7118158E3,1.0588398E4,2.1338772E3,7.864879E3,1.1668217E3,7.2214326E3,1.5288391E3,2.7853616E3],"tree_param":{"num_deleted":"0","num_feature":"40","num_nodes":"31","size_leaf_vector":"1"}},{"base_weights":[-2.0557495E-3,-4.7194573E-1,5.572754E-1,-9.237384E-1,-2.2920883E-1,3.248891E-1,9.6343315E-1,-1.3604288E0,-8.019337E-1,-3.557445E-1,3.5767558E-1,-2.84256E-1,4.3803695E-1,1.3078032E0,8.038906E-1,-4.661028E-2,-3.7561998E-2,-3.924005E-2,-1.9552315E-2,-1.524941E-2,1.2267003E-2,6.635614E-3,2.4953274E-2,-2.3446575E-2,-3.837214E-3,-9.890849E-3,1.7001906E-2,4.6547E-2,3.459039E-2,2.0843646E-2,3.553463E-2],"categories":[],"categories_nodes":[],"categories_segments":[],"categories_sizes":[],"default_left":[0,0,0,0,0,0,0,0,0,0,0,0,0,0,0,0,0,0,0,0,0,0,0,0,0,0,0,0,0,0,0],"id":11,"left_children":[1,3,5,7,9,11,13,15,17,19,21,23,25,27,29,-1,-1,-1,-1,-1,-1,-1,-1,-1,-1,-1,-1,-1,-1,-1,-1],"loss_changes":[1.6607396E4,3.7656099E3,2.7224336E3,6.370488E2,1.6591055E3,1.2649722E3,5.7552637E2,5.255078E1,7.1238086E2,2.1442134E3,2.5612848E2,2.2336159E2,1.5293733E3,1.2328711E2,2.9701465E2,0E0,0E0,0E0,0E0,0E0,0E0,0E0,0E0,0E0,0E0,0E0,0E0,0E0,0E0,0E0,0E0],"parents":[2147483647,0,0,1,1,2,2,3,3,4,4,5,5,6,6,7,7,8,8,9,9,10,10,11,11,12,12,13,13,14,14],"right_children":[2,4,6,8,10,12,14,16,18,20,22,24,26,28,30,-1,-1,-1,-1,-1,-1,-1,-1,-1,-1,-1,-1,-1,-1,-1,-1],"split_conditions":[9.385266E-2,-7.9040223E-1,8.8053507E-1,-1.1574761E0,7.714553E-2,-9.478094E-2,-1.1004711E0,-1.8176319E-1,-1.1999594E0,1.7173542E-1,1.112049E0,3.340786E-1,-7.293754E-2,-2.1709237E0,1.6966035E0,-4.661028E-2,-3.7561998E-2,-3.924005E-2,-1.9552315E-2,-1.524941E-2,1.2267003E-2,6.635614E-3,2.4953274E-2,-2.3446575E-2,-3.837214E-3,-9.890849E-3,1.7001906E-2,4.6547E-2,3.459039E-2,2.0843646E-2,3.553463E-2],"split_indices":[2,2,2,29,29,29,5,6,31,31,29,6,31,5,2,0,0,0,0,0,0,0,0,0,0,0,0,0,0,0,0],"split_type":[0,0,0,0,0,0,0,0,0,0,0,0,0,0,0,0,0,0,0,0,0,0,0,0,0,0,0,0,0,0,0],"sum_hessian":[6.3186285E4,3.4338824E4,2.8847459E4,1.2000236E4,2.2338588E4,1.8350262E4,1.0497197E4,2.6147883E3,9.385448E3,1.837697E4,3.9616172E3,2.8742097E3,1.5476053E4,3.3210159E3,7.1761816E3,9.343168E2,1.6804716E3,2.1460186E3,7.2394297E3,1.5320538E4,3.0564326E3,3.0773564E3,8.842608E2,6.863878E2,2.1878218E3,2.2214485E3,1.3254604E4,1.2860593E3,2.0349565E3,5.579767E3,1.5964143E3],"tree_param":{"num_deleted":"0","num_feature":"40","num_nodes":"31","size_leaf_vector":"1"}},{"base_weights":[9.587126E-4,-4.8602435E-1,5.118253E-1,-9.010287E-1,-2.4219799E-1,2.6470557E-1,9.0409195E-1,-1.3310885E0,-7.738083E-1,-3.6536157E-1,3.324316E-1,-3.2626897E-1,3.8206306E-1,1.3353996E0,7.765182E-1,-4.571919E-2,-3.428623E-2,-1.621134E-2,-3.0744802E-2,-2.6731752E-2,-7.568159E-3,-1.7319469E-2,1.219286E-2,-2.581244E-2,-6.542931E-3,-1.0460427E-2,1.558995E-2,4.634721E-2,3.5058007E-2,1.6403839E-2,3.0728744E-2],"categories":[],"categories_nodes":[],"categories_segments":[],"categories_sizes":[],"default_left":[0,0,0,0,0,0,0,0,0,0,0,0,0,0,0,0,0,0,0,0,0,0,0,0,0,0,0,0,0,0,0],"id":12,"left_children":[1,3,5,7,9,11,13,15,17,19,21,23,25,27,29,-1,-1,-1,-1,-1,-1,-1,-1,-1,-1,-1,-1,-1,-1,-1,-1],"loss_changes":[1.57185E4,3.2728027E3,2.988663E3,6.537031E2,1.4422808E3,1.31225E3,6.5446094E2,9.7143555E1,5.407383E2,9.9730884E2,2.4236438E2,1.8083621E2,1.5873992E3,9.292871E1,5.2289795E2,0E0,0E0,0E0,0E0,0E0,0E0,0E0,0E0,0E0,0E0,0E0,0E0,0E0,0E0,0E0,0E0],"parents":[2147483647,0,0,1,1,2,2,3,3,4,4,5,5,6,6,7,7,8,8,9,9,10,10,11,11,12,12,13,13,14,14],"right_children":[2,4,6,8,10,12,14,16,18,20,22,24,26,28,30,-1,-1,-1,-1,-1,-1,-1,-1,-1,-1,-1,-1,-1,-1,-1,-1],"split_conditions":[2.5356553E-2,-7.9040223E-1,7.90605E-1,-1.338066E0,1.5309669E-2,-9.478094E-2,-1.338098E0,-2.1708937E0,8.344905E-1,-6.75202E-1,-7.7833974E-1,2.4966815E-1,3.509661E-5,-2.4696548E0,8.345277E-1,-4.571919E-2,-3.428623E-2,-1.621134E-2,-3.0744802E-2,-2.6731752E-2,-7.568159E-3,-1.7319469E-2,1.219286E-2,-2.581244E-2,-6.542931E-3,-1.0460427E-2,1.558995E-2,4.634721E-2,3.5058007E-2,1.6403839E-2,3.0728744E-2],"split_indices":[2,2,2,4,34,29,5,4,5,29,31,6,31,5,4,0,0,0,0,0,0,0,0,0,0,0,0,0,0,0,0],"split_type":[0,0,0,0,0,0,0,0,0,0,0,0,0,0,0,0,0,0,0,0,0,0,0,0,0,0,0,0,0,0,0],"sum_hessian":[6.3179457E4,3.2345754E4,3.0833703E4,1.1969677E4,2.0376078E4,1.8917809E4,1.1915895E4,2.7301934E3,9.239483E3,1.6780053E4,3.596025E3,3.133895E3,1.5783914E4,2.7176553E3,9.198239E3,1.3446E3,1.3855934E3,4.7893037E3,4.4501797E3,2.9693362E3,1.3810717E4,2.698791E2,3.3261458E3,5.2644586E2,2.6074492E3,2.5008303E3,1.3283084E4,1.2006833E3,1.5169718E3,4.7748423E3,4.423397E3],"tree_param":{"num_deleted":"0","num_feature":"40","num_nodes":"31","size_leaf_vector":"1"}},{"base_weights":[-1.9965298E-3,-5.410917E-1,6.612009E-1,-1.0302244E0,-2.6203147E-1,4.398291E-1,1.1497996E0,-1.3448284E0,-8.7155616E-1,-4.7542128E-1,-8.2646385E-2,2.8333992E-1,6.447291E-1,1.5063211E0,1.0509142E0,-4.5281176E-2,-3.7241723E-2,-2.6758907E-2,7.886122E-3,-1.502221E-2,1.5277192E-2,-4.6175225E-3,9.360377E-3,-3.5514215E-3,1.04231285E-2,-0E0,2.062241E-2,-2.3171451E-2,4.5279562E-2,2.4442334E-2,3.4090515E-2],"categories":[],"categories_nodes":[],"categories_segments":[],"categories_sizes":[],"default_left":[0,0,0,0,0,0,0,0,0,0,0,0,0,0,0,0,0,0,0,0,0,0,0,0,0,0,0,0,0,0,0],"id":13,"left_children":[1,3,5,7,9,11,13,15,17,19,21,23,25,27,29,-1,-1,-1,-1,-1,-1,-1,-1,-1,-1,-1,-1,-1,-1,-1,-1],"loss_changes":[2.249611E4,4.7371924E3,3.0509365E3,6.279658E2,8.4592065E2,6.2235596E2,3.082705E2,6.975781E1,1.9439502E2,2.5189136E2,3.378141E2,2.836073E2,2.314336E2,1.4269043E1,1.3789795E2,0E0,0E0,0E0,0E0,0E0,0E0,0E0,0E0,0E0,0E0,0E0,0E0,0E0,0E0,0E0,0E0],"parents":[2147483647,0,0,1,1,2,2,3,3,4,4,5,5,6,6,7,7,8,8,9,9,10,10,11,11,12,12,13,13,14,14],"right_children":[2,4,6,8,10,12,14,16,18,20,22,24,26,28,30,-1,-1,-1,-1,-1,-1,-1,-1,-1,-1,-1,-1,-1,-1,-1,-1],"split_conditions":[1.6044593E-1,-6.737352E-1,9.6747893E-1,-1.3739185E0,-2.2456077E-1,4.99109E-1,-2.0713468E0,-2.1139925E0,6.4012396E-1,9.037145E-1,5.91572E-1,-4.9178368E-1,-1.6189103E-1,-7.375036E-1,4.7138506E-1,-4.5281176E-2,-3.7241723E-2,-2.6758907E-2,7.886122E-3,-1.502221E-2,1.5277192E-2,-4.6175225E-3,9.360377E-3,-3.5514215E-3,1.04231285E-2,-0E0,2.062241E-2,-2.3171451E-2,4.5279562E-2,2.4442334E-2,3.4090515E-2],"split_indices":[28,28,28,28,28,28,5,4,35,35,2,2,33,33,2,0,0,0,0,0,0,0,0,0,0,0,0,0,0,0,0],"split_type":[0,0,0,0,0,0,0,0,0,0,0,0,0,0,0,0,0,0,0,0,0,0,0,0,0,0,0,0,0,0,0],"sum_hessian":[6.2919543E4,3.4707273E4,2.8212268E4,1.2606949E4,2.2100326E4,1.9417014E4,8.795254E3,4.2238623E3,8.383087E3,1.00924795E4,1.2007847E4,1.1010661E4,8.406353E3,1.9064597E3,6.8887944E3,1.6247369E3,2.5991255E3,8.235243E3,1.4784364E2,9.840051E3,2.5242905E2,1.0171796E4,1.8360505E3,1.5147615E3,9.495899E3,5.2191815E2,7.8844346E3,2.1236944E0,1.9043359E3,1.8331555E3,5.055639E3],"tree_param":{"num_deleted":"0","num_feature":"40","num_nodes":"31","size_leaf_vector":"1"}},{"base_weights":[1.5132956E-4,-5.269542E-1,6.478985E-1,-1.0082759E0,-2.542495E-1,3.6359403E-1,1.0201895E0,-1.32444E0,-8.499935E-1,-4.631121E-1,-8.022116E-2,-4.824114E-1,3.954477E-1,8.633092E-1,1.320694E0,-4.5013074E-2,-3.6910325E-2,-2.6548643E-2,-7.436712E-3,-1.45763885E-2,1.8110441E-2,-3.2852606E-3,2.4274727E-2,-2.0876102E-2,-3.0372995E-3,-7.3517566E-3,1.3224232E-2,7.3471228E-3,2.6980469E-2,4.5139927E-2,3.66638E-2],"categories":[],"categories_nodes":[],"categories_segments":[],"categories_sizes":[],"default_left":[0,0,0,0,0,0,0,0,0,0,0,0,0,0,0,0,0,0,0,0,0,0,0,0,0,0,0,0,0,0,0],"id":14,"left_children":[1,3,5,7,9,11,13,15,17,19,21,23,25,27,29,-1,-1,-1,-1,-1,-1,-1,-1,-1,-1,-1,-1,-1,-1,-1,-1],"loss_changes":[2.145408E4,4.5469385E3,2.983417E3,6.256494E2,8.037788E2,4.309922E2,5.74084E2,6.706787E1,1.7548242E2,2.4441455E2,3.142962E2,4.707463E1,4.4775488E2,1.7846826E2,7.376904E1,0E0,0E0,0E0,0E0,0E0,0E0,0E0,0E0,0E0,0E0,0E0,0E0,0E0,0E0,0E0,0E0],"parents":[2147483647,0,0,1,1,2,2,3,3,4,4,5,5,6,6,7,7,8,8,9,9,10,10,11,11,12,12,13,13,14,14],"right_children":[2,4,6,8,10,12,14,16,18,20,22,24,26,28,30,-1,-1,-1,-1,-1,-1,-1,-1,-1,-1,-1,-1,-1,-1,-1,-1],"split_conditions":[1.6044593E-1,-6.737352E-1,8.156325E-1,-1.3739185E0,-2.2456077E-1,-3.9020997E-1,1.3739715E0,-2.4696252E0,8.245723E-2,1.2290604E0,1.0776514E0,-1.2221255E0,-4.3454963E-1,-8.176315E-2,-2.4696548E0,-4.5013074E-2,-3.6910325E-2,-2.6548643E-2,-7.436712E-3,-1.45763885E-2,1.8110441E-2,-3.2852606E-3,2.4274727E-2,-2.0876102E-2,-3.0372995E-3,-7.3517566E-3,1.3224232E-2,7.3471228E-3,2.6980469E-2,4.5139927E-2,3.66638E-2],"split_indices":[28,28,28,28,28,35,28,4,33,35,35,35,33,33,5,0,0,0,0,0,0,0,0,0,0,0,0,0,0,0,0],"split_type":[0,0,0,0,0,0,0,0,0,0,0,0,0,0,0,0,0,0,0,0,0,0,0,0,0,0,0,0,0,0,0],"sum_hessian":[6.283372E4,3.464297E4,2.8190748E4,1.2528029E4,2.211494E4,1.5985485E4,1.2205263E4,4.176865E3,8.351164E3,1.00504795E4,1.206446E4,5.794166E2,1.5406069E4,8.0216914E3,4.183572E3,1.4495793E3,2.7272856E3,7.892262E3,4.5890176E2,9.841089E3,2.093905E2,1.1680797E4,3.836631E2,3.7072067E2,2.0869597E2,1.01844904E3,1.438762E4,4.423302E2,7.579361E3,1.4541681E3,2.7294036E3],"tree_param":{"num_deleted":"0","num_feature":"40","num_nodes":"31","size_leaf_vector":"1"}},{"base_weights":[-7.328774E-4,-4.55975E-1,4.7701824E-1,-8.1208766E-1,-2.060259E-1,2.4723127E-1,8.4452325E-1,-1.2615821E0,-6.917805E-1,-8.331522E-1,-1.0517883E-1,-3.0607322E-1,3.5939473E-1,7.2786784E-1,1.2718817E0,-4.424683E-2,-3.2829214E-2,-3.2383822E-2,-1.7724486E-2,-2.582612E-2,1.7743021E-2,-2.0082682E-2,2.488993E-3,-1.3573012E-2,3.7859727E-3,7.519378E-3,2.5657797E-2,1.7617328E-2,3.6866877E-2,4.4089533E-2,3.4743264E-2],"categories":[],"categories_nodes":[],"categories_segments":[],"categories_sizes":[],"default_left":[0,0,0,0,0,0,0,0,0,0,0,0,0,0,0,0,0,0,0,0,0,0,0,0,0,0,0,0,0,0,0],"id":15,"left_children":[1,3,5,7,9,11,13,15,17,19,21,23,25,27,29,-1,-1,-1,-1,-1,-1,-1,-1,-1,-1,-1,-1,-1,-1,-1,-1],"loss_changes":[1.3605799E4,2.8510356E3,2.5773726E3,7.1332715E2,1.1903151E3,1.1657732E3,5.842803E2,9.760547E1,4.071997E2,1.0349634E2,1.7217606E3,2.0040527E2,8.4184106E2,6.4919824E2,5.4658203E1,0E0,0E0,0E0,0E0,0E0,0E0,0E0,0E0,0E0,0E0,0E0,0E0,0E0,0E0,0E0,0E0],"parents":[2147483647,0,0,1,1,2,2,3,3,4,4,5,5,6,6,7,7,8,8,9,9,10,10,11,11,12,12,13,13,14,14],"right_children":[2,4,6,8,10,12,14,16,18,20,22,24,26,28,30,-1,-1,-1,-1,-1,-1,-1,-1,-1,-1,-1,-1,-1,-1,-1,-1],"split_conditions":[2.5356553E-2,-7.102268E-1,7.90605E-1,-1.3742758E0,-6.671433E-1,2.4527097E-5,1.1703001E0,-2.370048E0,-9.695128E-1,3.4141E0,-3.3761016E-1,6.172685E-1,6.7516536E-1,1.321224E0,-8.796314E-2,-4.424683E-2,-3.2829214E-2,-3.2383822E-2,-1.7724486E-2,-2.582612E-2,1.7743021E-2,-2.0082682E-2,2.488993E-3,-1.3573012E-2,3.7859727E-3,7.519378E-3,2.5657797E-2,1.7617328E-2,3.6866877E-2,4.4089533E-2,3.4743264E-2],"split_indices":[2,2,2,4,31,34,29,4,29,35,29,4,29,31,7,0,0,0,0,0,0,0,0,0,0,0,0,0,0,0,0],"split_type":[0,0,0,0,0,0,0,0,0,0,0,0,0,0,0,0,0,0,0,0,0,0,0,0,0,0,0,0,0,0,0],"sum_hessian":[6.2555586E4,3.2032518E4,3.0523066E4,1.32096045E4,1.8822912E4,1.8781594E4,1.1741474E4,2.7868804E3,1.0422725E4,2.6064185E3,1.6216494E4,3.1651628E3,1.5616432E4,9.226003E3,2.5154705E3,1.2211854E3,1.5656948E3,2.1513481E3,8.271376E3,2.5571296E3,4.9288868E1,4.054651E3,1.2161844E4,2.3646982E3,8.0046454E2,1.2808984E4,2.8074465E3,7.205895E3,2.0201077E3,9.139577E2,1.6015127E3],"tree_param":{"num_deleted":"0","num_feature":"40","num_nodes":"31","size_leaf_vector":"1"}},{"base_weights":[8.433762E-4,-4.0777674E-1,5.034705E-1,-7.912837E-1,-1.7084025E-1,3.4129754E-1,9.609659E-1,-1.2361042E0,-6.76727E-1,-2.9522172E-1,3.339083E-1,2.4298696E-1,9.5863557E-1,1.4041119E0,8.6691296E-1,-4.327215E-2,-3.3684526E-2,-3.0213628E-2,-1.611187E-2,-1.0995938E-2,1.3446634E-2,1.762382E-2,2.8839302E-3,-8.886306E-3,1.0163259E-2,3.91751E-2,2.5196124E-2,4.3173708E-2,3.3885445E-2,2.23857E-2,3.3204466E-2],"categories":[],"categories_nodes":[],"categories_segments":[],"categories_sizes":[],"default_left":[0,0,0,0,0,0,0,0,0,0,0,0,0,0,0,0,0,0,0,0,0,0,0,0,0,0,0,0,0,0,0],"id":16,"left_children":[1,3,5,7,9,11,13,15,17,19,21,23,25,27,29,-1,-1,-1,-1,-1,-1,-1,-1,-1,-1,-1,-1,-1,-1,-1,-1],"loss_changes":[1.2791277E4,3.121255E3,2.071582E3,6.674346E2,1.3332704E3,1.2511152E3,3.0315527E2,6.087793E1,4.807749E2,9.0339856E2,2.5300421E2,9.1889465E2,1.1547534E2,1.0401855E1,1.7367139E2,0E0,0E0,0E0,0E0,0E0,0E0,0E0,0E0,0E0,0E0,0E0,0E0,0E0,0E0,0E0,0E0],"parents":[2147483647,0,0,1,1,2,2,3,3,4,4,5,5,6,6,7,7,8,8,9,9,10,10,11,11,12,12,13,13,14,14],"right_children":[2,4,6,8,10,12,14,16,18,20,22,24,26,28,30,-1,-1,-1,-1,-1,-1,-1,-1,-1,-1,-1,-1,-1,-1,-1,-1],"split_conditions":[1.10849775E-1,-7.102268E-1,1.099337E0,-1.0803123E0,1.5309669E-2,8.87366E-1,-1.8812453E0,-8.797376E-2,-1.4116575E0,2.544002E-1,-2.1002313E-1,2.4527097E-5,-1.1225594E-2,-5.1313066E-1,1.6966035E0,-4.327215E-2,-3.3684526E-2,-3.0213628E-2,-1.611187E-2,-1.0995938E-2,1.3446634E-2,1.762382E-2,2.8839302E-3,-8.886306E-3,1.0163259E-2,3.91751E-2,2.5196124E-2,4.3173708E-2,3.3885445E-2,2.23857E-2,3.3204466E-2],"split_indices":[2,2,2,29,34,29,5,6,2,33,5,34,7,17,2,0,0,0,0,0,0,0,0,0,0,0,0,0,0,0,0],"split_type":[0,0,0,0,0,0,0,0,0,0,0,0,0,0,0,0,0,0,0,0,0,0,0,0,0,0,0,0,0,0,0],"sum_hessian":[6.2277906E4,3.4351332E4,2.7926572E4,1.3117118E4,2.1234215E4,2.061938E4,7.307191E3,2.6841145E3,1.0433004E4,1.703662E4,4.197595E3,1.7788182E4,2.8311985E3,1.2767196E3,6.030471E3,9.469878E2,1.7371267E3,3.0978135E3,7.3351904E3,1.5546108E4,1.4905107E3,2.0304966E3,2.1670986E3,2.6828962E3,1.5105286E4,7.188497E2,2.1123486E3,1.1282588E3,1.484609E2,4.0147234E3,2.0157479E3],"tree_param":{"num_deleted":"0","num_feature":"40","num_nodes":"31","size_leaf_vector":"1"}},{"base_weights":[5.8234093E-4,-4.934542E-1,6.1003226E-1,-9.588479E-1,-2.3356576E-1,4.0298608E-1,1.0775468E0,-1.1790624E0,-7.538312E-1,-4.2972478E-1,-6.984446E-2,2.530261E-1,6.017763E-1,1.429913E0,9.833149E-1,-4.3589793E-2,-3.2670856E-2,-2.3276042E-2,8.636595E-3,-1.3576752E-2,1.4699556E-2,-3.5285845E-3,1.4259951E-2,-1.9296367E-2,8.409207E-3,-1.2962223E-2,1.8801933E-2,-1.9630186E-2,4.2990588E-2,-1.5098122E-2,2.987811E-2],"categories":[],"categories_nodes":[],"categories_segments":[],"categories_sizes":[],"default_left":[0,0,0,0,0,0,0,0,0,0,0,0,0,0,0,0,0,0,0,0,0,0,0,0,0,0,0,0,0,0,0],"id":17,"left_children":[1,3,5,7,9,11,13,15,17,19,21,23,25,27,29,-1,-1,-1,-1,-1,-1,-1,-1,-1,-1,-1,-1,-1,-1,-1,-1],"loss_changes":[1.8708137E4,4.150254E3,2.692124E3,5.540576E2,7.071471E2,5.745542E2,2.8183594E2,1.4432324E2,1.4652148E2,2.1059473E2,3.1269043E2,2.6891412E2,2.1416504E2,1.26640625E1,1.2701123E2,0E0,0E0,0E0,0E0,0E0,0E0,0E0,0E0,0E0,0E0,0E0,0E0,0E0,0E0,0E0,0E0],"parents":[2147483647,0,0,1,1,2,2,3,3,4,4,5,5,6,6,7,7,8,8,9,9,10,10,11,11,12,12,13,13,14,14],"right_children":[2,4,6,8,10,12,14,16,18,20,22,24,26,28,30,-1,-1,-1,-1,-1,-1,-1,-1,-1,-1,-1,-1,-1,-1,-1,-1],"split_conditions":[1.6044593E-1,-6.737352E-1,9.6747893E-1,-1.1549932E0,-2.2456077E-1,4.99109E-1,-2.0713468E0,-2.5079243E0,5.6899637E-1,9.037145E-1,4.856731E-1,-1.0071911E0,-6.401726E-1,-5.1888156E-1,-1.1461554E0,-4.3589793E-2,-3.2670856E-2,-2.3276042E-2,8.636595E-3,-1.3576752E-2,1.4699556E-2,-3.5285845E-3,1.4259951E-2,-1.9296367E-2,8.409207E-3,-1.2962223E-2,1.8801933E-2,-1.9630186E-2,4.2990588E-2,-1.5098122E-2,2.987811E-2],"split_indices":[28,28,28,28,28,28,5,4,35,35,33,35,35,33,32,0,0,0,0,0,0,0,0,0,0,0,0,0,0,0,0],"split_type":[0,0,0,0,0,0,0,0,0,0,0,0,0,0,0,0,0,0,0,0,0,0,0,0,0,0,0,0,0,0,0],"sum_hessian":[6.2132562E4,3.431551E4,2.7817053E4,1.2295085E4,2.2020426E4,1.928047E4,8.536583E3,5.9253027E3,6.369782E3,1.0016793E4,1.2003633E4,1.0991594E4,8.288876E3,1.7979987E3,6.738584E3,1.4617194E3,4.4635835E3,6.2381685E3,1.3161346E2,9.774732E3,2.4206009E2,1.103737E4,9.6626196E2,3.2391727E2,1.0667677E4,1.9488011E2,8.0939956E3,2.3160713E0,1.7956826E3,5.6339527E1,6.6822446E3],"tree_param":{"num_deleted":"0","num_feature":"40","num_nodes":"31","size_leaf_vector":"1"}},{"base_weights":[2.1359862E-3,-5.9166926E-1,4.8302454E-1,-1.051025E0,-3.8525775E-1,2.3379795E-1,9.400966E-1,-1.3196187E0,-9.29489E-1,-5.7569706E-1,-2.4201411E-1,7.8898996E-2,4.2636505E-1,7.9381114E-1,1.2576112E0,-3.976458E-2,-0E0,-2.8492562E-2,-6.596002E-4,-1.8007873E-2,1.292566E-2,-2.9441727E-2,-6.3491375E-3,-2.4454825E-2,3.2415781E-3,-1.1353651E-2,1.3654209E-2,9.4093435E-4,2.4768995E-2,4.304131E-2,3.4785353E-2],"categories":[],"categories_nodes":[],"categories_segments":[],"categories_sizes":[],"default_left":[0,0,0,0,0,0,0,0,0,0,0,0,0,0,0,0,0,0,0,0,0,0,0,0,0,0,0,0,0,0,0],"id":18,"left_children":[1,3,5,7,9,11,13,15,17,19,21,23,25,27,29,-1,-1,-1,-1,-1,-1,-1,-1,-1,-1,-1,-1,-1,-1,-1,-1],"loss_changes":[1.7684541E4,2.6269775E3,3.897692E3,2.7898828E2,5.214082E2,6.6049036E2,5.596113E2,2.0569336E1,1.0871094E2,2.0321997E2,2.4482318E2,3.1996097E2,2.2880408E2,2.0051074E2,6.420557E1,0E0,0E0,0E0,0E0,0E0,0E0,0E0,0E0,0E0,0E0,0E0,0E0,0E0,0E0,0E0,0E0],"parents":[2147483647,0,0,1,1,2,2,3,3,4,4,5,5,6,6,7,7,8,8,9,9,10,10,11,11,12,12,13,13,14,14],"right_children":[2,4,6,8,10,12,14,16,18,20,22,24,26,28,30,-1,-1,-1,-1,-1,-1,-1,-1,-1,-1,-1,-1,-1,-1,-1,-1],"split_conditions":[-1.6039301E-1,-8.983223E-1,7.486503E-1,-1.5720838E0,-4.4914797E-1,3.2086524E-1,1.4972743E0,6.8280053E-1,7.6986E-2,6.4012396E-1,-1.0754734E0,-1.0754734E0,-3.5705692E-1,-3.2378206E-1,-2.4696548E0,-3.976458E-2,-0E0,-2.8492562E-2,-6.596002E-4,-1.8007873E-2,1.292566E-2,-2.9441727E-2,-6.3491375E-3,-2.4454825E-2,3.2415781E-3,-1.1353651E-2,1.3654209E-2,9.4093435E-4,2.4768995E-2,4.304131E-2,3.4785353E-2],"split_indices":[28,28,28,28,28,28,28,35,35,35,35,35,35,33,5,0,0,0,0,0,0,0,0,0,0,0,0,0,0,0,0],"split_type":[0,0,0,0,0,0,0,0,0,0,0,0,0,0,0,0,0,0,0,0,0,0,0,0,0,0,0,0,0,0,0],"sum_hessian":[6.192865E4,2.7710746E4,3.4217902E4,8.5898955E3,1.9120852E4,2.2144793E4,1.2073108E4,2.67266E3,5.917236E3,8.206616E3,1.0914235E4,1.2273804E4,9.870989E3,8.267785E3,3.8053235E3,2.6607495E3,1.1910368E1,5.7878457E3,1.2939012E2,8.0115923E3,1.9502364E2,4.2933496E2,1.04849E4,3.8662744E2,1.1887176E4,3.402015E2,9.530788E3,3.3145065E2,7.936334E3,1.3512529E3,2.4540706E3],"tree_param":{"num_deleted":"0","num_feature":"40","num_nodes":"31","size_leaf_vector":"1"}},{"base_weights":[1.7732154E-3,-5.7482976E-1,4.671254E-1,-1.0289861E0,-3.729932E-1,2.2258845E-1,9.1823226E-1,-1.4081064E0,-9.394324E-1,-5.6134653E-1,-2.321289E-1,6.8633854E-2,4.140074E-1,7.692713E-1,1.2242522E0,-4.236014E-2,-1.2775311E-2,-2.904477E-2,-8.628149E-3,-1.8005E-2,1.2649044E-3,-2.6108624E-2,-5.9261275E-3,-1.4368039E-2,3.4143701E-3,-3.4242468E-3,1.3596608E-2,2.4897251E-3,2.3940485E-2,4.0429335E-2,3.3169385E-2],"categories":[],"categories_nodes":[],"categories_segments":[],"categories_sizes":[],"default_left":[0,0,0,0,0,0,0,0,0,0,0,0,0,0,0,0,0,0,0,0,0,0,0,0,0,0,0,0,0,0,0],"id":19,"left_children":[1,3,5,7,9,11,13,15,17,19,21,23,25,27,29,-1,-1,-1,-1,-1,-1,-1,-1,-1,-1,-1,-1,-1,-1,-1,-1],"loss_changes":[1.6536643E4,2.5225234E3,3.7618833E3,2.8594727E2,5.054287E2,6.5172705E2,5.453467E2,5.4018555E0,1.279209E2,1.910979E2,2.404519E2,3.0330798E2,2.042627E2,1.5896875E2,5.5679688E1,0E0,0E0,0E0,0E0,0E0,0E0,0E0,0E0,0E0,0E0,0E0,0E0,0E0,0E0,0E0,0E0],"parents":[2147483647,0,0,1,1,2,2,3,3,4,4,5,5,6,6,7,7,8,8,9,9,10,10,11,11,12,12,13,13,14,14],"right_children":[2,4,6,8,10,12,14,16,18,20,22,24,26,28,30,-1,-1,-1,-1,-1,-1,-1,-1,-1,-1,-1,-1,-1,-1,-1,-1],"split_conditions":[-1.6039301E-1,-8.983223E-1,7.486503E-1,-2.2206824E0,-4.4914797E-1,3.2086524E-1,1.3739715E0,4.2776704E-1,8.245723E-2,2.544002E-1,-1.1332372E0,-9.2876667E-1,-2.544002E-1,-3.2378206E-1,-1.0771441E0,-4.236014E-2,-1.2775311E-2,-2.904477E-2,-8.628149E-3,-1.8005E-2,1.2649044E-3,-2.6108624E-2,-5.9261275E-3,-1.4368039E-2,3.4143701E-3,-3.4242468E-3,1.3596608E-2,2.4897251E-3,2.3940485E-2,4.0429335E-2,3.3169385E-2],"split_indices":[28,28,28,4,28,28,28,16,33,33,33,2,33,33,1,0,0,0,0,0,0,0,0,0,0,0,0,0,0,0,0],"split_type":[0,0,0,0,0,0,0,0,0,0,0,0,0,0,0,0,0,0,0,0,0,0,0,0,0,0,0,0,0,0,0],"sum_hessian":[6.1627547E4,2.7523549E4,3.4104E4,8.467062E3,1.9056486E4,2.2116666E4,1.1987332E4,1.6148496E3,6.8522114E3,8.1522305E3,1.0904256E4,1.2258928E4,9.857739E3,8.065257E3,3.9220752E3,1.6079292E3,6.9203963E0,6.5623633E3,2.8984824E2,7.6596997E3,4.925308E2,5.592818E2,1.0344975E4,9.3346075E2,1.1325467E4,6.8100354E2,9.176735E3,3.2452954E2,7.7407275E3,1.916759E3,2.005316E3],"tree_param":{"num_deleted":"0","num_feature":"40","num_nodes":"31","size_leaf_vector":"1"}},{"base_weights":[6.4596935E-4,-5.6474364E-1,4.571733E-1,-1.0104215E0,-3.660457E-1,2.2049537E-1,8.959528E-1,-1.2892883E0,-8.8674325E-1,-5.491206E-1,-2.3029551E-1,7.18262E-2,4.0554708E-1,6.903646E-1,1.1159984E0,-4.1786175E-2,-3.6205817E-2,-4.277983E-2,-2.5505513E-2,-1.8503023E-2,-6.802176E-3,-7.6384214E-3,2.03368E-2,-2.4065638E-2,3.0133044E-3,-1.1319962E-2,1.2987747E-2,-1.1399289E-2,2.129847E-2,4.209522E-2,3.0706808E-2],"categories":[],"categories_nodes":[],"categories_segments":[],"categories_sizes":[],"default_left":[0,0,0,0,0,0,0,0,0,0,0,0,0,0,0,0,0,0,0,0,0,0,0,0,0,0,0,0,0,0,0],"id":20,"left_children":[1,3,5,7,9,11,13,15,17,19,21,23,25,27,29,-1,-1,-1,-1,-1,-1,-1,-1,-1,-1,-1,-1,-1,-1,-1,-1],"loss_changes":[1.587916E4,2.43325E3,3.5343774E3,2.908994E2,4.7224316E2,6.082517E2,5.385596E2,2.026709E1,1.14359375E2,1.7627148E2,2.4126233E2,3.067249E2,2.1129004E2,1.2960278E2,1.5118604E2,0E0,0E0,0E0,0E0,0E0,0E0,0E0,0E0,0E0,0E0,0E0,0E0,0E0,0E0,0E0,0E0],"parents":[2147483647,0,0,1,1,2,2,3,3,4,4,5,5,6,6,7,7,8,8,9,9,10,10,11,11,12,12,13,13,14,14],"right_children":[2,4,6,8,10,12,14,16,18,20,22,24,26,28,30,-1,-1,-1,-1,-1,-1,-1,-1,-1,-1,-1,-1,-1,-1,-1,-1],"split_conditions":[-1.6039301E-1,-8.983223E-1,7.486503E-1,-1.5720838E0,-4.990561E-1,3.2086524E-1,1.1550461E0,-2.4696252E0,-2.3386028E0,1.284828E-1,1.2237886E0,-1.0754734E0,-3.9020997E-1,-7.511316E-1,-2.5079536E0,-4.1786175E-2,-3.6205817E-2,-4.277983E-2,-2.5505513E-2,-1.8503023E-2,-6.802176E-3,-7.6384214E-3,2.03368E-2,-2.4065638E-2,3.0133044E-3,-1.1319962E-2,1.2987747E-2,-1.1399289E-2,2.129847E-2,4.209522E-2,3.0706808E-2],"split_indices":[28,28,28,28,28,28,28,4,4,2,35,35,35,35,5,0,0,0,0,0,0,0,0,0,0,0,0,0,0,0,0],"split_type":[0,0,0,0,0,0,0,0,0,0,0,0,0,0,0,0,0,0,0,0,0,0,0,0,0,0,0,0,0,0,0],"sum_hessian":[6.1517566E4,2.7481922E4,3.4035645E4,8.472833E3,1.900909E4,2.2110799E4,1.1924845E4,2.6000557E3,5.8727773E3,8.092131E3,1.0916959E4,1.2261737E4,9.849061E3,6.1673193E3,5.7575254E3,1.1445836E3,1.4554722E3,3.7028867E2,5.502489E3,6.687614E3,1.4045173E3,1.0633067E4,2.8389154E2,3.877818E2,1.1873955E4,3.322349E2,9.516826E3,1.1039542E2,6.056924E3,1.3982743E3,4.3592515E3],"tree_param":{"num_deleted":"0","num_feature":"40","num_nodes":"31","size_leaf_vector":"1"}},{"base_weights":[-3.025888E-4,-4.4782314E-1,5.4574704E-1,-8.7980753E-1,-2.2060318E-1,3.5415718E-1,9.964448E-1,-1.1817061E0,-7.2853464E-1,-2.8933388E-1,1.6753173E-1,2.1617633E-1,5.422422E-1,1.3919023E0,9.1221124E-1,-4.1371267E-2,-3.243574E-2,-2.244387E-2,8.610668E-3,-3.0557202E-2,-7.7331383E-3,3.6205482E-3,2.4128709E-2,5.5922214E-3,2.872557E-2,-1.5313863E-2,1.7047413E-2,4.1817717E-2,2.5138473E-2,-6.2126206E-4,2.7951548E-2],"categories":[],"categories_nodes":[],"categories_segments":[],"categories_sizes":[],"default_left":[0,0,0,0,0,0,0,0,0,0,0,0,0,0,0,0,0,0,0,0,0,0,0,0,0,0,0,0,0,0,0],"id":21,"left_children":[1,3,5,7,9,11,13,15,17,19,21,23,25,27,29,-1,-1,-1,-1,-1,-1,-1,-1,-1,-1,-1,-1,-1,-1,-1,-1],"loss_changes":[1.4972029E4,3.3048003E3,2.382416E3,5.289785E2,5.8874316E2,5.0239917E2,2.7268213E2,7.50708E1,1.5417236E2,4.3112756E2,9.8852325E1,2.4628302E2,2.2461499E2,2.2485352E-1,1.2365576E2,0E0,0E0,0E0,0E0,0E0,0E0,0E0,0E0,0E0,0E0,0E0,0E0,0E0,0E0,0E0,0E0],"parents":[2147483647,0,0,1,1,2,2,3,3,4,4,5,5,6,6,7,7,8,8,9,9,10,10,11,11,12,12,13,13,14,14],"right_children":[2,4,6,8,10,12,14,16,18,20,22,24,26,28,30,-1,-1,-1,-1,-1,-1,-1,-1,-1,-1,-1,-1,-1,-1,-1,-1],"split_conditions":[7.488904E-2,-8.155796E-1,9.6747893E-1,-1.3739185E0,4.920766E-1,4.99109E-1,-2.5079536E0,-2.4696252E0,6.4012396E-1,-1.0754734E0,1.6255303E-1,1.0776514E0,-6.401726E-1,-7.5436795E-1,-7.703464E-2,-4.1371267E-2,-3.243574E-2,-2.244387E-2,8.610668E-3,-3.0557202E-2,-7.7331383E-3,3.6205482E-3,2.4128709E-2,5.5922214E-3,2.872557E-2,-1.5313863E-2,1.7047413E-2,4.1817717E-2,2.5138473E-2,-6.2126206E-4,2.7951548E-2],"split_indices":[28,28,28,28,2,28,5,4,35,35,35,35,35,7,35,0,0,0,0,0,0,0,0,0,0,0,0,0,0,0,0],"split_type":[0,0,0,0,0,0,0,0,0,0,0,0,0,0,0,0,0,0,0,0,0,0,0,0,0,0,0,0,0,0,0],"sum_hessian":[6.12663E4,3.3671137E4,2.7595162E4,1.1604902E4,2.2066234E4,1.9365129E4,8.230032E3,3.871331E3,7.7335713E3,1.8747035E4,3.3192007E3,1.117196E4,8.19317E3,1.442256E3,6.7877764E3,1.3018157E3,2.5695154E3,7.5875376E3,1.4603378E2,7.763096E2,1.7970725E4,3.0929934E3,2.262072E2,1.0741996E4,4.2996332E2,1.9697432E2,7.996196E3,1.435321E3,6.9349184E0,1.389169E2,6.6488594E3],"tree_param":{"num_deleted":"0","num_feature":"40","num_nodes":"31","size_leaf_vector":"1"}},{"base_weights":[2.0039883E-5,-4.4544378E-1,3.572311E-1,-8.9253294E-1,-2.9674125E-1,1.651812E-1,7.4527895E-1,-1.12617E0,-7.4292535E-1,-8.097986E-1,-1.9997625E-1,-3.0500826E-1,2.7842018E-1,5.90517E-1,1.0257969E0,-3.39713E-2,4.1736957E-2,-4.021056E-2,-2.0462364E-2,-3.1913426E-2,-1.987132E-2,-2.0192765E-2,-3.1607184E-3,-1.145707E-2,8.579245E-3,-1.3210575E-2,1.0372294E-2,1.4618895E-2,2.8932335E-2,3.2977235E-2,1.9825907E-2],"categories":[],"categories_nodes":[],"categories_segments":[],"categories_sizes":[],"default_left":[0,0,0,0,0,0,0,0,0,0,0,0,0,0,0,0,0,0,0,0,0,0,0,0,0,0,0,0,0,0,0],"id":22,"left_children":[1,3,5,7,9,11,13,15,17,19,21,23,25,27,29,-1,-1,-1,-1,-1,-1,-1,-1,-1,-1,-1,-1,-1,-1,-1,-1],"loss_changes":[9.711109E3,1.8052422E3,2.5238813E3,2.3589062E2,1.0116295E3,1.2064705E3,4.860044E2,4.2856934E1,1.492041E2,1.20200195E2,7.6756E2,1.9997824E2,8.8378186E2,2.7835864E2,1.0590381E2,0E0,0E0,0E0,0E0,0E0,0E0,0E0,0E0,0E0,0E0,0E0,0E0,0E0,0E0,0E0,0E0],"parents":[2147483647,0,0,1,1,2,2,3,3,4,4,5,5,6,6,7,7,8,8,9,9,10,10,11,11,12,12,13,13,14,14],"right_children":[2,4,6,8,10,12,14,16,18,20,22,24,26,28,30,-1,-1,-1,-1,-1,-1,-1,-1,-1,-1,-1,-1,-1,-1,-1,-1],"split_conditions":[-1.2014269E-1,-1.1211514E0,7.90605E-1,-1.6966211E0,-8.5594344E-1,2.4527097E-5,1.4458356E0,6.7308087E0,-2.1708937E0,-8.7638986E-1,-7.10738E-1,4.1702163E-1,-2.544002E-1,8.573578E-1,4.5197454E-1,-3.39713E-2,4.1736957E-2,-4.021056E-2,-2.0462364E-2,-3.1913426E-2,-1.987132E-2,-2.0192765E-2,-3.1607184E-3,-1.145707E-2,8.579245E-3,-1.3210575E-2,1.0372294E-2,1.4618895E-2,2.8932335E-2,3.2977235E-2,1.9825907E-2],"split_indices":[2,2,2,2,34,34,2,37,4,4,29,31,33,29,17,0,0,0,0,0,0,0,0,0,0,0,0,0,0,0,0],"split_type":[0,0,0,0,0,0,0,0,0,0,0,0,0,0,0,0,0,0,0,0,0,0,0,0,0,0,0,0,0,0,0],"sum_hessian":[6.1026387E4,2.7158084E4,3.38683E4,6.7769194E3,2.0381164E4,2.2656826E4,1.1211475E4,2.6427034E3,4.1342163E3,3.232696E3,1.7148469E4,4.397016E3,1.825981E4,7.227512E3,3.9839626E3,2.6367922E3,5.9111133E0,3.800446E2,3.7541716E3,1.1847219E3,2.0479741E3,2.856777E3,1.4291692E4,3.8912412E3,5.0577472E2,1.5632086E3,1.6696602E4,5.6659043E3,1.5616079E3,3.3146E3,6.6936237E2],"tree_param":{"num_deleted":"0","num_feature":"40","num_nodes":"31","size_leaf_vector":"1"}},{"base_weights":[5.5925717E-4,-5.252701E-1,4.253294E-1,-9.883529E-1,-3.5173857E-1,2.0165221E-1,8.476042E-1,-1.3036846E0,-8.839463E-1,-5.2165854E-1,-2.1205746E-1,-1.6875991E-1,2.681211E-1,6.43416E-1,1.070403E0,-4.0983338E-2,-3.380325E-2,-2.910692E-2,-1.9172058E-2,-1.6779397E-2,2.462346E-3,-2.5007308E-2,-5.3503457E-3,-3.589173E-2,-4.168602E-3,6.9423667E-3,2.559031E-2,-1.3525744E-3,2.01921E-2,4.0854942E-2,2.9290559E-2],"categories":[],"categories_nodes":[],"categories_segments":[],"categories_sizes":[],"default_left":[0,0,0,0,0,0,0,0,0,0,0,0,0,0,0,0,0,0,0,0,0,0,0,0,0,0,0,0,0,0,0],"id":23,"left_children":[1,3,5,7,9,11,13,15,17,19,21,23,25,27,29,-1,-1,-1,-1,-1,-1,-1,-1,-1,-1,-1,-1,-1,-1,-1,-1],"loss_changes":[1.358904E4,2.18417E3,3.1784692E3,2.4257812E2,4.6921997E2,5.4176434E2,5.292744E2,1.8541016E1,1.169082E2,2.0291675E2,2.2722525E2,1.0224563E2,4.0023206E2,1.2429443E2,1.511294E2,0E0,0E0,0E0,0E0,0E0,0E0,0E0,0E0,0E0,0E0,0E0,0E0,0E0,0E0,0E0,0E0],"parents":[2147483647,0,0,1,1,2,2,3,3,4,4,5,5,6,6,7,7,8,8,9,9,10,10,11,11,12,12,13,13,14,14],"right_children":[2,4,6,8,10,12,14,16,18,20,22,24,26,28,30,-1,-1,-1,-1,-1,-1,-1,-1,-1,-1,-1,-1,-1,-1,-1,-1],"split_conditions":[-1.6039301E-1,-1.1229092E0,7.486503E-1,-1.9131644E0,-4.4914797E-1,-4.9178368E-1,1.1550461E0,-2.6687799E0,-4.7126278E-1,2.544002E-1,-1.1332372E0,-1.9426924E0,1.1332372E0,-4.3454963E-1,-2.4243925E0,-4.0983338E-2,-3.380325E-2,-2.910692E-2,-1.9172058E-2,-1.6779397E-2,2.462346E-3,-2.5007308E-2,-5.3503457E-3,-3.589173E-2,-4.168602E-3,6.9423667E-3,2.559031E-2,-1.3525744E-3,2.01921E-2,4.0854942E-2,2.9290559E-2],"split_indices":[28,28,28,4,28,2,28,4,2,33,33,33,33,33,5,0,0,0,0,0,0,0,0,0,0,0,0,0,0,0,0],"split_type":[0,0,0,0,0,0,0,0,0,0,0,0,0,0,0,0,0,0,0,0,0,0,0,0,0,0,0,0,0,0,0],"sum_hessian":[6.083815E4,2.7184979E4,3.3653168E4,7.408782E3,1.9776195E4,2.2001031E4,1.1652138E4,1.8397806E3,5.5690015E3,8.920766E3,1.085543E4,3.346864E3,1.8654168E4,6.0822646E3,5.569873E3,1.3545197E3,4.85261E2,4.115504E3,1.4534977E3,8.397272E3,5.2349347E2,5.571535E2,1.0298276E4,9.31419E1,3.2537222E3,1.7554008E4,1.1001589E3,2.5098769E2,5.831277E3,1.355414E3,4.214459E3],"tree_param":{"num_deleted":"0","num_feature":"40","num_nodes":"31","size_leaf_vector":"1"}},{"base_weights":[-6.532871E-4,-3.897944E-1,3.7091967E-1,-7.7793944E-1,-2.2535223E-1,1.8077497E-1,7.1080977E-1,-1.2128727E0,-6.866742E-1,-6.808043E-1,-1.2359538E-1,7.444958E-2,6.372787E-1,1.2040195E0,6.226131E-1,-3.995072E-2,-3.0793956E-2,-1.6559942E-2,-2.8401902E-2,-2.5570372E-2,-1.4223645E-2,-2.1363696E-2,-1.7328314E-3,1.8153964E-4,1.9099176E-2,2.4680441E-2,1.32887615E-2,4.003595E-2,3.0319886E-2,1.4879761E-2,2.7029365E-2],"categories":[],"categories_nodes":[],"categories_segments":[],"categories_sizes":[],"default_left":[0,0,0,0,0,0,0,0,0,0,0,0,0,0,0,0,0,0,0,0,0,0,0,0,0,0,0,0,0,0,0],"id":24,"left_children":[1,3,5,7,9,11,13,15,17,19,21,23,25,27,29,-1,-1,-1,-1,-1,-1,-1,-1,-1,-1,-1,-1,-1,-1,-1,-1],"loss_changes":[8.768489E3,1.8903486E3,2.0046235E3,3.488496E2,9.6417664E2,9.6550116E2,4.831294E2,3.2223877E1,2.5457446E2,1.3417236E2,6.5891034E2,6.204517E2,1.3489795E2,4.098413E1,3.3222095E2,0E0,0E0,0E0,0E0,0E0,0E0,0E0,0E0,0E0,0E0,0E0,0E0,0E0,0E0,0E0,0E0],"parents":[2147483647,0,0,1,1,2,2,3,3,4,4,5,5,6,6,7,7,8,8,9,9,10,10,11,11,12,12,13,13,14,14],"right_children":[2,4,6,8,10,12,14,16,18,20,22,24,26,28,30,-1,-1,-1,-1,-1,-1,-1,-1,-1,-1,-1,-1,-1,-1,-1,-1],"split_conditions":[-2.5217313E-2,-9.45255E-1,7.90605E-1,-1.6872329E0,-7.1098113E-1,6.369055E-1,-1.6872641E0,-2.4696252E0,1.01554E0,-2.7892652E-1,-6.475641E-1,5.17321E-1,-2.7896103E-1,-2.4696548E0,1.0155776E0,-3.995072E-2,-3.0793956E-2,-1.6559942E-2,-2.8401902E-2,-2.5570372E-2,-1.4223645E-2,-2.1363696E-2,-1.7328314E-3,1.8153964E-4,1.9099176E-2,2.4680441E-2,1.32887615E-2,4.003595E-2,3.0319886E-2,1.4879761E-2,2.7029365E-2],"split_indices":[2,2,2,4,34,34,5,4,5,4,33,33,5,5,4,0,0,0,0,0,0,0,0,0,0,0,0,0,0,0,0],"split_type":[0,0,0,0,0,0,0,0,0,0,0,0,0,0,0,0,0,0,0,0,0,0,0,0,0,0,0,0,0,0,0],"sum_hessian":[6.063999E4,2.9619883E4,3.1020107E4,8.81317E3,2.0806713E4,1.9893123E4,1.1126983E4,1.5262579E3,7.286912E3,3.7984792E3,1.7008234E4,1.6136187E4,3.7569368E3,1.6858207E3,9.441163E3,9.280375E2,5.982204E2,4.803048E3,2.483864E3,2.0737295E3,1.7247499E3,1.7100306E3,1.5298203E4,1.4386995E4,1.749191E3,1.9206635E3,1.8362732E3,1.0026393E3,6.8318146E2,6.491498E3,2.949665E3],"tree_param":{"num_deleted":"0","num_feature":"40","num_nodes":"31","size_leaf_vector":"1"}},{"base_weights":[1.292294E-3,-4.1312176E-1,5.051313E-1,-8.15501E-1,-2.0289226E-1,3.2791632E-1,9.359219E-1,-1.1263525E0,-6.6726017E-1,-3.6299095E-1,-6.521494E-2,2.0129122E-1,5.0209117E-1,1.3052949E0,8.421905E-1,-3.989941E-2,-3.078863E-2,-2.0705942E-2,7.6679266E-3,-1.2159848E-2,3.6883801E-3,-1.773603E-2,-6.800682E-4,5.1731803E-3,2.9924998E-2,-1.1963413E-2,1.5809199E-2,4.033989E-2,3.2706406E-2,-1.962622E-3,2.5886098E-2],"categories":[],"categories_nodes":[],"categories_segments":[],"categories_sizes":[],"default_left":[0,0,0,0,0,0,0,0,0,0,0,0,0,0,0,0,0,0,0,0,0,0,0,0,0,0,0,0,0,0,0],"id":25,"left_children":[1,3,5,7,9,11,13,15,17,19,21,23,25,27,29,-1,-1,-1,-1,-1,-1,-1,-1,-1,-1,-1,-1,-1,-1,-1,-1],"loss_changes":[1.2623088E4,2.8057876E3,2.082519E3,5.2360986E2,4.8021893E2,4.2622632E2,2.7399365E2,7.325928E1,1.6343091E2,2.0733118E2,2.6212833E2,2.569258E2,1.826333E2,1.1900879E1,1.1923291E2,0E0,0E0,0E0,0E0,0E0,0E0,0E0,0E0,0E0,0E0,0E0,0E0,0E0,0E0,0E0,0E0],"parents":[2147483647,0,0,1,1,2,2,3,3,4,4,5,5,6,6,7,7,8,8,9,9,10,10,11,11,12,12,13,13,14,14],"right_children":[2,4,6,8,10,12,14,16,18,20,22,24,26,28,30,-1,-1,-1,-1,-1,-1,-1,-1,-1,-1,-1,-1,-1,-1,-1,-1],"split_conditions":[7.488904E-2,-7.485974E-1,9.6747893E-1,-1.3739185E0,-2.2456077E-1,4.99109E-1,-2.0713468E0,-2.5079243E0,2.425582E-1,1.3501842E-1,-8.026639E-1,1.3656254E0,-4.1632718E-1,-2.5692317E0,-7.703464E-2,-3.989941E-2,-3.078863E-2,-2.0705942E-2,7.6679266E-3,-1.2159848E-2,3.6883801E-3,-1.773603E-2,-6.800682E-4,5.1731803E-3,2.9924998E-2,-1.1963413E-2,1.5809199E-2,4.033989E-2,3.2706406E-2,-1.962622E-3,2.5886098E-2],"split_indices":[28,28,28,28,28,28,5,4,35,29,31,35,35,5,35,0,0,0,0,0,0,0,0,0,0,0,0,0,0,0,0],"split_type":[0,0,0,0,0,0,0,0,0,0,0,0,0,0,0,0,0,0,0,0,0,0,0,0,0,0,0,0,0,0,0],"sum_hessian":[6.045394E4,3.3170645E4,2.7283299E4,1.138205E4,2.1788594E4,1.9332465E4,7.9508335E3,3.6729128E3,7.709137E3,1.0072905E4,1.1715688E4,1.1195829E4,8.1366367E3,1.6064006E3,6.3444326E3,1.2058221E3,2.4670908E3,7.5225234E3,1.8661395E2,9.265978E3,8.0692804E2,8.7560065E2,1.0840088E4,1.0805612E4,3.9021622E2,2.1818254E2,7.918454E3,1.353028E3,2.5337279E2,1.4117876E2,6.203254E3],"tree_param":{"num_deleted":"0","num_feature":"40","num_nodes":"31","size_leaf_vector":"1"}},{"base_weights":[-3.186116E-3,-4.9751806E-1,3.9376143E-1,-9.1178876E-1,-3.2162437E-1,1.865279E-1,8.079773E-1,-1.1992589E0,-7.894514E-1,-7.486243E-1,-2.7576897E-1,5.196115E-2,3.5129592E-1,6.619888E-1,1.1092764E0,-3.945344E-2,-3.3405744E-2,-3.4860373E-2,-2.20516E-2,-2.5731003E-2,-1.7006142E-2,-9.35199E-3,9.070229E-3,-2.6234606E-2,2.2327637E-3,-1.09347105E-2,1.1288151E-2,1.2676174E-2,2.2108398E-2,3.955795E-2,3.0189546E-2],"categories":[],"categories_nodes":[],"categories_segments":[],"categories_sizes":[],"default_left":[0,0,0,0,0,0,0,0,0,0,0,0,0,0,0,0,0,0,0,0,0,0,0,0,0,0,0,0,0,0,0],"id":26,"left_children":[1,3,5,7,9,11,13,15,17,19,21,23,25,27,29,-1,-1,-1,-1,-1,-1,-1,-1,-1,-1,-1,-1,-1,-1,-1,-1],"loss_changes":[1.1812508E4,1.953227E3,2.8657764E3,2.7985156E2,3.6822717E2,4.9340308E2,4.8880615E2,2.196289E1,1.1261084E2,3.5541077E1,3.535111E2,2.5497682E2,1.7899487E2,1.3422949E2,7.671777E1,0E0,0E0,0E0,0E0,0E0,0E0,0E0,0E0,0E0,0E0,0E0,0E0,0E0,0E0,0E0,0E0],"parents":[2147483647,0,0,1,1,2,2,3,3,4,4,5,5,6,6,7,7,8,8,9,9,10,10,11,11,12,12,13,13,14,14],"right_children":[2,4,6,8,10,12,14,16,18,20,22,24,26,28,30,-1,-1,-1,-1,-1,-1,-1,-1,-1,-1,-1,-1,-1,-1,-1,-1],"split_conditions":[-1.6039301E-1,-8.983223E-1,8.156325E-1,-1.5720838E0,-1.2384226E0,3.2086524E-1,1.3739715E0,-2.6687799E0,-1.4864993E0,-1.4000753E-1,2.946073E-1,-5.778935E-1,-5.4016525E-1,1.9803897E-1,-2.4243925E0,-3.945344E-2,-3.3405744E-2,-3.4860373E-2,-2.20516E-2,-2.5731003E-2,-1.7006142E-2,-9.35199E-3,9.070229E-3,-2.6234606E-2,2.2327637E-3,-1.09347105E-2,1.1288151E-2,1.2676174E-2,2.2108398E-2,3.955795E-2,3.0189546E-2],"split_indices":[28,28,28,28,2,28,28,4,0,16,29,32,29,2,5,0,0,0,0,0,0,0,0,0,0,0,0,0,0,0,0],"split_type":[0,0,0,0,0,0,0,0,0,0,0,0,0,0,0,0,0,0,0,0,0,0,0,0,0,0,0,0,0,0,0],"sum_hessian":[6.0197098E4,2.6809873E4,3.3387227E4,7.9890483E3,1.8820824E4,2.2254781E4,1.1132445E4,2.3820496E3,5.6069985E3,1.8234623E3,1.6997361E4,1.2251143E4,1.0003639E4,7.501344E3,3.6311006E3,1.00646606E3,1.3755836E3,7.1154877E2,4.8954497E3,1.1369019E3,6.865604E2,1.6002485E4,9.94876E2,2.890271E2,1.1962115E4,3.366932E2,9.666945E3,1.7902952E3,5.7110493E3,1.1929547E3,2.438146E3],"tree_param":{"num_deleted":"0","num_feature":"40","num_nodes":"31","size_leaf_vector":"1"}},{"base_weights":[-1.6848015E-3,-3.9128724E-1,4.814927E-1,-7.9404044E-1,-1.9207403E-1,3.1930798E-1,9.283752E-1,-1.0885639E0,-6.5265894E-1,-2.1760002E-1,6.582788E-1,-4.2214498E-1,3.4769243E-1,1.3174716E0,8.4120506E-1,-3.9113406E-2,-2.949357E-2,-2.1985572E-2,-1.2502494E-2,-3.0749165E-2,-5.797073E-3,2.1650158E-2,-8.794848E-3,-1.869287E-2,-3.0749035E-3,6.654012E-3,1.5098841E-2,3.9569143E-2,1.8882856E-2,-4.1977223E-3,2.5842743E-2],"categories":[],"categories_nodes":[],"categories_segments":[],"categories_sizes":[],"default_left":[0,0,0,0,0,0,0,0,0,0,0,0,0,0,0,0,0,0,0,0,0,0,0,0,0,0,0,0,0,0,0],"id":27,"left_children":[1,3,5,7,9,11,13,15,17,19,21,23,25,27,29,-1,-1,-1,-1,-1,-1,-1,-1,-1,-1,-1,-1,-1,-1,-1,-1],"loss_changes":[1.1293535E4,2.6645347E3,1.9405552E3,4.5677734E2,4.8247174E2,4.1370642E2,2.405249E2,7.934717E1,1.401206E2,4.241045E2,3.9325287E1,4.642415E1,3.705791E2,3.1958008E-1,1.1581787E2,0E0,0E0,0E0,0E0,0E0,0E0,0E0,0E0,0E0,0E0,0E0,0E0,0E0,0E0,0E0,0E0],"parents":[2147483647,0,0,1,1,2,2,3,3,4,4,5,5,6,6,7,7,8,8,9,9,10,10,11,11,12,12,13,13,14,14],"right_children":[2,4,6,8,10,12,14,16,18,20,22,24,26,28,30,-1,-1,-1,-1,-1,-1,-1,-1,-1,-1,-1,-1,-1,-1,-1,-1],"split_conditions":[1.6044593E-1,-8.155796E-1,1.1229622E0,-1.3739185E0,1.024213E0,-2.4292642E-1,-2.5079536E0,-2.4696252E0,-2.3358628E-1,-1.7070864E0,3.3429499E0,-1.2221255E0,4.99109E-1,-5.944308E-1,-2.4292642E-1,-3.9113406E-2,-2.949357E-2,-2.1985572E-2,-1.2502494E-2,-3.0749165E-2,-5.797073E-3,2.1650158E-2,-8.794848E-3,-1.869287E-2,-3.0749035E-3,6.654012E-3,1.5098841E-2,3.9569143E-2,1.8882856E-2,-4.1977223E-3,2.5842743E-2],"split_indices":[28,28,28,28,35,35,5,4,2,35,19,35,28,7,35,0,0,0,0,0,0,0,0,0,0,0,0,0,0,0,0],"split_type":[0,0,0,0,0,0,0,0,0,0,0,0,0,0,0,0,0,0,0,0,0,0,0,0,0,0,0,0,0,0,0],"sum_hessian":[5.9991176E4,3.321178E4,2.6779393E4,1.0989868E4,2.2221914E4,1.9649896E4,7.1294956E3,3.5620535E3,7.4278145E3,2.157513E4,6.4678284E2,7.238641E2,1.8926033E4,1.3021044E3,5.827391E3,1.1672819E3,2.3947715E3,5.5415312E3,1.8862836E3,6.30682E2,2.094445E4,6.067055E2,4.0077324E1,4.4367822E2,2.8018585E2,1.0463484E4,8.462549E3,1.298212E3,3.8923907E0,1.1745023E2,5.709941E3],"tree_param":{"num_deleted":"0","num_feature":"40","num_nodes":"31","size_leaf_vector":"1"}},{"base_weights":[-2.1176024E-3,-3.7917525E-1,4.658697E-1,-7.7143234E-1,-1.7693426E-1,3.0575386E-1,9.1374624E-1,-9.9754924E-1,-5.908339E-1,-2.1149865E-1,4.7814485E-1,2.7716115E-1,9.7816294E-1,3.9187983E-2,8.273401E-1,-3.803282E-2,-2.6763957E-2,-1.8112453E-2,2.8851384E-2,-7.2710463E-3,1.4664149E-2,5.6648545E-2,1.13569675E-2,7.132896E-3,2.4330052E-2,1.1733797E-3,3.0609813E-2,-4.438737E-3,2.5402237E-2],"categories":[],"categories_nodes":[],"categories_segments":[],"categories_sizes":[],"default_left":[0,0,0,0,0,0,0,0,0,0,0,0,0,0,0,0,0,0,0,0,0,0,0,0,0,0,0,0,0],"id":28,"left_children":[1,3,5,7,9,11,13,15,17,19,21,23,25,-1,27,-1,-1,-1,-1,-1,-1,-1,-1,-1,-1,-1,-1,-1,-1],"loss_changes":[1.0538925E4,2.623689E3,1.9106553E3,4.5872314E2,4.9425183E2,3.7705957E2,2.3670898E2,1.4091895E2,1.2602222E2,4.4828528E2,1.5268272E2,3.9580994E2,3.1539246E1,0E0,1.09076904E2,0E0,0E0,0E0,0E0,0E0,0E0,0E0,0E0,0E0,0E0,0E0,0E0,0E0,0E0],"parents":[2147483647,0,0,1,1,2,2,3,3,4,4,5,5,6,6,7,7,8,8,9,9,10,10,11,11,12,12,14,14],"right_children":[2,4,6,8,10,12,14,16,18,20,22,24,26,-1,28,-1,-1,-1,-1,-1,-1,-1,-1,-1,-1,-1,-1,-1,-1],"split_conditions":[1.6044593E-1,-6.737352E-1,1.1229622E0,-1.272634E0,7.375036E-1,1.1705326E0,-2.5079536E0,-2.0713165E0,1.4423162E0,4.096706E-1,2.95351E-1,1.1332372E0,-6.1400723E-1,3.9187983E-2,-2.814082E-1,-3.803282E-2,-2.6763957E-2,-1.8112453E-2,2.8851384E-2,-7.2710463E-3,1.4664149E-2,5.6648545E-2,1.13569675E-2,7.132896E-3,2.4330052E-2,1.1733797E-3,3.0609813E-2,-4.438737E-3,2.5402237E-2],"split_indices":[28,28,28,28,33,35,5,4,37,35,15,33,2,0,35,0,0,0,0,0,0,0,0,0,0,0,0,0,0],"split_type":[0,0,0,0,0,0,0,0,0,0,0,0,0,0,0,0,0,0,0,0,0,0,0,0,0,0,0,0,0],"sum_hessian":[5.9722824E4,3.3074824E4,2.6648E4,1.1250524E4,2.1824299E4,1.9631607E4,7.016393E3,4.9934443E3,6.25708E3,2.073127E4,1.0930284E3,1.8832363E4,7.9924316E2,1.2631165E3,5.7532764E3,1.3980112E3,3.5954333E3,6.206131E3,5.0949005E1,1.9856775E4,8.74495E2,7.084382E1,1.0221847E3,1.753956E4,1.292804E3,3.4529354E1,7.647138E2,1.1198516E2,5.6412915E3],"tree_param":{"num_deleted":"0","num_feature":"40","num_nodes":"29","size_leaf_vector":"1"}},{"base_weights":[-2.0800165E-3,-4.6203804E-1,3.673239E-1,-8.9299506E-1,-3.0922854E-1,1.6829652E-1,7.6098704E-1,-1.289411E0,-8.046231E-1,-3.4705913E-1,2.677296E-1,1.396565E-1,8.836325E-1,6.207941E-1,1.06844E0,-3.87277E-2,-6.17516E-3,-3.1683486E-2,-2.1908512E-2,-1.1257015E-2,1.2133102E-2,5.9388787E-2,5.687175E-3,2.7613847E-3,1.7552856E-2,-1.5492138E-2,2.7531989E-2,-1.0239649E-2,1.934336E-2,3.620653E-2,2.8264025E-2],"categories":[],"categories_nodes":[],"categories_segments":[],"categories_sizes":[],"default_left":[0,0,0,0,0,0,0,0,0,0,0,0,0,0,0,0,0,0,0,0,0,0,0,0,0,0,0,0,0,0,0],"id":29,"left_children":[1,3,5,7,9,11,13,15,17,19,21,23,25,27,29,-1,-1,-1,-1,-1,-1,-1,-1,-1,-1,-1,-1,-1,-1,-1,-1],"loss_changes":[1.0108496E4,1.7446626E3,2.5848745E3,2.4172607E2,4.271183E2,4.4877588E2,4.7670898E2,1.6535645E0,1.0513574E2,3.889048E2,1.6053415E2,4.4680106E2,4.077777E1,1.759043E2,5.9292725E1,0E0,0E0,0E0,0E0,0E0,0E0,0E0,0E0,0E0,0E0,0E0,0E0,0E0,0E0,0E0,0E0],"parents":[2147483647,0,0,1,1,2,2,3,3,4,4,5,5,6,6,7,7,8,8,9,9,10,10,11,11,12,12,13,13,14,14],"right_children":[2,4,6,8,10,12,14,16,18,20,22,24,26,28,30,-1,-1,-1,-1,-1,-1,-1,-1,-1,-1,-1,-1,-1,-1,-1,-1],"split_conditions":[-1.6039301E-1,-1.1229092E0,7.486503E-1,-2.370048E0,4.336367E-1,1.0776514E0,1.3739715E0,2.741277E-1,-1.5720838E0,4.096706E-1,2.95351E-1,5.17321E-1,-1.1461554E0,-2.4292642E-1,-1.0771441E0,-3.87277E-2,-6.17516E-3,-3.1683486E-2,-2.1908512E-2,-1.1257015E-2,1.2133102E-2,5.9388787E-2,5.687175E-3,2.7613847E-3,1.7552856E-2,-1.5492138E-2,2.7531989E-2,-1.0239649E-2,1.934336E-2,3.620653E-2,2.8264025E-2],"split_indices":[28,28,28,4,33,35,28,12,28,35,15,33,32,35,1,0,0,0,0,0,0,0,0,0,0,0,0,0,0,0,0],"split_type":[0,0,0,0,0,0,0,0,0,0,0,0,0,0,0,0,0,0,0,0,0,0,0,0,0,0,0,0,0,0,0],"sum_hessian":[5.949108E4,2.6497773E4,3.2993305E4,6.934745E3,1.956303E4,2.1915164E4,1.1078141E4,1.2614502E3,5.673295E3,1.8359768E4,1.2032606E3,2.1072805E4,8.4236017E2,7.611006E3,3.4671353E3,1.2594087E3,2.0415092E0,1.2910542E3,4.3822407E3,1.7696918E4,6.628507E2,5.1418514E1,1.151842E3,1.9039242E4,2.0335623E3,1.962337E1,8.2273676E2,1.8469606E2,7.4263096E3,1.649626E3,1.8175093E3],"tree_param":{"num_deleted":"0","num_feature":"40","num_nodes":"31","size_leaf_vector":"1"}},{"base_weights":[1.1745028E-3,-4.469821E-1,3.6055616E-1,-8.722408E-1,-2.977663E-1,1.6991052E-1,7.4153686E-1,-1.1342466E0,-7.4551374E-1,-4.508424E-1,-1.7638692E-1,-1.6611114E-1,2.3365036E-1,6.0755426E-1,1.0629215E0,-3.548745E-2,-2.8392525E-2,-3.5081998E-2,-2.0899886E-2,-1.4151092E-2,1.1901129E-2,-2.6522273E-2,-4.4374866E-3,-9.493692E-3,2.1114381E-4,6.1358525E-3,2.73785E-2,-1.6940622E-2,1.8726658E-2,3.6345195E-2,2.8420663E-2],"categories":[],"categories_nodes":[],"categories_segments":[],"categories_sizes":[],"default_left":[0,0,0,0,0,0,0,0,0,0,0,0,0,0,0,0,0,0,0,0,0,0,0,0,0,0,0,0,0,0,0],"id":30,"left_children":[1,3,5,7,9,11,13,15,17,19,21,23,25,27,29,-1,-1,-1,-1,-1,-1,-1,-1,-1,-1,-1,-1,-1,-1,-1,-1],"loss_changes":[9.539658E3,1.6722778E3,2.3872954E3,2.2627637E2,3.6244348E2,4.693061E2,4.712339E2,1.9049316E1,9.461182E1,1.527655E2,2.1910422E2,9.098213E1,3.6385675E2,1.5157935E2,5.3996094E1,0E0,0E0,0E0,0E0,0E0,0E0,0E0,0E0,0E0,0E0,0E0,0E0,0E0,0E0,0E0,0E0],"parents":[2147483647,0,0,1,1,2,2,3,3,4,4,5,5,6,6,7,7,8,8,9,9,10,10,11,11,12,12,13,13,14,14],"right_children":[2,4,6,8,10,12,14,16,18,20,22,24,26,28,30,-1,-1,-1,-1,-1,-1,-1,-1,-1,-1,-1,-1,-1,-1,-1,-1],"split_conditions":[-1.6039301E-1,-1.1229092E0,7.486503E-1,-1.5720838E0,-4.990561E-1,-4.7126278E-1,1.4972743E0,1.2319341E-1,-1.6595491E0,6.4012396E-1,-1.0754734E0,2.0822755E-1,1.0776514E0,-2.8846323E-1,-1.176101E0,-3.548745E-2,-2.8392525E-2,-3.5081998E-2,-2.0899886E-2,-1.4151092E-2,1.1901129E-2,-2.6522273E-2,-4.4374866E-3,-9.493692E-3,2.1114381E-4,6.1358525E-3,2.73785E-2,-1.6940622E-2,1.8726658E-2,3.6345195E-2,2.8420663E-2],"split_indices":[28,28,28,28,28,2,28,16,0,35,35,16,35,37,1,0,0,0,0,0,0,0,0,0,0,0,0,0,0,0,0],"split_type":[0,0,0,0,0,0,0,0,0,0,0,0,0,0,0,0,0,0,0,0,0,0,0,0,0,0,0,0,0,0,0],"sum_hessian":[5.922879E4,2.6358568E4,3.2870223E4,6.845024E3,1.9513545E4,2.1908666E4,1.0961555E4,2.2286313E3,4.6163926E3,8.628402E3,1.0885144E4,3.4927139E3,1.8415953E4,7.738599E3,3.2229553E3,1.765374E3,4.6325735E2,4.7445862E2,4.141934E3,8.421682E3,2.0672095E2,4.196806E2,1.0465463E4,1.8693284E3,1.6233854E3,1.7659938E4,7.5601416E2,1.0794508E2,7.6306543E3,1.4055154E3,1.81744E3],"tree_param":{"num_deleted":"0","num_feature":"40","num_nodes":"31","size_leaf_vector":"1"}},{"base_weights":[1.6483557E-3,-3.5202414E-1,4.4295904E-1,-7.3207074E-1,-1.6950464E-1,2.9527804E-1,8.6560476E-1,-1.0334541E0,-5.9458894E-1,-2.1853451E-1,2.2832473E-1,2.4829222E-1,7.152607E-1,1.2716945E0,7.76953E-1,-3.7862126E-2,-2.780256E-2,-1.8900804E-2,-3.1451162E-4,-7.1522966E-3,2.185807E-2,5.967296E-3,3.543773E-2,-1.0869829E-2,8.502314E-3,1.8552493E-2,2.6079403E-2,3.8239304E-2,2.4948657E-2,2.899432E-3,2.4200145E-2],"categories":[],"categories_nodes":[],"categories_segments":[],"categories_sizes":[],"default_left":[0,0,0,0,0,0,0,0,0,0,0,0,0,0,0,0,0,0,0,0,0,0,0,0,0,0,0,0,0,0,0],"id":31,"left_children":[1,3,5,7,9,11,13,15,17,19,21,23,25,27,29,-1,-1,-1,-1,-1,-1,-1,-1,-1,-1,-1,-1,-1,-1,-1,-1],"loss_changes":[9.200024E3,2.2695137E3,1.6364043E3,4.3907617E2,4.312478E2,3.832362E2,2.432378E2,7.9694824E1,1.5088354E2,3.7062653E2,6.76235E1,3.7495532E2,2.8476929E1,3.0578613E-1,1.1256055E2,0E0,0E0,0E0,0E0,0E0,0E0,0E0,0E0,0E0,0E0,0E0,0E0,0E0,0E0,0E0,0E0],"parents":[2147483647,0,0,1,1,2,2,3,3,4,4,5,5,6,6,7,7,8,8,9,9,10,10,11,11,12,12,13,13,14,14],"right_children":[2,4,6,8,10,12,14,16,18,20,22,24,26,28,30,-1,-1,-1,-1,-1,-1,-1,-1,-1,-1,-1,-1,-1,-1,-1,-1],"split_conditions":[1.6044593E-1,-8.155796E-1,1.1229622E0,-1.3739185E0,6.376485E-1,1.2383422E0,-2.4243925E0,-2.5079243E0,8.245723E-2,5.778935E-1,2.1045835E0,-5.1888156E-1,1.6966035E0,-4.0058333E-1,-8.176315E-2,-3.7862126E-2,-2.780256E-2,-1.8900804E-2,-3.1451162E-4,-7.1522966E-3,2.185807E-2,5.967296E-3,3.543773E-2,-1.0869829E-2,8.502314E-3,1.8552493E-2,2.6079403E-2,3.8239304E-2,2.4948657E-2,2.899432E-3,2.4200145E-2],"split_indices":[28,28,28,28,2,2,5,4,33,32,33,33,2,11,33,0,0,0,0,0,0,0,0,0,0,0,0,0,0,0,0],"split_type":[0,0,0,0,0,0,0,0,0,0,0,0,0,0,0,0,0,0,0,0,0,0,0,0,0,0,0,0,0,0,0],"sum_hessian":[5.8942438E4,3.2720084E4,2.6222354E4,1.0614582E4,2.2105502E4,1.9433744E4,6.78861E3,3.3229248E3,7.291657E3,1.9680688E4,2.424814E3,1.747999E4,1.953755E3,1.2138445E3,5.574765E3,1.0536461E3,2.2692788E3,6.8743384E3,4.1731863E2,1.927702E4,4.036685E2,2.3534812E3,7.133287E1,9.4998145E2,1.6530008E4,1.2030989E3,7.506561E2,1.2036552E3,1.0189363E1,2.3365437E2,5.341111E3],"tree_param":{"num_deleted":"0","num_feature":"40","num_nodes":"31","size_leaf_vector":"1"}},{"base_weights":[-1.474599E-3,-4.259511E-1,3.3867782E-1,-8.478171E-1,-2.806293E-1,1.6149653E-1,7.1859103E-1,-3.775159E-2,-7.591118E-1,-6.8877953E-1,-2.3488909E-1,-7.4136734E-1,1.8532039E-1,5.8248216E-1,1.035625E0,-2.3376992E-2,7.279242E-3,-2.6702315E-2,-1.7488431E-2,-7.798077E-3,1.8505054E-2,-2.5756815E-2,-9.561014E-3,-1.3070125E-2,6.573561E-3,-2.004319E-2,1.8029116E-2,3.7646245E-2,2.7859842E-2],"categories":[],"categories_nodes":[],"categories_segments":[],"categories_sizes":[],"default_left":[0,0,0,0,0,0,0,0,0,0,0,0,0,0,0,0,0,0,0,0,0,0,0,0,0,0,0,0,0],"id":32,"left_children":[1,3,5,7,9,11,13,-1,15,17,19,21,23,25,27,-1,-1,-1,-1,-1,-1,-1,-1,-1,-1,-1,-1,-1,-1],"loss_changes":[8.466265E3,1.5988188E3,2.190923E3,2.4222363E2,3.6198267E2,4.7759344E2,4.4594678E2,0E0,1.1106494E2,4.0973938E1,3.7237756E2,2.7883392E1,4.5405438E2,1.6791602E2,7.1503174E1,0E0,0E0,0E0,0E0,0E0,0E0,0E0,0E0,0E0,0E0,0E0,0E0,0E0,0E0],"parents":[2147483647,0,0,1,1,2,2,3,3,4,4,5,5,6,6,8,8,9,9,10,10,11,11,12,12,13,13,14,14],"right_children":[2,4,6,8,10,12,14,-1,16,18,20,22,24,26,28,-1,-1,-1,-1,-1,-1,-1,-1,-1,-1,-1,-1,-1,-1],"split_conditions":[-1.6039301E-1,-1.1229092E0,8.983751E-1,-2.370048E0,-1.2384226E0,-1.2221255E0,1.4972743E0,-3.775159E-2,2.425582E-1,-1.750953E0,1.0294158E0,1.4972256E-1,-7.375036E-1,-2.8846323E-1,-2.5692317E0,-2.3376992E-2,7.279242E-3,-2.6702315E-2,-1.7488431E-2,-7.798077E-3,1.8505054E-2,-2.5756815E-2,-9.561014E-3,-1.3070125E-2,6.573561E-3,-2.004319E-2,1.8029116E-2,3.7646245E-2,2.7859842E-2],"split_indices":[28,28,28,4,2,35,28,0,35,2,33,31,33,37,5,0,0,0,0,0,0,0,0,0,0,0,0,0,0],"split_type":[0,0,0,0,0,0,0,0,0,0,0,0,0,0,0,0,0,0,0,0,0,0,0,0,0,0,0,0,0],"sum_hessian":[5.8633984E4,2.6083902E4,3.2550082E4,6.6816616E3,1.940224E4,2.2198834E4,1.0351249E4,1.1845768E3,5.4970845E3,1.9535983E3,1.7448643E4,5.698189E2,2.1629016E4,7.2442876E3,3.1069614E3,5.3891597E3,1.0792504E2,6.7029913E2,1.2832992E3,1.6950975E4,4.9766846E2,4.4512955E2,1.2468937E2,1.1156599E3,2.0513355E4,1.04947174E2,7.139341E3,1.01493005E3,2.0920315E3],"tree_param":{"num_deleted":"0","num_feature":"40","num_nodes":"29","size_leaf_vector":"1"}},{"base_weights":[-8.6499174E-4,-3.3539835E-1,4.1715303E-1,-8.03131E-1,-1.9811994E-1,2.743707E-1,8.357785E-1,-1.2338217E0,-7.1424043E-1,-3.4749892E-1,-3.9823815E-2,-2.100215E-1,3.1275472E-1,1.2517749E0,7.4629074E-1,-3.7273657E-2,-8.865814E-3,-2.9037476E-2,-1.8994149E-2,-1.0827659E-2,3.0661693E-2,-1.664081E-2,5.9912047E-5,-3.702009E-2,-2.9844404E-3,-1.4497477E-2,1.0200225E-2,3.764217E-2,2.4930352E-2,-1.9667423E-3,2.3138518E-2],"categories":[],"categories_nodes":[],"categories_segments":[],"categories_sizes":[],"default_left":[0,0,0,0,0,0,0,0,0,0,0,0,0,0,0,0,0,0,0,0,0,0,0,0,0,0,0,0,0,0,0],"id":33,"left_children":[1,3,5,7,9,11,13,15,17,19,21,23,25,27,29,-1,-1,-1,-1,-1,-1,-1,-1,-1,-1,-1,-1,-1,-1,-1,-1],"loss_changes":[8.192558E3,2.0892585E3,1.5562935E3,2.815923E2,5.9487756E2,3.6116882E2,2.4540869E2,9.698975E0,1.2519556E2,2.382605E2,2.6311087E2,1.6119528E2,3.905349E2,2.0874023E-1,1.10765625E2,0E0,0E0,0E0,0E0,0E0,0E0,0E0,0E0,0E0,0E0,0E0,0E0,0E0,0E0,0E0,0E0],"parents":[2147483647,0,0,1,1,2,2,3,3,4,4,5,5,6,6,7,7,8,8,9,9,10,10,11,11,12,12,13,13,14,14],"right_children":[2,4,6,8,10,12,14,16,18,20,22,24,26,28,30,-1,-1,-1,-1,-1,-1,-1,-1,-1,-1,-1,-1,-1,-1,-1,-1],"split_conditions":[1.6044593E-1,-8.983223E-1,1.1229622E0,-2.2206824E0,-3.2081234E-1,-2.544002E-1,-2.3700778E0,2.95351E-1,-1.5720837E0,1.8315127E0,-8.026639E-1,9.4169444E-1,-6.401726E-1,-3.6195114E-1,-3.2378206E-1,-3.7273657E-2,-8.865814E-3,-2.9037476E-2,-1.8994149E-2,-1.0827659E-2,3.0661693E-2,-1.664081E-2,5.9912047E-5,-3.702009E-2,-2.9844404E-3,-1.4497477E-2,1.0200225E-2,3.764217E-2,2.4930352E-2,-1.9667423E-3,2.3138518E-2],"split_indices":[28,28,28,4,28,33,5,14,28,37,31,14,35,11,33,0,0,0,0,0,0,0,0,0,0,0,0,0,0,0,0],"split_type":[0,0,0,0,0,0,0,0,0,0,0,0,0,0,0,0,0,0,0,0,0,0,0,0,0,0,0,0,0,0,0],"sum_hessian":[5.8582875E4,3.2541139E4,2.6041734E4,7.3823945E3,2.5158744E4,1.9419977E4,6.621759E3,1.2605923E3,6.1218027E3,1.2943012E4,1.2215733E4,1.4253616E3,1.7994613E4,1.1697769E3,5.451982E3,1.2486722E3,1.1920029E1,1.4801001E3,4.641702E3,1.2818189E4,1.24821945E2,9.169541E2,1.1298779E4,1.3779922E2,1.2875624E3,5.950121E2,1.7399602E4,1.1593899E3,1.038704E1,1.6266115E2,5.289321E3],"tree_param":{"num_deleted":"0","num_feature":"40","num_nodes":"31","size_leaf_vector":"1"}},{"base_weights":[-5.4969086E-4,-2.4611546E-1,3.8381588E-1,-5.726963E-1,-9.333677E-2,2.659205E-1,7.9219556E-1,-1.1534485E0,-5.067847E-1,-6.116305E-1,-2.0043332E-2,1.8351582E-1,7.4842894E-1,1.177622E0,7.152735E-1,-3.701129E-2,-2.8918972E-2,-2.6469927E-2,-1.2823737E-2,-2.5402542E-2,-1.3743814E-2,-1.4127959E-2,3.2891459E-3,1.8077493E-3,1.9609906E-2,1.7233688E-2,2.9520221E-2,3.635558E-2,2.710159E-2,1.8992586E-2,2.9682765E-2],"categories":[],"categories_nodes":[],"categories_segments":[],"categories_sizes":[],"default_left":[0,0,0,0,0,0,0,0,0,0,0,0,0,0,0,0,0,0,0,0,0,0,0,0,0,0,0,0,0,0,0],"id":34,"left_children":[1,3,5,7,9,11,13,15,17,19,21,23,25,27,29,-1,-1,-1,-1,-1,-1,-1,-1,-1,-1,-1,-1,-1,-1,-1,-1],"loss_changes":[5.505778E3,1.7757622E3,1.0944961E3,4.3345898E2,9.2112915E2,7.0143274E2,1.499751E2,1.6160278E1,3.030381E2,1.07909546E2,1.2424385E3,8.734362E2,1.0475989E2,6.631958E0,9.4943115E1,0E0,0E0,0E0,0E0,0E0,0E0,0E0,0E0,0E0,0E0,0E0,0E0,0E0,0E0,0E0,0E0],"parents":[2147483647,0,0,1,1,2,2,3,3,4,4,5,5,6,6,7,7,8,8,9,9,10,10,11,11,12,12,13,13,14,14],"right_children":[2,4,6,8,10,12,14,16,18,20,22,24,26,28,30,-1,-1,-1,-1,-1,-1,-1,-1,-1,-1,-1,-1,-1,-1,-1,-1],"split_conditions":[2.3359242E-1,-7.3633844E-1,1.2383422E0,-1.8812145E0,-5.83746E-1,8.30977E-1,-1.8812453E0,-2.6687799E0,-1.6966211E0,6.038833E-1,-3.3761016E-1,7.506109E-1,1.5861275E0,-5.1313066E-1,2.007285E0,-3.701129E-2,-2.8918972E-2,-2.6469927E-2,-1.2823737E-2,-2.5402542E-2,-1.3743814E-2,-1.4127959E-2,3.2891459E-3,1.8077493E-3,1.9609906E-2,1.7233688E-2,2.9520221E-2,3.635558E-2,2.710159E-2,1.8992586E-2,2.9682765E-2],"split_indices":[2,2,2,4,31,29,5,4,2,10,29,31,29,17,2,0,0,0,0,0,0,0,0,0,0,0,0,0,0,0,0],"split_type":[0,0,0,0,0,0,0,0,0,0,0,0,0,0,0,0,0,0,0,0,0,0,0,0,0,0,0,0,0,0,0],"sum_hessian":[5.8330074E4,3.559167E4,2.27384E4,1.1342487E4,2.4249186E4,1.7646047E4,5.0923535E3,1.1542543E3,1.0188233E4,3.0032222E3,2.1245963E4,1.507335E4,2.5726978E3,8.4463043E2,4.247723E3,8.065682E2,3.4768613E2,1.774773E3,8.41346E3,1.1842064E3,1.8190157E3,4.74528E3,1.6500684E4,1.1943493E4,3.1298562E3,1.4820669E3,1.0906309E3,7.475372E2,9.709327E1,3.2708406E3,9.7688245E2],"tree_param":{"num_deleted":"0","num_feature":"40","num_nodes":"31","size_leaf_vector":"1"}},{"base_weights":[1.41183E-3,-3.184639E-1,4.010408E-1,-6.7810446E-1,-1.5074305E-1,2.5191364E-1,7.8918517E-1,-1.2137542E0,-6.031826E-1,-8.404547E-1,-1.2358443E-1,-1.7324954E-1,2.9424185E-1,1.2405378E0,7.047848E-1,-3.7291992E-2,-2.8194552E-2,-2.5293741E-2,-1.5245767E-2,-2.6282981E-2,1.3607616E-2,-1.839607E-2,-2.4018975E-3,-2.4765477E-2,-1.8833474E-3,-8.888169E-3,9.9581415E-3,3.726735E-2,1.6549315E-2,1.4174017E-2,2.3802558E-2],"categories":[],"categories_nodes":[],"categories_segments":[],"categories_sizes":[],"default_left":[0,0,0,0,0,0,0,0,0,0,0,0,0,0,0,0,0,0,0,0,0,0,0,0,0,0,0,0,0,0,0],"id":35,"left_children":[1,3,5,7,9,11,13,15,17,19,21,23,25,27,29,-1,-1,-1,-1,-1,-1,-1,-1,-1,-1,-1,-1,-1,-1,-1,-1],"loss_changes":[7.4127905E3,1.9425793E3,1.4919526E3,4.1015283E2,4.1126132E2,3.3527283E2,2.715E2,8.696411E0,2.0429663E2,3.8810547E1,4.5024777E2,1.2141327E2,3.7720117E2,4.5922852E-1,1.2367212E2,0E0,0E0,0E0,0E0,0E0,0E0,0E0,0E0,0E0,0E0,0E0,0E0,0E0,0E0,0E0,0E0],"parents":[2147483647,0,0,1,1,2,2,3,3,4,4,5,5,6,6,7,7,8,8,9,9,10,10,11,11,12,12,13,13,14,14],"right_children":[2,4,6,8,10,12,14,16,18,20,22,24,26,28,30,-1,-1,-1,-1,-1,-1,-1,-1,-1,-1,-1,-1,-1,-1,-1,-1],"split_conditions":[1.6044593E-1,-8.155796E-1,9.6747893E-1,-2.2206824E0,-1.0754734E0,-1.157641E-1,-2.5079536E0,-2.5692027E0,-1.1893342E0,1.1461554E0,-7.375036E-1,2.4966815E-1,-2.9185545E-1,-5.944308E-1,4.7138506E-1,-3.7291992E-2,-2.8194552E-2,-2.5293741E-2,-1.5245767E-2,-2.6282981E-2,1.3607616E-2,-1.839607E-2,-2.4018975E-3,-2.4765477E-2,-1.8833474E-3,-8.888169E-3,9.9581415E-3,3.726735E-2,1.6549315E-2,1.4174017E-2,2.3802558E-2],"split_indices":[28,28,28,4,35,29,5,4,2,32,33,6,31,7,2,0,0,0,0,0,0,0,0,0,0,0,0,0,0,0,0],"split_type":[0,0,0,0,0,0,0,0,0,0,0,0,0,0,0,0,0,0,0,0,0,0,0,0,0,0,0,0,0,0,0],"sum_hessian":[5.7986652E4,3.2207055E4,2.5779598E4,1.0241902E4,2.1965152E4,1.862549E4,7.154107E3,1.2547318E3,8.987171E3,8.308755E2,2.1134277E4,1.6859203E3,1.693957E4,1.1246848E3,6.0294224E3,1.1299229E3,1.2480903E2,2.5463228E3,6.4408477E3,8.089919E2,2.1883625E1,1.7239757E3,1.94103E4,2.4311208E2,1.4428082E3,1.0158996E3,1.5923671E4,1.1209584E3,3.726476E0,1.6671436E3,4.362279E3],"tree_param":{"num_deleted":"0","num_feature":"40","num_nodes":"31","size_leaf_vector":"1"}},{"base_weights":[8.075996E-4,-4.795612E-1,2.593707E-1,-8.7823E-1,-3.5847986E-1,5.1706415E-2,5.751757E-1,-3.6700893E-2,-7.833621E-1,-3.942559E-1,1.3519697E-1,8.411023E-3,5.458265E-1,4.3479055E-1,8.77279E-1,-2.570126E-2,-1.5884684E-2,-1.2983013E-2,4.138864E-3,2.1373808E-2,-1.5569006E-3,-1.5843306E-2,1.3273228E-3,1.7508395E-2,-1.0453567E-2,-3.4622343E-3,1.4105549E-2,3.673708E-2,2.3452748E-2],"categories":[],"categories_nodes":[],"categories_segments":[],"categories_sizes":[],"default_left":[0,0,0,0,0,0,0,0,0,0,0,0,0,0,0,0,0,0,0,0,0,0,0,0,0,0,0,0,0],"id":36,"left_children":[1,3,5,7,9,11,13,-1,15,17,19,21,23,25,27,-1,-1,-1,-1,-1,-1,-1,-1,-1,-1,-1,-1,-1,-1],"loss_changes":[7.1973296E3,9.783301E2,2.4704028E3,1.5347217E2,2.7480273E2,4.8615668E2,6.3327295E2,0E0,6.84436E1,2.973694E2,1.1367947E2,4.0174167E2,6.209265E1,1.9882141E2,1.5608228E2,0E0,0E0,0E0,0E0,0E0,0E0,0E0,0E0,0E0,0E0,0E0,0E0,0E0,0E0],"parents":[2147483647,0,0,1,1,2,2,3,3,4,4,5,5,6,6,8,8,9,9,10,10,11,11,12,12,13,13,14,14],"right_children":[2,4,6,8,10,12,14,-1,16,18,20,22,24,26,28,-1,-1,-1,-1,-1,-1,-1,-1,-1,-1,-1,-1,-1,-1],"split_conditions":[-2.2456077E-1,-1.1229095E0,4.99109E-1,-2.5692027E0,1.3501842E-1,8.0273414E-1,1.1550461E0,-3.6700893E-2,-4.7126278E-1,9.7331956E-2,4.185045E-1,-8.026639E-1,1.3379462E0,-1.6189103E-1,-2.5079536E0,-2.570126E-2,-1.5884684E-2,-1.2983013E-2,4.138864E-3,2.1373808E-2,-1.5569006E-3,-1.5843306E-2,1.3273228E-3,1.7508395E-2,-1.0453567E-2,-3.4622343E-3,1.4105549E-2,3.673708E-2,2.3452748E-2],"split_indices":[28,28,28,4,29,31,28,0,2,31,7,31,17,33,5,0,0,0,0,0,0,0,0,0,0,0,0,0,0],"split_type":[0,0,0,0,0,0,0,0,0,0,0,0,0,0,0,0,0,0,0,0,0,0,0,0,0,0,0,0,0],"sum_hessian":[5.7945047E4,2.0275387E4,3.766966E4,4.721719E3,1.5553668E4,2.2726707E4,1.4942951E4,1.0152498E3,3.7064695E3,1.4503057E4,1.0506113E3,2.0896914E4,1.8297932E3,1.0203999E4,4.738952E3,2.8735112E3,8.3295807E2,1.3524781E4,9.782753E2,2.5660437E2,7.940069E2,1.3072468E3,1.9589668E4,1.7560526E3,7.37406E1,6.164434E2,9.587556E3,1.0194841E3,3.7194683E3],"tree_param":{"num_deleted":"0","num_feature":"40","num_nodes":"29","size_leaf_vector":"1"}},{"base_weights":[4.834952E-4,-1.16832025E-1,4.77262E-1,-2.0010026E-1,5.402229E-1,1.2073016E0,4.2192462E-1,-2.8257748E-1,3.2431024E-1,1.1441909E0,3.87129E-1,1.2160769E0,2.4643743E-1,4.8316258E-1,4.424134E-2,-2.1658793E-2,-5.8893184E-3,6.681061E-3,2.2936797E-2,4.09205E-2,2.486004E-2,-1.535554E-2,1.2619893E-2,3.68975E-2,2.6876235E-2,-2.6366943E-2,2.3416916E-2,9.869995E-3,1.8023837E-2,2.862378E-3,-2.60411E-2],"categories":[],"categories_nodes":[],"categories_segments":[],"categories_sizes":[],"default_left":[0,0,0,0,0,0,0,0,0,0,0,0,0,0,0,0,0,0,0,0,0,0,0,0,0,0,0,0,0,0,0],"id":37,"left_children":[1,3,5,7,9,11,13,15,17,19,21,23,25,27,29,-1,-1,-1,-1,-1,-1,-1,-1,-1,-1,-1,-1,-1,-1,-1,-1],"loss_changes":[3.2257332E3,2.5322412E3,4.5939648E2,1.7767555E3,4.8074426E2,6.314209E0,2.4480005E2,1.3451897E3,2.4946509E2,7.1621704E1,1.2545459E2,2.204834E0,5.8532968E0,1.6491528E2,6.902517E1,0E0,0E0,0E0,0E0,0E0,0E0,0E0,0E0,0E0,0E0,0E0,0E0,0E0,0E0,0E0,0E0],"parents":[2147483647,0,0,1,1,2,2,3,3,4,4,5,5,6,6,7,7,8,8,9,9,10,10,11,11,12,12,13,13,14,14],"right_children":[2,4,6,8,10,12,14,16,18,20,22,24,26,28,30,-1,-1,-1,-1,-1,-1,-1,-1,-1,-1,-1,-1,-1,-1,-1,-1],"split_conditions":[3.477615E-1,4.336367E-1,-2.2207122E0,3.6007968E-1,8.964956E-1,-2.567857E-1,5.1765466E-1,-8.7638986E-1,1.5209218E0,5.010057E-1,-1.2041659E0,-4.0058333E-1,-9.774039E-1,8.559925E-1,1.5644461E0,-2.1658793E-2,-5.8893184E-3,6.681061E-3,2.2936797E-2,4.09205E-2,2.486004E-2,-1.535554E-2,1.2619893E-2,3.68975E-2,2.6876235E-2,-2.6366943E-2,2.3416916E-2,9.869995E-3,1.8023837E-2,2.862378E-3,-2.60411E-2],"split_indices":[34,33,5,29,15,7,5,4,29,15,0,11,0,34,19,0,0,0,0,0,0,0,0,0,0,0,0,0,0,0,0],"split_type":[0,0,0,0,0,0,0,0,0,0,0,0,0,0,0,0,0,0,0,0,0,0,0,0,0,0,0,0,0,0,0],"sum_hessian":[5.76682E4,4.628092E4,1.138728E4,4.1076203E4,5.2047188E3,8.0074927E2,1.0586531E4,3.549443E4,5.581772E3,1.0510627E3,4.153656E3,7.9313617E2,7.6131077E0,9.109039E3,1.4774926E3,5.823765E3,2.9670664E4,4.5364966E3,1.0452756E3,6.1732825E2,4.3373444E2,1.487493E2,4.0049067E3,7.5725256E2,3.58836E1,2.1823885E0,5.4307194E0,3.944378E3,5.1646606E3,1.3999707E3,7.752177E1],"tree_param":{"num_deleted":"0","num_feature":"40","num_nodes":"31","size_leaf_vector":"1"}},{"base_weights":[1.0382202E-3,-2.0514068E-1,3.949491E-1,-3.076919E-1,2.456748E-1,2.788925E-1,7.4411786E-1,-7.7572614E-1,-2.2539195E-1,3.1072277E-1,-1.4982942E-1,2.0373012E-1,6.9979054E-1,1.154549E0,6.72681E-1,-3.2541044E-2,-1.9515585E-2,-2.0596331E-2,-3.4311656E-3,-1.7143795E-2,1.0162637E-2,-2.997952E-3,-3.2367684E-2,3.194428E-3,2.1026812E-2,3.4084234E-2,1.8165054E-2,-6.501818E-3,3.4780394E-2,1.7145578E-2,2.7105793E-2],"categories":[],"categories_nodes":[],"categories_segments":[],"categories_sizes":[],"default_left":[0,0,0,0,0,0,0,0,0,0,0,0,0,0,0,0,0,0,0,0,0,0,0,0,0,0,0,0,0,0,0],"id":38,"left_children":[1,3,5,7,9,11,13,15,17,19,21,23,25,27,29,-1,-1,-1,-1,-1,-1,-1,-1,-1,-1,-1,-1,-1,-1,-1,-1],"loss_changes":[4.6732197E3,1.7462727E3,8.008313E2,1.1850134E3,1.8015198E2,4.692351E2,1.4361841E2,1.7711865E2,1.3397311E3,1.4884064E2,4.563056E1,6.0869727E2,9.162305E1,5.144104E0,9.747876E1,0E0,0E0,0E0,0E0,0E0,0E0,0E0,0E0,0E0,0E0,0E0,0E0,0E0,0E0,0E0,0E0],"parents":[2147483647,0,0,1,1,2,2,3,3,4,4,5,5,6,6,7,7,8,8,9,9,10,10,11,11,12,12,13,13,14,14],"right_children":[2,4,6,8,10,12,14,16,18,20,22,24,26,28,30,-1,-1,-1,-1,-1,-1,-1,-1,-1,-1,-1,-1,-1,-1,-1,-1],"split_conditions":[3.3399293E-1,1.5309669E-2,1.2383422E0,-1.0610212E0,7.6659733E-1,8.30977E-1,-1.9717698E0,-1.1236937E-2,-7.505407E-1,-9.590339E-1,1.5644461E0,1.0008028E0,-1.3761683E-1,-5.1888156E-1,1.8671956E0,-3.2541044E-2,-1.9515585E-2,-2.0596331E-2,-3.4311656E-3,-1.7143795E-2,1.0162637E-2,-2.997952E-3,-3.2367684E-2,3.194428E-3,2.1026812E-2,3.4084234E-2,1.8165054E-2,-6.501818E-3,3.4780394E-2,1.7145578E-2,2.7105793E-2],"split_indices":[2,34,2,29,5,29,5,6,31,31,19,31,7,33,2,0,0,0,0,0,0,0,0,0,0,0,0,0,0,0,0],"split_type":[0,0,0,0,0,0,0,0,0,0,0,0,0,0,0,0,0,0,0,0,0,0,0,0,0,0,0,0,0,0,0],"sum_hessian":[5.7538312E4,3.776944E4,1.976887E4,3.077036E4,6.999083E3,1.4838828E4,4.9300415E3,4.600124E3,2.6170234E4,6.01094E3,9.881427E2,1.2591932E4,2.246897E3,7.2842303E2,4.2016187E3,1.3241138E3,3.2760105E3,5.076685E3,2.1093549E4,1.844116E2,5.8265283E3,9.389318E2,4.921086E1,1.0533007E4,2.058925E3,3.970968E2,1.8498002E3,2.3128762E0,7.2611017E2,2.9241143E3,1.2775044E3],"tree_param":{"num_deleted":"0","num_feature":"40","num_nodes":"31","size_leaf_vector":"1"}},{"base_weights":[2.3223697E-3,-2.3712346E-1,4.5886025E-1,-6.341885E-1,-9.131546E-2,3.42341E-1,8.480632E-1,-1.1994145E0,-5.6251866E-1,-1.2612964E-1,5.3601646E-1,-1.3141404E-1,3.7668896E-1,3.6062308E-2,7.5078875E-1,-3.661089E-2,-2.8660368E-2,-2.2179496E-2,-1.3366849E-2,-4.396797E-3,2.379858E-2,2.6404407E-2,9.6700685E-3,-5.729903E-3,1.4655973E-2,-2.2021644E-2,1.1794203E-2,-1.6831769E-2,2.3079915E-2],"categories":[],"categories_nodes":[],"categories_segments":[],"categories_sizes":[],"default_left":[0,0,0,0,0,0,0,0,0,0,0,0,0,0,0,0,0,0,0,0,0,0,0,0,0,0,0,0,0],"id":39,"left_children":[1,3,5,7,9,11,13,15,17,19,21,23,25,-1,27,-1,-1,-1,-1,-1,-1,-1,-1,-1,-1,-1,-1,-1,-1],"loss_changes":[6.2617725E3,2.1752275E3,8.933013E2,4.079519E2,6.002681E2,2.4690259E2,1.5523267E2,4.4174805E0,1.8478247E2,4.891748E2,1.0585739E2,3.7959694E1,2.586986E2,0E0,8.7144165E1,0E0,0E0,0E0,0E0,0E0,0E0,0E0,0E0,0E0,0E0,0E0,0E0,0E0,0E0],"parents":[2147483647,0,0,1,1,2,2,3,3,4,4,5,5,6,6,7,7,8,8,9,9,10,10,11,11,12,12,14,14],"right_children":[2,4,6,8,10,12,14,16,18,20,22,24,26,-1,28,-1,-1,-1,-1,-1,-1,-1,-1,-1,-1,-1,-1,-1,-1],"split_conditions":[3.2086524E-1,-7.485974E-1,1.1550461E0,-2.3386028E0,8.0273414E-1,-9.478094E-2,-2.3700778E0,-2.6687799E0,-1.1229095E0,1.1461554E0,6.0385317E-1,1.3497038E0,-1.1461554E0,3.6062308E-2,8.078989E-18,-3.661089E-2,-2.8660368E-2,-2.2179496E-2,-1.3366849E-2,-4.396797E-3,2.379858E-2,2.6404407E-2,9.6700685E-3,-5.729903E-3,1.4655973E-2,-2.2021644E-2,1.1794203E-2,-1.6831769E-2,2.3079915E-2],"split_indices":[28,28,28,4,31,29,5,4,28,32,11,2,32,0,32,0,0,0,0,0,0,0,0,0,0,0,0,0,0],"split_type":[0,0,0,0,0,0,0,0,0,0,0,0,0,0,0,0,0,0,0,0,0,0,0,0,0,0,0,0,0],"sum_hessian":[5.7279145E4,3.7573035E4,1.9706113E4,1.0090501E4,2.7482533E4,1.5167435E4,4.5386772E3,1.133555E3,8.956946E3,2.603847E4,1.4440629E3,1.0249365E3,1.4142498E4,9.756343E2,3.5630432E3,1.0398912E3,9.366379E1,3.5637036E3,5.393242E3,2.5473377E4,5.650929E2,5.518032E2,8.922597E2,9.3584607E2,8.909045E1,2.0568098E2,1.3936817E4,4.917536E1,3.5138677E3],"tree_param":{"num_deleted":"0","num_feature":"40","num_nodes":"29","size_leaf_vector":"1"}},{"base_weights":[1.9053309E-3,-4.3854004E-1,2.3735477E-1,-8.293408E-1,-3.2274386E-1,5.1316783E-2,5.2758986E-1,-1.1237797E0,-7.3032963E-1,-3.3471072E-1,1.0974915E0,2.5453778E-2,7.639306E-1,4.271913E-1,9.444095E-1,-3.3833873E-2,2.180069E-2,-2.226097E-2,3.456187E-2,-1.1170442E-2,3.5155935E-3,6.6579826E-2,1.860479E-2,-4.621896E-4,1.460602E-2,-1.5168205E-2,2.4107369E-2,-1.5200162E-2,1.3457035E-2,3.571128E-2,2.4895461E-2],"categories":[],"categories_nodes":[],"categories_segments":[],"categories_sizes":[],"default_left":[0,0,0,0,0,0,0,0,0,0,0,0,0,0,0,0,0,0,0,0,0,0,0,0,0,0,0,0,0,0,0],"id":40,"left_children":[1,3,5,7,9,11,13,15,17,19,21,23,25,27,29,-1,-1,-1,-1,-1,-1,-1,-1,-1,-1,-1,-1,-1,-1,-1,-1],"loss_changes":[5.921068E3,8.996885E2,2.0089058E3,1.3150659E2,2.6109412E2,4.178078E2,6.0764795E2,9.344849E0,7.581665E1,2.5889648E2,6.70865E1,4.1260397E2,4.039972E1,2.3406885E2,7.827417E1,0E0,0E0,0E0,0E0,0E0,0E0,0E0,0E0,0E0,0E0,0E0,0E0,0E0,0E0,0E0,0E0],"parents":[2147483647,0,0,1,1,2,2,3,3,4,4,5,5,6,6,7,7,8,8,9,9,10,10,11,11,12,12,13,13,14,14],"right_children":[2,4,6,8,10,12,14,16,18,20,22,24,26,28,30,-1,-1,-1,-1,-1,-1,-1,-1,-1,-1,-1,-1,-1,-1,-1,-1],"split_conditions":[-2.2456077E-1,-1.1229095E0,4.99109E-1,-1.5386655E0,1.9230883E0,1.0776514E0,1.4972743E0,6.70318E-1,1.910259E0,8.245723E-2,1.4900582E0,8.0273414E-1,-5.778935E-1,-6.401726E-1,-2.3700778E0,-3.3833873E-2,2.180069E-2,-2.226097E-2,3.456187E-2,-1.1170442E-2,3.5155935E-3,6.6579826E-2,1.860479E-2,-4.621896E-4,1.460602E-2,-1.5168205E-2,2.4107369E-2,-1.5200162E-2,1.3457035E-2,3.571128E-2,2.4895461E-2],"split_indices":[28,28,28,0,37,35,28,18,32,33,23,31,32,35,5,0,0,0,0,0,0,0,0,0,0,0,0,0,0,0,0],"split_type":[0,0,0,0,0,0,0,0,0,0,0,0,0,0,0,0,0,0,0,0,0,0,0,0,0,0,0,0,0,0,0],"sum_hessian":[5.70948E4,1.988865E4,3.720615E4,4.5444727E3,1.5344178E4,2.2673906E4,1.4532242E4,1.1407517E3,3.4037212E3,1.5216796E4,1.2738158E2,2.1880955E4,7.929528E2,1.1713177E4,2.8190657E3,1.1387249E3,2.026865E0,3.383346E3,2.0375092E1,1.4047236E4,1.1695599E3,3.6869972E1,9.0511604E1,2.0101621E4,1.7793326E3,2.3582066E1,7.693708E2,2.6150717E2,1.145167E4,8.9252203E2,1.9265436E3],"tree_param":{"num_deleted":"0","num_feature":"40","num_nodes":"31","size_leaf_vector":"1"}},{"base_weights":[-2.8700482E-3,-2.3213413E-1,4.3601695E-1,-5.2177244E-1,-4.8104562E-2,3.219933E-1,8.2069176E-1,-9.117197E-1,-4.2445415E-1,-8.305449E-2,5.103994E-1,-9.852758E-1,3.3511046E-1,3.568925E-2,7.240747E-1,-3.558596E-2,-2.3812635E-2,-1.3387767E-2,1.275505E-2,-3.2069793E-3,2.0050408E-2,1.7562533E-2,-9.003869E-3,-5.7683595E-2,-2.1586318E-2,9.338919E-3,3.108961E-2,-2.623378E-2,2.2131478E-2],"categories":[],"categories_nodes":[],"categories_segments":[],"categories_sizes":[],"default_left":[0,0,0,0,0,0,0,0,0,0,0,0,0,0,0,0,0,0,0,0,0,0,0,0,0,0,0,0,0],"id":41,"left_children":[1,3,5,7,9,11,13,15,17,19,21,23,25,-1,27,-1,-1,-1,-1,-1,-1,-1,-1,-1,-1,-1,-1,-1,-1],"loss_changes":[5.7361333E3,1.9958938E3,8.576045E2,5.515779E2,4.4698288E2,2.5902917E2,1.5834644E2,9.2907715E1,2.1592212E2,3.8615533E2,8.220242E1,3.574379E1,2.4903223E2,0E0,7.7964355E1,0E0,0E0,0E0,0E0,0E0,0E0,0E0,0E0,0E0,0E0,0E0,0E0,0E0,0E0],"parents":[2147483647,0,0,1,1,2,2,3,3,4,4,5,5,6,6,7,7,8,8,9,9,10,10,11,11,12,12,14,14],"right_children":[2,4,6,8,10,12,14,16,18,20,22,24,26,-1,28,-1,-1,-1,-1,-1,-1,-1,-1,-1,-1,-1,-1,-1,-1],"split_conditions":[3.2086524E-1,-4.4914797E-1,1.1550461E0,-1.3739185E0,8.0273414E-1,-1.6346251E0,-2.5079536E0,-2.424363E0,4.1673428E-1,1.0776514E0,2.7286851E0,-6.2958245E0,1.9381478E0,3.568925E-2,-1.1461554E0,-3.558596E-2,-2.3812635E-2,-1.3387767E-2,1.275505E-2,-3.2069793E-3,2.0050408E-2,1.7562533E-2,-9.003869E-3,-5.7683595E-2,-2.1586318E-2,9.338919E-3,3.108961E-2,-2.623378E-2,2.2131478E-2],"split_indices":[28,28,28,28,31,37,5,4,35,35,10,37,35,0,32,0,0,0,0,0,0,0,0,0,0,0,0,0,0],"split_type":[0,0,0,0,0,0,0,0,0,0,0,0,0,0,0,0,0,0,0,0,0,0,0,0,0,0,0,0,0],"sum_hessian":[5.7005496E4,3.744554E4,1.9559957E4,1.4547427E4,2.2898113E4,1.5089338E4,4.4706196E3,2.9035842E3,1.1643843E4,2.1550559E4,1.3475553E3,1.490906E2,1.4940247E4,9.25205E2,3.5454146E3,8.6981445E2,2.0337698E3,1.1353069E4,2.9077325E2,2.0888672E4,6.618863E2,1.2337655E3,1.1378985E2,3.146587E1,1.1762473E2,1.4451073E4,4.891734E2,2.940317E1,3.5160115E3],"tree_param":{"num_deleted":"0","num_feature":"40","num_nodes":"29","size_leaf_vector":"1"}},{"base_weights":[3.241014E-3,-3.4334275E-1,2.7904978E-1,-7.259399E-1,-2.233735E-1,1.6924368E-1,6.9277835E-1,-1.0047585E0,-6.038346E-1,-7.024005E-1,-1.8801044E-1,-6.155482E-1,1.9102867E-1,1.1424744E0,5.9885675E-1,-3.048333E-2,1.0574956E-2,-1.8500714E-2,3.3694416E-2,-2.4278805E-2,-1.5293467E-2,-6.8696425E-3,7.0123444E-3,-4.1266087E-2,-1.6057296E-2,-1.1815001E-2,6.644678E-3,3.5819575E-2,2.7279094E-2,